svm_type c_svc
kernel_type linear
nr_class 3
total_sv 167
rho 2.47323 -0.471005 -1.0004
label 0 2 1
nr_sv 68 62 37
SV
1 0 6:11 7:0.3548 8:31 9:9 15:2 17:15.5 18:2 20:7 21:8 22:3 25:7 26:8 27:3 29:2 31:8.6667 32:0.9467 33:20.3333 39:0.3333 40:0.3333 42:12 43:1.3333 44:0.6667 45:5.3333 46:3.6667 47:1 49:0.0741 50:0.6898 51:0.4167 52:0.1574 55:0.3333 56:0.3333 62:1 89:2 90:0.0645 91:0.1489 92:0.1137 
0.3209246678892506 0.1184625036096193 6:7 7:0.2414 8:29 14:1 17:29 18:1 20:8 21:6 22:2 25:1.3333 26:1 27:0.3333 31:9.3333 32:0.5916 33:21.6667 34:1.6667 39:0.6667 42:15.3333 43:1.3333 44:0.6667 45:6.6667 46:3 47:2.3333 49:0.1389 50:1.5833 51:0.75 52:0.6389 54:0.3333 56:0.3333 74:1 89:3.6667 90:0.1264 91:0.1918 92:0.2706 93:0.3333 94:0.0115 95:0.0333 96:0.0196 
0 1 6:13 7:0.1806 8:72 9:9 14:2 15:3 16:1 17:14.4 18:5 20:11 21:12 22:7 25:11 26:12 27:7 31:11.25 32:0.3329 33:36.25 34:4.5 35:1 36:0.5 39:0.5 42:21.25 43:2 44:0.25 45:5.5 46:10.5 47:3.25 49:0.0278 50:4.1667 51:9.3889 52:2.5833 54:1.75 55:0.25 56:0.25 68:1 88:1 89:8.25 90:0.1146 91:0.2244 92:0.2536 93:1.75 94:0.0243 95:0.0397 96:0.034 97:1.25 98:0.0174 99:0.0262 100:0.0234 
1 0.214823174747788 1:1 2:1 6:10 7:0.1389 8:72 9:15 14:2 16:2 17:18 18:4 19:1 20:10 21:26 22:2 24:0.3333 25:3.3333 26:8.6667 27:0.6667 29:7 30:1.3333 31:10.3333 32:0.863 33:21.3333 34:5.3333 42:18.8333 43:1.3333 45:2.3333 46:9 47:1 50:2.3333 51:7.8 52:1 54:2 55:0.3333 58:0.3333 59:0.3333 65:1 89:2.3333 90:0.0324 91:0.0687 92:0.0814 93:0.6667 94:0.0093 95:0.0155 96:0.0135 97:0.3333 98:0.0046 99:0.0078 100:0.0068 
0.6398453568236205 0 6:7 7:0.5 8:14 9:2 15:1 17:7 18:2 20:2 21:2 22:2 25:2 26:2 27:2 31:74 32:5.6923 33:13 34:7 39:1 42:13 43:1 45:1 46:9 50:0.0135 51:0.1216 54:1 56:1 68:1 88:1 
0.8403870573484579 0 1:1 2:1 6:8 7:1.3333 8:6 9:3 15:1 17:6 18:1 20:1 21:1 22:1 25:1 26:1 27:1 30:1 31:7 32:1 33:7 42:7 43:1 46:3 51:3 55:1 56:1 67:1 
1 0 6:10 7:0.122 8:82 9:23 13:1 15:6 17:8.2 18:10 20:13 21:23 22:5 25:3.25 26:5.75 27:1.25 29:5 31:10.75 32:0.1031 33:149 34:25.5 35:1.5 36:0.25 39:3 42:18.5302 43:8.5 44:1.25 45:22.75 46:40.5 47:8.25 49:1.0625 50:21.4375 51:38.4375 52:7.6875 54:13.75 58:0.5 59:0.75 64:1 89:15.75 90:0.1921 91:0.1247 92:0.3169 93:3.5 94:0.0427 95:0.0249 96:0.042 97:1.5 98:0.0183 99:0.0119 100:0.0221 
0 0.2431434299948604 6:10 7:0.4348 8:23 9:5 12:1 14:1 15:1 17:11.5 18:2 20:1 21:9 22:3 25:0.1667 26:1.5 27:0.5 29:1 31:14.5 32:0.2294 33:65.5 34:6 39:1.5 42:14.1 43:4.5 44:1 45:12 46:12.5 47:9.5 49:0.5 50:3.875 51:3.75 52:3.25 54:0.5 56:0.5 58:1 62:1 88:1 89:3 90:0.1304 91:0.061 92:0.0776 
0 0.2150567215613076 6:8 7:0.2667 8:30 9:4 14:1 15:1 17:30 18:1 19:1 20:7 21:6 22:5 24:1 25:7 26:6 27:5 29:3 31:9.3333 32:0.3651 33:28.3333 34:11 35:0.3333 36:0.6667 42:13.3 43:2.6667 45:4 46:13 47:1.3333 50:4 51:8.4667 52:1.3333 54:3.3333 55:0.3333 56:0.3333 65:1 88:1 89:4 90:0.1333 91:0.1168 92:0.1374 
1 0 6:11 7:0.234 8:47 9:6 14:1 15:1 17:15.6667 18:3 20:9 21:9 22:3 25:9 26:9 27:3 29:3 31:9 32:0.3993 33:30.6 34:2.6 36:0.4 39:1.2 41:0.2 42:17 43:1.8 45:4.6 46:6.8 47:2.2 50:2.3867 51:3.9867 52:1.3333 54:0.8 55:0.2 56:0.2 73:1 89:6.8 90:0.1447 91:0.2144 92:0.2074 93:1.2 94:0.0255 95:0.0212 96:0.0238 97:0.4 98:0.0085 99:0.0053 100:0.0071 
0.9745737659825182 0 6:15 7:0.4839 8:31 9:3 14:1 15:1 16:2 17:7.75 18:4 20:6 21:8 22:1 25:6 26:8 27:1 29:1 31:12.5 32:0.9907 33:17.5 34:0.5 36:1 42:17.5 43:1 45:1 46:4 47:0.5 50:1 51:4 52:0.5 55:0.5 57:1 58:0.5 59:1 62:1 88:1 89:3.5 90:0.1129 91:0.3056 92:0.3334 93:1 94:0.0323 95:0.125 96:0.0756 97:0.5 98:0.0161 99:0.0625 100:0.0378 
1 1 1:0.2 2:0.4 6:14 7:0.2979 8:47 9:2 15:3 17:11.75 18:4 20:9 21:13 22:3 25:9 26:13 27:3 29:2 30:0.8 31:11.2 32:0.6267 33:24.4 34:0.6 36:0.2 42:24.4 43:1 44:0.2 45:3.8 46:6.6 47:2 49:0.04 50:1.1867 51:1.84 52:0.6 54:0.4 55:0.2 57:0.2 58:0.2 59:0.2 67:1 89:4.6 90:0.0979 91:0.2319 92:0.2001 93:0.8 94:0.017 95:0.0299 96:0.0234 97:0.4 98:0.0085 99:0.0078 100:0.0092 
1 0.4904171911570664 6:10 7:0.3333 8:30 9:7 14:1 15:2 17:10 18:3 20:5 21:11 22:2 25:5 26:11 27:2 29:3 31:8.75 32:0.3237 33:33 34:3.25 35:0.5 36:0.375 38:0.125 39:0.5 42:22.875 43:1.75 44:0.25 45:5.375 46:9.125 47:2.5 49:0.1667 50:3.1369 51:5.6458 52:2.0179 54:1.125 55:0.125 56:0.125 64:1 89:4.875 90:0.1625 91:0.1556 92:0.1774 93:0.875 94:0.0292 95:0.0193 96:0.0258 97:0.375 98:0.0125 99:0.007 100:0.0104 
0.2302239093062943 0.01723312005046697 6:13 7:0.1494 8:87 9:6 14:1 15:1 17:21.75 18:4 20:16 21:16 22:6 25:2.6667 26:2.6667 27:1 31:8.5 32:0.2199 33:39 34:2 39:2 42:16.6667 43:2.5 45:10 46:3.5 47:6.5 50:10 51:3.5 52:6.5 55:0.5 59:0.5 71:1 88:1 89:4.5 90:0.0517 91:0.1156 92:0.2238 93:1 94:0.0115 95:0.0261 96:0.0176 97:0.5 98:0.0057 99:0.0114 100:0.0086 
0.9626955101528269 0 6:10 7:0.3448 8:29 9:5 14:1 15:1 17:14.5 18:2 19:1 20:7 21:9 22:1 24:1 25:7 26:9 27:1 29:1 31:8.2727 32:0.386 33:34.5455 34:5.9091 39:0.0909 41:0.4545 42:12.0006 43:2.8182 44:0.2727 45:5.6364 46:8.7273 47:3.5455 49:0.1818 50:4.1117 51:6.8961 52:2.3532 54:2.1818 56:0.0909 57:0.0909 58:0.1818 69:1 89:3.2727 90:0.1129 91:0.1081 92:0.1277 93:0.5455 94:0.0188 95:0.0203 96:0.023 97:0.4545 98:0.0157 99:0.0178 100:0.02 
1 0 6:8 7:0.2581 8:31 9:6 12:1 15:1 17:10.3333 18:3 19:1 20:6 21:8 22:2 24:0.3333 25:2 26:2.6667 27:0.6667 29:3 30:0.4 31:22.8 32:0.635 33:53.2 34:13 38:0.2 39:0.2 42:26.2 43:2.2 44:0.4 45:5.2 46:20.4 47:1.8 49:0.0105 50:0.7996 51:2.9888 52:0.2505 54:2.8 58:0.4 59:0.4 73:1 89:2.8 90:0.0903 91:0.0748 92:0.1003 
0.9182735148055217 0 6:10 7:1 8:10 9:1 15:1 17:10 18:1 20:3 21:3 25:3 26:3 31:9.3333 32:0.3966 33:39.5 34:3.6667 36:0.3333 39:1.6667 40:0.1667 41:0.1667 42:18.1111 43:2 44:0.6667 45:7 46:9 47:2.8333 49:0.5238 50:4.7143 51:5.4286 52:2.5476 54:1.5 55:0.1667 56:0.1667 68:1 89:1.6667 90:0.1667 91:0.0607 92:0.1015 93:0.3333 94:0.0333 95:0.0106 96:0.0237 
1 0 6:8 7:0.2581 8:31 9:8 14:1 15:2 17:10.3333 18:3 20:5 21:5 22:4 25:5 26:5 27:4 29:2 31:7.3333 32:0.3323 33:22 34:3.3333 36:0.3333 39:0.6667 42:15 43:1.6667 45:4.6667 46:4.6667 47:2 50:2.8333 51:2.75 52:1.3333 54:2 55:0.3333 58:0.3333 62:1 89:4.3333 90:0.1398 91:0.1995 92:0.2972 93:1.3333 94:0.043 95:0.0652 96:0.0629 97:0.6667 98:0.0215 99:0.0333 100:0.0312 
0.1095667333735029 0 6:19 7:0.4043 8:47 9:5 16:1 17:23.5 18:2 19:2 20:12 21:13 22:3 24:0.3333 25:2 26:2.1667 27:0.5 29:1 31:4 32:0.8 33:5 36:1 42:5 43:1 45:1 47:1 50:0.3333 52:0.3333 55:1 56:1 62:1 89:2 90:0.0426 91:0.4 92:0.1879 93:1 94:0.0213 95:0.2 96:0.0682 
0.6649292284352248 0 6:13 7:0.2889 8:45 9:1 14:1 17:45 18:1 19:1 20:6 21:15 22:3 24:1 25:6 26:15 27:3 31:9.6667 32:0.2318 33:75.4444 34:3.5556 35:0.1111 36:0.1111 39:2 41:0.1111 42:20.1479 43:3.5556 44:0.3333 45:11.3333 46:14.4444 47:5.3333 49:0.2778 50:7.1481 51:9.4815 52:2.9815 54:0.6667 55:0.1111 56:0.1111 79:1 89:8 90:0.1778 91:0.1365 92:0.2871 93:0.5556 94:0.0123 95:0.0038 96:0.0069 97:0.1111 98:0.0025 99:0.0008 100:0.0015 
0.2782287766699881 0 2:0.3333 6:13 7:1.4444 8:9 9:2 17:9 18:1 20:2 21:3 22:1 25:2 26:3 27:1 29:1 31:9 32:0.3593 33:38.6667 34:6 36:0.6667 39:1.3333 42:15.5 43:2.6667 45:4.6667 46:9.6667 47:4.6667 50:4.6667 51:9.6667 52:4.6667 54:2.3333 56:0.3333 71:1 89:1.3333 90:0.1481 91:0.0793 92:0.1093 93:0.3333 94:0.037 95:0.0061 96:0.0165 97:0.3333 98:0.037 99:0.0061 100:0.0168 
0.6940574413136715 0.205666214727898 6:12 7:0.4 8:30 9:3 15:2 17:15 18:2 20:6 21:6 22:3 25:6 26:6 27:3 29:2 31:11.25 32:0.323 33:53.25 34:3.75 36:0.25 39:0.25 40:0.25 42:19.55 43:3 44:0.75 45:10.5 46:10 47:7.5 49:0.75 50:10.5 51:10 52:7.5 54:0.25 55:0.25 56:0.25 68:1 88:1 89:5.75 90:0.1917 91:0.1228 92:0.209 93:0.5 94:0.0167 95:0.0062 96:0.011 97:0.25 98:0.0083 99:0.0035 100:0.006 
1 0.2943835343834495 6:8 7:0.4211 8:19 9:4 14:1 17:19 18:1 19:1 20:2 21:6 22:1 24:0.1429 25:0.2857 26:0.8571 27:0.1429 29:3 31:10.3333 32:0.4429 33:32.6667 34:6.3333 36:0.3333 39:0.6667 41:0.6667 42:13.2778 43:2.3333 44:0.3333 45:4.3333 46:8.6667 47:3.3333 49:0.3333 50:4.3333 51:8.6667 52:3.3333 54:2.6667 55:0.3333 58:0.3333 59:0.3333 62:1 88:1 89:3.6667 90:0.193 91:0.0898 92:0.1878 93:0.6667 94:0.0351 95:0.0121 96:0.0321 97:0.3333 98:0.0175 99:0.0061 100:0.0109 
0.8555006504208501 0.3090739240612324 6:9 7:1.2857 8:7 9:1 15:1 17:7 18:1 20:1 21:5 25:1 26:5 29:1 31:11 32:0.131 33:84 34:5 42:21 43:4 44:1 45:22 46:15 47:6 49:1 50:22 51:15 52:6 58:1 67:1 89:3 90:0.4286 91:0.0357 92:0.1003 93:2 94:0.2857 95:0.0238 96:0.0907 97:1 98:0.1429 99:0.0119 100:0.0465 
0.7658466240020135 0 6:12 7:0.48 8:25 9:2 14:1 15:2 17:12.5 18:2 20:8 21:4 22:3 25:8 26:4 27:3 29:1 31:24 32:0.3153 33:70.6667 34:7.3333 39:2.6667 41:0.3333 42:19.9167 43:3.6667 44:0.6667 45:13 46:14.6667 47:9 49:0.6667 50:10.1667 51:11.5 52:6.5 54:1.3333 58:0.3333 67:1 89:5.6667 90:0.2267 91:0.0779 92:0.2061 93:0.6667 94:0.0267 95:0.0081 96:0.0376 97:0.6667 98:0.0267 99:0.0081 100:0.0383 
0.2138787587003397 0.1022872675550179 6:7 7:0.3889 8:18 9:7 17:18 18:1 19:1 20:2 21:10 24:1 25:2 26:10 29:4 31:10 32:5 33:2 42:2 43:1 55:1 56:1 69:1 
1 1 6:11 7:0.2245 8:49 9:2 14:2 17:24.5 18:2 19:1 20:8 21:15 22:1 24:1 25:8 26:15 27:1 29:2 31:8.125 32:1.1475 33:9.625 34:1 36:0.25 41:0.5 42:7.5625 43:1.375 45:0.875 46:2.625 47:0.375 50:0.5417 51:1.7917 52:0.0417 54:0.375 55:0.125 56:0.125 73:1 88:1 89:1.75 90:0.0357 91:0.1688 92:0.1422 
0.4821300970867794 0 6:10 7:0.7143 8:14 9:5 12:1 15:1 17:7 18:2 20:1 21:7 22:1 25:1 26:7 27:1 29:2 30:2.6667 31:17.3333 32:0.1861 33:154 34:18.3333 37:0.3333 39:1.6667 40:2 42:32.1974 43:8 44:2.3333 45:22 46:46.6667 47:9.3333 49:2.3333 50:22 51:46.6667 52:9.3333 54:3 55:0.3333 56:0.3333 57:0.3333 58:0.3333 70:1 89:2.3333 90:0.1667 91:0.0251 92:0.0555 93:0.6667 94:0.0476 95:0.0113 96:0.0267 97:0.6667 98:0.0476 99:0.0113 100:0.0267 
0 0.1275196104213143 6:12 7:0.1579 8:76 9:12 10:1 15:1 17:76 18:1 20:15 21:13 22:10 25:15 26:13 27:10 29:4 31:11.1111 32:0.3985 33:36.6667 34:2.2222 35:0.2222 36:0.4444 39:0.2222 41:0.2222 42:18.9222 43:2 44:0.2222 45:5.6667 46:9.1111 47:2.1111 49:0.1389 50:3.7526 51:5.4825 52:1.2131 54:0.6667 55:0.1111 56:0.1111 62:1 89:7.6667 90:0.1009 91:0.228 92:0.2074 93:0.6667 94:0.0088 95:0.0192 96:0.0162 97:0.3333 98:0.0044 99:0.0117 100:0.0108 
0.9248408715595994 0 6:7 7:0.25 8:28 9:6 14:1 17:28 18:1 20:5 21:6 22:5 25:5 26:6 27:5 29:2 31:9 32:0.5609 33:20.75 34:3.75 39:0.75 42:13.4167 43:1.5 45:2.75 46:7.5 47:1.25 50:1.7357 51:3.6762 52:1.05 54:1.5 55:0.25 56:0.25 57:0.5 58:0.5 59:0.25 73:1 89:2.75 90:0.0982 91:0.1073 92:0.1029 93:0.25 94:0.0089 95:0.0057 96:0.0075 
0.2773801499552835 0 6:11 7:0.25 8:44 9:1 10:2 17:44 18:1 20:7 21:11 22:2 25:7 26:11 27:2 31:11 32:0.8086 33:15 34:1.5 36:0.5 39:0.5 42:10.25 43:1.5 45:2 46:3.5 50:1.5833 51:3.0833 54:1 55:0.5 56:0.5 71:1 88:1 89:1.5 90:0.0341 91:0.1172 92:0.1133 
0 0.4210521832706803 1:2 2:2 6:9 7:1.5 8:6 17:6 18:1 20:1 21:1 22:1 25:1 26:1 27:1 30:3 31:33 32:1 33:33 34:3 42:33 43:1 45:3 46:15 50:0.0909 51:0.4545 55:1 56:1 67:1 89:1 90:0.1667 91:0.0303 92:0.0542 
1 1 6:9 7:0.3333 8:27 9:5 14:1 15:1 17:13.5 18:2 20:7 21:6 25:7 26:6 29:3 31:8.5 32:0.5187 33:20.25 34:2.25 39:0.25 41:0.25 42:9.75 43:2.25 44:0.25 45:3.25 46:5.25 47:1.25 49:0.0833 50:1.4811 51:2.6098 52:0.1894 54:0.25 55:0.25 56:0.25 57:0.25 59:0.25 68:1 88:1 89:1.25 90:0.0463 91:0.0642 92:0.0681 
0.4571528819659585 0.3676402622281296 6:8 7:0.4 8:20 9:4 15:2 17:6.6667 18:3 19:1 20:4 21:5 24:1 25:4 26:5 31:8 32:0.25 33:32 34:1 39:1 42:10.6667 43:3 44:2 45:5 46:6 47:6 49:1 50:2.5 51:3 52:3 54:1 59:1 73:1 88:1 
1 0.1206095440669491 6:11 7:0.1392 8:79 9:12 14:2 15:2 17:13.1667 18:6 20:17 21:18 22:7 25:17 26:18 27:7 29:2 31:10.5385 32:0.3406 33:54.3846 34:5.3077 36:0.1538 39:0.9231 40:0.0769 42:32.5692 43:2.1538 44:0.6923 45:8.3077 46:16.4615 47:2.3077 48:0.1538 49:0.516 50:6.2057 51:10.2296 52:1.7549 53:0.1026 54:2 55:0.0769 57:0.1538 58:0.3077 59:0.1538 67:1 89:9.1538 90:0.1159 91:0.2047 92:0.2315 93:1.3846 94:0.0175 95:0.0297 96:0.0259 97:0.7692 98:0.0097 99:0.0169 100:0.0163 
1 0.9935371008671198 6:8 7:0.4444 8:18 15:2 17:9 18:2 20:3 21:4 22:2 25:3 26:4 27:2 31:7 32:0.8264 33:8.5 36:0.5 42:8.5 43:1 46:3.5 47:0.5 51:1.1667 52:0.1667 55:0.5 56:0.5 71:1 88:1 
0.9012030909506826 0.7454226693643503 6:5 7:0.7143 8:7 15:3 17:2.3333 18:3 21:1 26:1 31:6.1667 32:0.7529 33:10.5 34:0.5 35:0.1667 36:0.1667 39:0.1667 41:0.3333 42:6.8333 43:1.5 45:1.3333 46:2.3333 47:1.1667 50:0.5417 51:0.6875 52:0.5208 55:0.1667 56:0.1667 68:1 88:1 89:0.3333 90:0.0476 91:0.0185 92:0.0417 
0.1840387960574411 0 2:2 6:14 7:0.2979 8:47 9:7 13:1 14:1 15:2 17:15.6667 18:3 19:1 20:9 21:13 22:2 24:0.2 25:1.8 26:2.6 27:0.4 29:5 30:10 31:29 32:0.3625 33:80 42:80 43:1 45:2 46:42 50:2 51:42 55:1 56:1 57:1 67:1 
0 0.5868297789722676 6:11 7:0.1571 8:70 9:6 10:1 14:1 15:2 16:1 17:14 18:5 20:14 21:16 22:11 25:14 26:16 27:11 29:2 31:9 32:0.3462 33:26 39:2 41:2 42:13 43:2 45:4 46:6 47:5 50:4 51:6 52:5 56:1 62:1 89:3 90:0.0429 91:0.1154 92:0.0567 
0.06069522193271941 0 6:6 7:0.2143 8:28 9:4 13:1 14:1 15:1 17:14 18:2 20:7 21:4 22:3 25:7 26:4 27:3 29:2 31:5 32:2 33:3 34:0.5 36:0.5 42:3 43:1 45:1 46:0.5 47:0.5 50:0.2083 51:0.0833 52:0.125 55:0.5 56:0.5 57:0.5 59:0.5 65:1 89:2 90:0.0714 91:0.625 92:0.2164 
0 0.2538253210962522 6:11 7:0.193 8:57 9:1 14:2 17:57 18:1 19:2 20:10 21:15 22:4 24:2 25:10 26:15 27:4 31:11.75 32:0.2343 33:102.25 34:16.25 36:0.25 38:0.75 39:1 41:0.25 42:18.3581 43:6 44:2.75 45:18 46:22.25 47:8.5 49:2.75 50:18 51:22.25 52:8.5 54:6.5 55:0.25 56:0.25 66:1 88:1 89:8.5 90:0.1491 91:0.1121 92:0.2599 
0 0.4665814353218529 1:0.0909 2:0.0909 6:8 7:0.2857 8:28 9:5 11:1 17:14 18:2 20:4 21:6 22:2 25:4 26:6 27:2 30:0.1364 31:8.5 32:1.3953 33:11.6818 34:1.6364 35:0.1364 36:0.2727 39:0.0455 40:0.0909 41:0.0455 42:9.2424 43:1.2727 45:1.0909 46:3.1364 47:0.3182 48:0.0455 50:0.8838 51:2.3258 52:0.2273 53:0.0455 54:0.3182 55:0.0455 57:0.2273 58:0.1818 59:0.3182 67:1 89:1.5 90:0.0536 91:0.1286 92:0.0853 
0.09191371447005565 0 1:1 2:3 6:7 7:0.0886 8:79 9:9 12:1 14:4 16:5 17:13.1667 18:6 19:9 20:19 21:7 22:9 24:9 25:19 26:7 27:9 29:2 30:6 31:13 32:0.5652 33:23 42:23 43:1 45:2 46:17 50:2 51:17 55:1 56:1 67:1 
0 0.4741573480299955 6:10 7:0.3448 8:29 14:2 15:1 17:14.5 18:2 20:6 21:5 22:2 25:6 26:5 27:2 31:8.75 32:1.5532 33:11.125 34:0.375 35:0.125 36:0.375 37:0.125 39:0.125 42:9.5 43:1.125 44:0.125 45:2.375 46:2.375 47:1.75 49:0.125 50:2.1667 51:1.5542 52:1.6375 55:0.125 62:1 89:2.5 90:0.0862 91:0.2528 92:0.1792 93:0.875 94:0.0302 95:0.1242 96:0.0641 97:0.5 98:0.0172 99:0.0675 100:0.0358 
0 0.1715715366075839 6:9 7:0.4737 8:19 9:7 12:1 15:1 17:9.5 18:2 20:2 21:8 25:2 26:8 29:3 31:7.3333 32:0.2971 33:27.6667 34:4.6667 36:0.3333 41:1 42:14.1667 43:2 45:3.3333 46:7.3333 47:0.6667 50:3.3333 51:7.3333 52:0.6667 54:1.3333 56:0.3333 65:1 88:1 89:1.3333 90:0.0702 91:0.052 92:0.0936 
0.2345536833310085 0.4150974375151189 6:9 7:0.3 8:30 9:6 17:30 18:1 20:5 21:6 22:2 25:1 26:1.2 27:0.4 29:4 31:11.6667 32:0.294 33:76 34:6 35:0.6667 39:0.6667 40:0.3333 41:0.3333 42:13.1852 43:4.6667 44:1.3333 45:12.6667 46:16 47:5.3333 49:0.6111 50:5.8889 51:7.2778 52:2.5556 54:1.6667 58:0.3333 59:0.6667 69:1 89:4 90:0.1333 91:0.066 92:0.0886 93:0.3333 94:0.0111 95:0.0167 96:0.0166 97:0.3333 98:0.0111 99:0.0167 100:0.0166 
0.1653418488340824 0 6:10 7:0.2 8:50 9:2 15:1 17:25 18:2 20:10 21:10 22:2 25:1 26:1 27:0.2 31:8 32:1.9167 33:8.6667 34:0.6667 42:8.6667 43:1 45:1.6667 46:1.3333 47:1.3333 50:0.4815 51:0.4444 52:0.7407 56:0.3333 57:0.6667 58:0.3333 59:0.6667 69:1 89:0.6667 90:0.0133 91:0.0556 92:0.036 
0.04665225445794111 0.2991903525083032 6:11 7:0.193 8:57 9:6 14:2 15:2 17:14.25 18:4 20:7 21:16 22:11 25:7 26:16 27:11 29:1 31:8 32:0.4454 33:39.2 34:0.2 35:0.4 36:0.4 38:0.2 39:1.6 40:0.2 42:17.4333 43:2.4 44:0.2 45:7.4 46:5.8 47:7 49:0.0333 50:4.575 51:3.8417 52:4.1 55:0.2 70:1 88:1 89:6.8 90:0.1193 91:0.263 92:0.181 93:1 94:0.0175 95:0.0232 96:0.019 97:1 98:0.0175 99:0.0232 100:0.0206 
1 0.5669599829086268 6:10 7:0.2041 8:49 9:3 12:1 14:2 15:1 17:16.3333 18:3 19:1 20:4 21:17 22:3 24:1 25:4 26:17 27:3 29:2 31:6.7143 32:0.9452 33:10.8571 34:1.8571 42:10.8571 43:1 45:2.1429 46:3.4286 47:0.4286 50:1.2857 51:2 52:0.3214 54:1.5714 55:0.1429 56:0.1429 76:1 88:1 89:2.2857 90:0.0466 91:0.2836 92:0.1369 93:0.2857 94:0.0058 95:0.0571 96:0.0195 97:0.1429 98:0.0029 99:0.0286 100:0.0097 
0.5389163945590056 0.6649463497012316 6:9 7:0.3333 8:27 9:2 15:1 17:27 18:1 20:6 21:5 22:3 25:6 26:5 27:3 31:8 32:2.6667 33:3 34:2 42:3 43:1 56:1 58:1 70:1 
0.9860052324433365 0.09591244854302157 6:11 7:0.6471 8:17 9:4 14:1 17:8.5 18:2 20:2 21:5 22:1 25:0.6667 26:1.6667 27:0.3333 29:2 31:8 32:0.1778 33:45 34:3 37:1 39:1 42:22.5 43:2 45:6 46:14 47:1 50:1 51:2.3333 52:0.1667 77:1 88:1 89:3 90:0.1765 91:0.0667 92:0.1035 93:1 94:0.0588 95:0.0222 96:0.0381 
0.9648903149099365 1 6:12 7:0.3243 8:37 13:1 14:1 17:37 18:1 20:7 21:8 22:3 25:7 26:8 27:3 31:9.8 32:0.9155 33:12 34:1.2 35:0.2 36:0.2 39:1.2 42:12 43:1 45:0.8 46:3.2 47:1.4 50:0.8 51:2.5333 52:1.2667 55:0.2 56:0.2 68:1 88:1 89:3.4 90:0.0919 91:0.3232 92:0.2305 93:0.4 94:0.0108 95:0.0554 96:0.0215 
0 0.03283658447523798 6:7 7:0.35 8:20 9:1 15:4 16:5 17:2.2222 18:9 20:2 21:3 22:2 25:2 26:3 27:2 29:1 31:8.4545 32:0.4768 33:26.2727 34:1.4545 36:0.0909 39:0.5455 41:0.2727 42:10.9773 43:2.2727 44:0.3636 45:4.4545 46:6 47:2.7273 49:0.3636 50:4.2303 51:5.6273 52:2.5788 54:0.4545 55:0.0909 56:0.0909 57:0.1818 58:0.1818 59:0.1818 73:1 89:2.3636 90:0.1182 91:0.1153 92:0.1727 93:0.0909 94:0.0045 95:0.003 96:0.0053 
1 0.9003133961086321 6:6 7:0.2308 8:26 9:6 14:1 15:1 17:8.6667 18:3 20:4 21:6 22:4 25:4 26:6 27:4 29:2 31:8.6667 32:0.3289 33:31.3333 34:1.3333 39:1 42:31.3333 43:1 44:0.3333 45:6.6667 46:5.3333 47:3.3333 49:0.0417 50:2.4167 51:2.2083 52:1.2083 55:0.3333 56:0.3333 62:1 89:4 90:0.1538 91:0.0978 92:0.1399 
0 0.4825753031572969 6:9 7:4.5 8:2 17:2 18:1 21:2 26:0.2222 31:11.3333 32:0.4911 33:30 34:4.3333 39:0.6667 40:0.3333 41:0.3333 42:19.7778 43:1.6667 44:0.3333 45:5.3333 46:8 47:3.6667 49:0.3333 50:3.3333 51:5.75 52:1.9167 54:1.6667 55:0.3333 56:0.3333 57:0.3333 58:0.3333 59:0.3333 72:1 89:0.3333 90:0.1667 91:0.0093 92:0.0327 
0.9708721466204997 0 6:9 7:1 8:9 9:5 12:1 15:1 16:1 17:4.5 18:2 21:5 26:5 29:1 31:9 32:1.0312 33:11 34:2.5 42:11 43:1 45:1.5 46:4 47:1 50:0.6667 51:1.5 52:0.1667 54:1 55:0.5 59:0.5 65:1 89:0.5 90:0.0556 91:0.0833 92:0.0845 
1 0.8995636523439627 6:12 7:0.2727 8:44 9:10 12:1 17:11 18:4 20:8 21:11 22:3 25:1.3333 26:1.8333 27:0.5 29:3 31:11.25 32:0.8179 33:21 34:3.25 39:0.25 41:1 42:11.9583 43:2.5 45:2.75 46:7 47:1.25 50:1.9028 51:3.4056 52:0.875 54:1.25 55:0.25 56:0.25 57:0.25 58:0.25 67:1 89:1.25 90:0.0284 91:0.0482 92:0.0556 
0 0.5060708242925669 6:11 7:0.2683 8:41 9:9 14:1 15:1 17:8.2 18:5 20:6 21:10 22:5 25:1 26:1.6667 27:0.8333 29:1 31:9.7143 32:0.3302 33:35.7143 34:4.4286 35:0.1429 36:0.1429 39:1.1429 41:0.2857 42:17.5442 43:2.7143 45:5.1429 46:7.2857 47:2.8571 48:0.1429 50:5.1429 51:7.2857 52:2.8571 53:0.1429 54:1.7143 55:0.1429 56:0.1429 58:0.2857 59:0.1429 62:1 89:4.7143 90:0.115 91:0.1462 92:0.1672 93:0.8571 94:0.0209 95:0.0201 96:0.0307 97:0.1429 98:0.0035 99:0.0039 100:0.0079 
1 0 6:9 7:0.3913 8:23 9:1 12:1 15:1 17:11.5 18:2 20:6 21:7 22:1 25:1 26:1.1667 27:0.1667 31:7.5 32:0.4479 33:17 34:1 35:0.5 36:0.5 42:17 43:1 45:2 46:6.5 47:2 50:2 51:6.5 52:2 54:0.5 55:0.5 56:0.5 64:1 88:1 89:2.5 90:0.1087 91:0.1528 92:0.1297 
1 0.528603327051072 6:9 7:0.375 8:24 9:3 10:1 12:1 14:1 15:1 17:12 18:2 20:5 21:7 22:1 25:5 26:7 27:1 31:6.5 32:0.6591 33:14 34:0.5 39:0.5 41:2 42:5.2 43:3 44:0.5 45:2.5 46:3 47:1 49:0.0833 50:0.8333 51:1.3333 52:0.1667 55:0.5 56:0.5 78:1 88:1 89:1.5 90:0.0625 91:0.0682 92:0.0693 
1 1 6:9 7:0.3913 8:23 9:3 14:1 15:1 17:11.5 18:2 20:5 21:5 22:4 25:5 26:5 27:4 29:1 31:8.6 32:0.4732 33:26.2 34:2.4 35:0.2 39:1 40:2.2 41:0.2 42:12.05 43:3.6 44:0.4 45:3.6 46:5 47:2.2 49:0.2286 50:3.4286 51:4.8286 52:2.2 54:0.8 55:0.2 59:0.2 62:1 89:5.2 90:0.2261 91:0.2245 92:0.2828 93:1 94:0.0435 95:0.0491 96:0.0516 97:0.2 98:0.0087 99:0.0133 100:0.0126 
1 0 6:9 7:0.1525 8:59 9:2 14:1 15:1 17:59 18:1 19:3 20:12 21:12 22:9 24:3 25:12 26:12 27:9 29:1 31:9 32:0.3164 33:30.5 34:4 36:0.5 39:1.5 42:24.5 43:1.5 45:3.5 46:8.5 47:4 50:3.5 51:8.5 52:4 54:2.5 55:0.5 56:0.5 58:0.5 59:0.5 68:1 89:9 90:0.1525 91:0.3018 92:0.4345 93:2 94:0.0339 95:0.0614 96:0.0572 
1 0.4843207267951652 6:9 7:0.36 8:25 9:3 14:1 15:1 17:8.3333 18:3 19:1 20:5 21:7 22:1 24:1 25:5 26:7 27:1 31:7 32:0.2692 33:26 34:3 42:13 43:2 45:5 46:4 47:2 50:5 51:4 52:2 54:2 55:1 56:1 62:1 88:1 89:3 90:0.12 91:0.1154 92:0.2357 93:1 94:0.04 95:0.0385 96:0.0445 
0.4766065114827608 0 6:10 7:0.25 8:40 9:3 11:1 14:1 15:1 17:13.3333 18:3 20:7 21:7 22:6 25:7 26:7 27:6 31:10.6667 32:0.3 33:77.6667 34:11 35:0.3333 36:0.3333 39:0.6667 42:22.7083 43:3.6667 44:0.3333 45:9.6667 46:24.6667 47:5.6667 48:0.3333 49:0.3333 50:9.6667 51:24.6667 52:5.6667 53:0.3333 54:4.6667 55:0.3333 56:0.3333 62:1 88:1 89:7.3333 90:0.1833 91:0.1499 92:0.2723 93:1 94:0.025 95:0.0293 96:0.0265 97:1 98:0.025 99:0.0293 100:0.0266 
0 0.09332403574559683 6:12 7:0.1519 8:79 9:9 10:1 12:1 15:1 17:15.8 18:5 19:1 20:12 21:20 22:10 24:1 25:12 26:20 27:10 29:3 31:8 32:8 33:1 42:1 43:1 45:1 50:0.125 55:1 56:1 67:1 
0.5652344768232278 0.8416116450521253 6:8 7:0.2759 8:29 9:5 15:1 16:1 17:14.5 18:2 20:3 21:6 22:2 25:3 26:6 27:2 31:18.25 32:3.2583 33:7.5 34:2 42:7.5 43:1 45:0.75 46:3.5 47:0.5 50:0.75 51:1.8913 52:0.5 54:1 55:0.25 56:0.25 59:0.25 74:1 89:0.75 90:0.0259 91:0.0764 92:0.0763 
0.7929355843595273 1 1:0.1818 2:0.1818 6:8 7:0.3636 8:22 9:3 14:1 15:1 17:11 18:2 20:3 21:6 22:2 25:3 26:6 27:2 29:2 30:0.9091 31:12.0909 32:0.2769 33:80.2727 34:9 35:0.1818 36:0.0909 38:0.1818 39:1.6364 40:0.2727 41:0.3636 42:16.9029 43:4.5455 44:1.2727 45:12.6364 46:18.7273 47:7 48:0.0909 49:1.2 50:11.4 51:17.6364 52:6.0545 53:0.0909 54:2.1818 55:0.0909 62:1 89:6.9091 90:0.314 91:0.1411 92:0.276 93:0.6364 94:0.0289 95:0.021 96:0.0267 97:0.0909 98:0.0041 99:0.0017 100:0.003 
0.4153128931613518 0.4113207681034065 6:6 7:0.8571 8:7 9:1 17:7 18:1 20:2 21:1 22:1 25:0.5 26:0.25 27:0.25 31:7.2 32:0.6736 33:17.4 34:1.8 36:0.4 39:0.2 41:1.4 42:7.8286 43:2.4 45:2.6 46:3.4 47:1.4 50:1.9333 51:2.3 52:1.2 54:0.4 56:0.2 80:1 89:1 90:0.1429 91:0.0475 92:0.0826 93:0.2 94:0.0286 95:0.0056 96:0.0145 
-1 0 6:7 7:0.4375 8:16 15:1 17:16 18:1 19:1 20:4 21:3 22:3 24:1 25:4 26:3 27:3 31:11 32:0.2273 33:49.5 34:2 36:0.5 39:2 41:0.5 42:16.5 43:3 44:0.5 45:8.5 46:9.5 47:4 49:0.5 50:5.5 51:5.8333 52:2.6667 54:0.5 55:0.5 68:1 89:4.5 90:0.2812 91:0.0864 92:0.2346 93:1 94:0.0625 95:0.0182 96:0.0358 
-1 0.6300131703107991 6:10 7:0.1786 8:56 9:6 14:3 15:2 17:14 18:4 20:5 21:19 22:1 25:5 26:19 27:1 29:1 31:11.5 32:0.3908 33:34 34:3.25 35:0.25 39:0.75 40:0.5 42:13.4062 43:3.75 44:0.25 45:5.25 46:7.75 47:2 48:0.25 49:0.25 50:5.125 51:7.5 52:1.75 53:0.25 54:1 56:0.25 57:0.5 58:0.5 59:0.25 75:1 89:4 90:0.0714 91:0.1298 92:0.1254 93:0.5 94:0.0089 95:0.0131 96:0.012 97:0.25 98:0.0045 99:0.0047 100:0.0054 
-0.47848160831316 0.4067278748141998 6:8 7:0.7273 8:11 14:1 15:1 17:11 18:1 20:2 21:4 25:2 26:4 31:13 32:0.1 33:130 34:10 35:1 39:2 40:1 41:3 42:18.5714 43:7 44:1 45:13 46:30 47:14 49:0.3333 50:4.3333 51:10 52:4.6667 54:2 59:1 71:1 88:1 89:3 90:0.2727 91:0.0231 92:0.0572 
-1 0.7197412779566844 6:15 7:0.3846 8:39 9:6 14:1 15:1 17:19.5 18:2 20:6 21:16 22:5 25:1 26:2.6667 27:0.8333 29:3 31:8.75 32:0.3825 33:37.25 34:2 36:0.25 39:0.5 42:17.1875 43:2 44:1 45:5.75 46:7 47:4.25 49:1 50:5.4167 51:6.5 52:3.9167 54:0.5 55:0.25 56:0.25 58:0.25 59:0.25 62:1 88:1 89:5.5 90:0.141 91:0.2403 92:0.2962 93:1 94:0.0256 95:0.0616 96:0.0444 
-0.8885315806483518 0 6:12 7:0.4444 8:27 9:5 14:1 15:1 17:9 18:3 20:5 21:7 22:1 25:0.7143 26:1 27:0.1429 29:2 31:11.25 32:0.364 33:32.75 34:7.25 36:0.25 37:0.25 38:0.25 42:28.0833 43:1.5 45:5.5 46:9.75 47:2.25 50:3.575 51:6.7833 52:1.5917 54:3 55:0.25 56:0.25 57:0.25 59:0.25 64:1 89:2.25 90:0.0833 91:0.063 92:0.1168 93:0.5 94:0.0185 95:0.0116 96:0.0257 
-0.9225642225710609 0.1264396170143369 1:1 2:2 6:11 7:0.1746 8:63 9:10 12:1 15:2 17:7.875 18:8 19:1 20:11 21:16 22:1 24:0.25 25:2.75 26:4 27:0.25 29:5 30:2.5 31:16 32:1.0968 33:36 34:7 42:20.5 43:1.5 45:3 46:16 47:0.5 50:1 51:5.3333 52:0.1667 54:1 55:0.5 56:0.5 70:1 89:1 90:0.0159 91:0.0581 92:0.0568 
-0 0.1041360831080788 6:7 7:0.1458 8:48 9:7 15:2 17:9.6 18:5 19:2 20:9 21:12 22:2 24:2 25:9 26:12 27:2 29:2 31:9 32:0.3462 33:26 34:7 42:8.6667 43:3 44:1 45:3 46:6 47:3 49:1 50:3 51:6 52:3 54:4 55:1 57:1 67:1 89:2 90:0.0417 91:0.0769 92:0.0586 
-0 0.3345332634309927 6:11 7:0.1528 8:72 9:9 15:2 17:12 18:6 20:10 21:22 22:2 25:10 26:22 27:2 29:2 31:18 32:0.2824 33:65.6 34:8.2 35:0.4 39:1.2 40:0.2 42:19.2571 43:3.4 44:0.4 45:11.6 46:18 47:4 49:0.3 50:8.9 51:13.8 52:2.9 54:2.6 55:0.2 56:0.2 67:1 89:8.2 90:0.1139 91:0.1243 92:0.2492 93:1.4 94:0.0194 95:0.0166 96:0.034 97:0.4 98:0.0056 99:0.0054 100:0.0075 
-0.9783514757130535 0.7997323603285522 2:0.2 6:7 7:0.875 8:8 9:3 15:1 17:8 18:1 20:1 21:3 25:1 26:3 29:2 31:9.4 32:0.6506 33:22 34:4.2 39:0.2 42:17.7 43:1.2 44:0.2 45:4 46:6 47:1.4 49:0.0286 50:1.6571 51:1.7905 52:0.5238 54:1.8 55:0.2 57:0.2 58:0.2 59:0.4 67:1 89:1 90:0.125 91:0.0306 92:0.0674 
-1 0.3654504635664318 6:9 7:0.4091 8:22 9:6 12:1 13:1 15:1 16:2 17:4.4 18:5 20:4 21:5 22:3 25:4 26:5 27:3 29:2 31:9 32:0.3807 33:28.3333 34:2 39:0.3333 42:24.8333 43:1.3333 44:0.3333 45:4.3333 46:4.3333 47:4 49:0.3333 50:4.3333 51:4.3333 52:4 55:0.3333 57:1 58:0.3333 59:1 73:1 89:2 90:0.0909 91:0.0607 92:0.0801 93:0.3333 94:0.0152 95:0.0072 96:0.0117 
-1 1 6:8 7:0.2222 8:36 9:1 14:1 15:2 17:18 18:2 20:8 21:5 22:4 25:8 26:5 27:4 31:8 32:0.8167 33:20.6667 34:4.3333 39:0.3333 42:13.3333 43:1.3333 44:0.3333 45:5 46:4.6667 47:2 49:0.1667 50:3.1667 51:3 52:1.3333 54:1.6667 55:0.3333 56:0.3333 62:1 88:1 89:2 90:0.0556 91:0.1636 92:0.1318 
-0.1268030961647229 1 6:9 7:0.45 8:20 9:2 17:20 18:1 20:5 21:8 22:2 25:5 26:8 27:2 29:1 31:8.5 32:0.8235 33:11.5 34:1 35:0.5 39:0.5 42:7.25 43:1.5 45:1.5 46:3 47:1 50:0.3958 51:0.4792 52:0.2292 54:1 67:1 89:1.5 90:0.075 91:0.1422 92:0.1009 
-0.5838160073379057 0.8301431132798095 6:12 7:0.2105 8:57 9:5 15:2 17:19 18:3 19:2 20:12 21:11 22:8 24:2 25:12 26:11 27:8 29:1 31:8.5 32:0.2236 33:38 34:2.5 40:0.5 41:1 42:24.6667 43:2 45:7 46:6.5 47:4.5 50:7 51:6.5 52:4.5 55:0.5 56:0.5 58:0.5 59:0.5 62:1 88:1 89:10 90:0.1754 91:0.2681 92:0.2931 93:1.5 94:0.0263 95:0.0389 96:0.0336 97:1 98:0.0175 99:0.025 100:0.023 
-1 0 6:8 7:0.7273 8:11 17:11 18:1 20:3 21:3 25:0.5 26:0.5 31:8.8 32:0.34 33:32.6 34:3.2 36:0.2 38:0.2 39:0.4 42:19.4 43:1.8 44:0.2 45:5.6 46:8 47:2.8 49:0.2 50:5.6 51:8 52:2.8 54:1.6 55:0.2 56:0.2 68:1 88:1 89:2.6 90:0.2364 91:0.0703 92:0.11 93:0.8 94:0.0727 95:0.02 96:0.0398 
-1 0 6:9 7:0.1667 8:54 9:12 14:2 15:1 17:18 18:3 19:2 20:13 21:10 22:6 24:2 25:13 26:10 27:6 29:2 30:1 31:8 32:0.2996 33:29 34:12.5 36:0.5 39:1.5 42:16 43:2 45:2 46:14.5 47:1 50:2 51:14.5 52:1 54:4 55:0.5 56:0.5 58:0.5 59:0.5 71:1 89:2.5 90:0.0463 91:0.1316 92:0.1559 93:1 94:0.0185 95:0.0526 96:0.031 97:0.5 98:0.0093 99:0.0263 100:0.0163 
-1 0.8199314081073731 6:7 7:0.4118 8:17 15:1 17:17 18:1 20:4 21:7 25:4 26:7 31:9.5 32:0.601 33:54 34:2 35:0.5 39:0.5 42:16.875 43:2.5 44:1.5 45:9 46:13 47:2 49:1.5 50:8.55 51:11.2 52:2 55:0.5 62:1 88:1 89:4 90:0.2353 91:0.1414 92:0.1798 
-1 0.5898584404275738 6:11 7:0.2292 8:48 9:1 14:3 17:8 18:6 20:6 21:16 22:5 25:6 26:16 27:5 31:8.5 32:0.3104 33:28.5 34:0.5 39:1 42:28.5 43:1 45:5.5 46:6.5 47:2 50:1.8333 51:2.1667 52:0.6667 54:0.5 55:0.5 56:0.5 62:1 89:9.5 90:0.1979 91:0.339 92:0.435 93:3.5 94:0.0729 95:0.1253 96:0.1512 97:2 98:0.0417 99:0.074 100:0.087 
-0.2937458692127837 0 6:9 7:0.2571 8:35 9:4 12:1 14:1 17:17.5 18:2 20:8 21:8 22:4 25:1.3333 26:1.3333 27:0.6667 29:2 31:7 32:0.7778 33:9 34:5 41:1 42:9 43:1 46:6 51:6 54:3 58:1 59:1 71:1 
-0 0.2013377515816945 2:0.25 6:11 7:0.7333 8:15 9:4 15:1 16:1 17:5 18:3 20:3 21:5 22:2 25:3 26:5 27:2 29:2 31:10.25 32:1.1077 33:12.5 34:2 35:0.25 39:0.25 40:0.25 41:0.25 42:7.625 43:1.75 45:2 46:3.25 47:1.25 50:1.7656 51:2.5469 52:1.25 54:0.25 55:0.25 56:0.25 58:0.25 59:0.25 72:1 88:1 89:0.5 90:0.0333 91:0.0417 92:0.0456 93:0.25 94:0.0167 95:0.0208 96:0.0228 97:0.25 98:0.0167 99:0.0208 100:0.0228 
-0.005490929562907263 0 6:11 7:0.2973 8:37 9:3 15:2 17:18.5 18:2 20:5 21:11 22:3 25:5 26:11 27:3 29:1 31:12 32:0.1726 33:79.3333 34:5.3333 39:2 42:19.5 43:4 44:2 45:15.3333 46:22 47:3.6667 49:2 50:15.3333 51:22 52:3.6667 54:3 55:0.3333 56:0.3333 58:0.3333 59:0.3333 82:1 88:1 89:5.6667 90:0.1532 91:0.0827 92:0.1782 93:0.3333 94:0.009 95:0.0027 96:0.0053 
-1 0.2609409523418804 2:0.1667 6:5 7:0.4545 8:11 15:1 17:11 18:1 20:3 21:2 25:3 26:2 31:12.1667 32:0.4875 33:38.5 34:6.8333 35:0.1667 36:0.1667 39:0.5 40:0.1667 42:24.4167 43:2 44:0.5 45:6.5 46:12 47:2.5 49:0.246 50:4.6587 51:8.3333 52:1.6111 54:3.6667 65:1 89:2 90:0.1818 91:0.05 92:0.1406 93:0.6667 94:0.0606 95:0.0218 96:0.0409 97:0.1667 98:0.0152 99:0.0048 100:0.0098 
-0.1962144035990674 0 6:8 7:0.16 8:50 9:10 14:1 15:1 17:12.5 18:4 20:13 21:7 22:8 25:13 26:7 27:8 29:3 31:14.6667 32:0.4122 33:42.8333 34:5.1667 36:0.1667 38:0.1667 39:0.3333 42:15.621 43:3 44:0.3333 45:7.8333 46:11.3333 47:3.8333 49:0.3333 50:6.6111 51:9.0476 52:3.2143 54:2.3333 55:0.1667 58:0.1667 59:0.3333 71:1 89:5.1667 90:0.1033 91:0.1228 92:0.1613 93:0.5 94:0.01 95:0.0155 96:0.0178 97:0.1667 98:0.0033 99:0.0069 100:0.0052 
-0.4013504656469008 0.5305662420793952 2:0.0714 6:14 7:0.1972 8:71 9:19 12:1 13:1 14:1 15:1 17:17.75 18:4 20:9 21:21 22:5 25:9 26:21 27:5 29:9 30:0.1429 31:10.0714 32:0.3234 33:40.9286 34:8.4286 35:0.2857 39:0.5 40:0.0714 41:0.0714 42:19.7619 43:2.2857 44:0.4286 45:6.4286 46:11.8571 47:3.0714 48:0.1429 49:0.4286 50:5.8071 51:10.7036 52:2.8893 53:0.1429 54:2 56:0.0714 58:0.0714 73:1 89:5.0714 90:0.0714 91:0.1443 92:0.1738 93:0.6429 94:0.0091 95:0.0185 96:0.0196 97:0.1429 98:0.002 99:0.0035 100:0.0086 
-0.4901025957471962 0.9002899968367875 6:11 7:0.6111 8:18 9:5 15:1 17:18 18:1 19:1 20:2 21:7 24:1 25:2 26:7 29:2 31:9.5 32:1.075 33:17 34:2.5 40:0.5 42:17 43:1 45:3 46:5.5 47:2 50:3 51:5.5 52:2 54:1 55:0.5 59:0.5 67:1 89:1.5 90:0.0833 91:0.1583 92:0.1185 
-0 0.6065074361611051 6:9 7:0.6429 8:14 9:4 15:1 17:14 18:1 20:1 21:5 25:1 26:5 29:3 31:8.75 32:0.7595 33:14.75 34:3.5 35:0.25 36:0.5 39:0.25 42:11.25 43:1.25 44:0.25 45:2.25 46:3.5 47:1 49:0.25 50:1.875 51:2.375 52:1 54:1.25 55:0.25 59:0.25 68:1 89:2.75 90:0.1964 91:0.214 92:0.2103 93:1.25 94:0.0893 95:0.0722 96:0.0878 97:0.5 98:0.0357 99:0.0317 100:0.037 
-1 1 6:11 7:0.2683 8:41 9:9 15:1 17:13.6667 18:3 20:7 21:9 22:4 25:7 26:9 27:4 29:3 31:11 32:0.9643 33:10.5 34:3 42:7 43:1.5 45:1.5 46:3 47:1 50:1.5 51:3 52:1 54:1.5 55:0.5 56:0.5 68:1 88:1 89:2.5 90:0.061 91:0.3214 92:0.1976 93:0.5 94:0.0122 95:0.0714 96:0.0331 
-0.3083414035260206 0.3706705642165679 6:14 7:0.56 8:25 9:5 14:1 15:1 17:25 18:1 20:5 21:5 22:4 25:5 26:5 27:4 29:3 31:7.5 32:0.5757 33:13.5 34:2.5 35:0.5 42:11.5 43:1.5 45:2.5 46:3 47:2.5 50:0.7 51:0.75 52:1.15 55:0.5 56:0.5 58:0.5 59:0.5 78:1 88:1 89:3 90:0.12 91:0.1941 92:0.2707 93:1.5 94:0.06 95:0.0789 96:0.0913 97:1.5 98:0.06 99:0.0789 100:0.0913 
-0.01891668693209424 0.234384088446151 1:0.3333 2:0.3333 6:9 7:0.1475 8:61 9:10 12:1 14:1 15:1 16:3 17:10.1667 18:6 20:11 21:13 22:6 25:11 26:13 27:6 29:4 31:20 32:0.4377 33:107 34:7.6667 39:2.3333 40:1 41:1.3333 42:14.9167 43:6 44:1.3333 45:20.6667 46:16.6667 47:13 49:1.3333 50:17.4211 51:14.3947 52:11.3772 54:1 55:0.3333 58:0.3333 71:1 89:10.3333 90:0.1694 91:0.1464 92:0.2933 93:3.3333 94:0.0546 95:0.0383 96:0.0514 97:0.6667 98:0.0109 99:0.0027 100:0.0115 
-0.3297415700111195 1 6:7 7:0.3889 8:18 9:4 12:1 16:1 17:6 18:3 20:3 21:4 22:2 25:1 26:1.3333 27:0.6667 29:1 31:9 32:0.5004 33:22.6667 34:2.3333 35:0.6667 39:0.3333 40:0.3333 42:22.6667 43:1 45:2.3333 46:6.3333 47:0.6667 50:1.7333 51:4.8333 52:0.3667 54:0.3333 56:0.3333 72:1 89:2.3333 90:0.1296 91:0.0931 92:0.1373 
-1 0 6:9 7:0.5625 8:16 9:1 15:1 17:16 18:1 20:5 21:2 22:1 25:5 26:2 27:1 31:9 32:0.3383 33:48.3333 34:3.6667 36:0.3333 39:2.3333 42:16.1667 43:2.6667 45:10.6667 46:10.3333 47:5.3333 50:9.3333 51:9.8 52:5.0667 54:2.3333 58:0.3333 59:0.6667 62:1 89:4.6667 90:0.2917 91:0.122 92:0.2639 93:0.6667 94:0.0417 95:0.0061 96:0.0249 97:0.3333 98:0.0208 99:0.003 100:0.0174 
-0.4798188975386086 0 1:0.6667 2:1.6667 6:9 7:0.1875 8:48 13:1 14:1 17:48 18:1 19:1 20:11 21:15 22:3 24:0.1429 25:1.5714 26:2.1429 27:0.4286 30:2 31:10.3333 32:0.1986 33:52 34:5.3333 39:0.3333 41:0.3333 42:20.2778 43:2.6667 45:7.6667 46:17.3333 47:4.3333 50:4.7333 51:9.2 52:2.6667 54:1 55:0.3333 56:0.3333 73:1 89:5 90:0.1042 91:0.095 92:0.122 93:2.3333 94:0.0486 95:0.044 96:0.0529 97:1.6667 98:0.0347 99:0.0314 100:0.0337 
-1 1 1:0.25 2:0.5 6:10 7:0.3704 8:27 17:27 18:1 20:6 21:6 22:4 25:6 26:6 27:4 30:0.25 31:12 32:0.2517 33:50 34:5.25 35:0.25 36:0.25 39:0.5 41:0.25 42:17.2083 43:3 44:1.25 45:8.25 46:11.5 47:6 49:0.5917 50:3.5917 51:4.3917 52:3.1167 54:1 56:0.25 58:0.25 59:0.25 73:1 89:5.25 90:0.1944 91:0.1051 92:0.2107 93:0.75 94:0.0278 95:0.0187 96:0.0244 97:0.25 98:0.0093 99:0.0074 100:0.009 
-1 0 6:8 7:0.4444 8:18 9:4 15:2 17:9 18:2 20:3 21:5 25:3 26:5 29:1 31:14 32:0.3415 33:41 39:1 42:41 43:1 45:5 46:12 47:1 50:0.7143 51:1.7143 52:0.1429 55:1 56:1 77:1 88:1 89:4 90:0.2222 91:0.0976 92:0.3034 
-0 0.4975218883063464 6:13 7:0.2131 8:61 9:8 14:1 17:30.5 18:2 19:1 20:9 21:25 22:5 24:1 25:9 26:25 27:5 29:3 31:10.8571 32:0.3767 33:38.4286 34:3.2857 35:0.2857 38:0.1429 39:1.2857 41:0.8571 42:25.3095 43:2.1429 45:4.4286 46:9 47:2 50:2.8413 51:6.6825 52:1.9048 54:0.2857 55:0.1429 56:0.1429 68:1 89:3.2857 90:0.0539 91:0.073 92:0.083 
-1 0 6:8 7:0.8889 8:9 9:1 15:1 17:9 18:1 20:2 21:4 25:2 26:4 31:8.5 32:0.7038 33:20.5 34:2 36:0.5 42:12 43:1.5 45:3.5 46:6.5 47:1 50:3.0625 51:5.1875 52:0.5625 54:1.5 73:1 89:1.5 90:0.1667 91:0.1008 92:0.154 
-1 1 6:8 7:0.5333 8:15 9:5 15:1 17:7.5 18:2 20:1 21:5 25:1 26:5 29:1 31:7 32:0.6581 33:11 34:0.5 42:8.75 43:1.5 45:1 46:2 47:2 50:1 51:1.3333 52:1.3333 55:0.5 64:1 89:0.5 90:0.0333 91:0.0385 92:0.0435 
-0.4124275415999486 1 6:8 7:0.6667 8:12 9:2 15:1 17:12 18:1 20:2 21:3 22:1 25:2 26:3 27:1 29:1 31:8.5 32:2.1667 33:5 34:1 39:0.5 41:0.5 42:5 43:1 45:0.5 46:1 47:0.5 50:0.5 51:1 52:0.5 55:0.5 59:0.5 71:1 88:1 89:0.5 90:0.0417 91:0.0714 92:0.0615 
-0.6625450912674834 0 6:10 7:0.2778 8:36 9:7 14:1 15:1 17:12 18:3 20:7 21:13 22:1 25:7 26:13 27:1 29:4 31:12 32:0.3663 33:46 34:4 36:0.3333 40:0.6667 41:0.3333 42:14.4667 43:3.3333 44:0.6667 45:8.6667 46:11.3333 47:2.3333 49:0.4167 50:5.4167 51:7.8333 52:1.5833 54:1.6667 56:0.3333 67:1 89:5.6667 90:0.1574 91:0.139 92:0.1811 
-0.1772450685028343 0 6:11 7:0.2037 8:54 9:7 13:1 14:3 17:18 18:3 19:2 20:10 21:16 22:2 24:0.3333 25:1.6667 26:2.6667 27:0.3333 29:4 31:8 32:2 33:4 42:4 43:1 45:1 47:1 50:0.3333 52:0.3333 55:1 56:1 71:1 88:1 89:2 90:0.037 91:0.5 92:0.1768 
-1 1 6:11 7:0.2558 8:43 9:1 14:1 15:1 17:21.5 18:2 20:10 21:10 22:5 25:10 26:10 27:5 31:13.5 32:1.71 33:27.5 34:3 35:0.5 37:0.5 39:0.5 42:10.8333 43:2 44:0.5 45:5 46:8 47:1.5 49:0.5 50:5 51:8 52:1.5 54:1.5 56:0.5 57:0.5 58:0.5 62:1 88:1 89:4 90:0.093 91:0.08 92:0.0922 93:1.5 94:0.0349 95:0.03 96:0.0316 97:0.5 98:0.0116 99:0.01 100:0.0113 
-1 0.555673224861425 2:0.4 6:12 7:0.1644 8:73 9:13 15:1 17:24.3333 18:3 20:14 21:14 22:9 25:14 26:14 27:9 29:6 30:2 31:12 32:0.303 33:133.8 34:11.2 35:0.2 36:0.2 38:0.2 39:2.4 40:0.2 41:2.4 42:18.8538 43:6.6 44:1.2 45:20.6 46:29.6 47:11.6 48:0.4 49:1.2 50:20.6 51:29.6 52:11.6 53:0.4 54:3.2 55:0.2 70:1 89:14.2 90:0.1945 91:0.1608 92:0.2606 93:2.4 94:0.0329 95:0.0096 96:0.0203 97:1 98:0.0137 99:0.0034 100:0.0103 
-0.3128152261693351 0.1318845770032989 6:10 7:0.1 8:100 9:21 13:1 17:100 18:1 20:17 21:24 22:11 25:17 26:24 27:11 29:8 31:9.5 32:0.2889 33:33 34:6.5 38:1 40:1.5 42:9.5 43:3.5 45:6.5 46:13.5 50:0.8125 51:1.6875 54:3.5 55:0.5 62:1 89:5 90:0.05 91:0.1556 92:0.1736 
-1 0 6:10 7:0.4762 8:21 9:1 14:1 15:1 17:21 18:1 20:3 21:6 22:2 25:3 26:6 27:2 31:11.5 32:0.5083 33:28.5 34:1 39:1 42:28.5 43:1 45:4 46:7.5 47:2.5 50:3.625 51:5.625 52:2.5 54:1 55:0.5 56:0.5 64:1 88:1 89:4.5 90:0.2143 91:0.1769 92:0.1888 93:1 94:0.0476 95:0.0233 96:0.0358 97:0.5 98:0.0238 99:0.0116 100:0.0179 
-0.5022473935923165 0 6:9 7:0.2 8:45 9:11 15:2 17:11.25 18:4 19:1 20:6 21:13 22:3 24:1 25:6 26:13 27:3 29:5 31:13 32:2.1667 33:6 40:1 42:6 43:1 45:1 46:2 50:1 51:2 58:1 67:1 89:1 90:0.0222 91:0.1667 92:0.1364 
-1 0.5442331707332326 6:8 7:0.186 8:43 9:8 12:1 14:1 15:1 16:1 17:10.75 18:4 20:8 21:12 22:1 25:2.6667 26:4 27:0.3333 29:5 31:9.1667 32:0.499 33:26.1667 34:4.5 35:0.5 36:0.1667 39:0.8333 41:0.1667 42:11.3472 43:2.1667 45:4.3333 46:6.5 47:2.5 50:3.7976 51:5.8393 52:2.0893 54:0.6667 55:0.1667 68:1 88:1 89:3.5 90:0.0814 91:0.1288 92:0.1513 93:0.6667 94:0.0155 95:0.0121 96:0.0145 97:0.1667 98:0.0039 99:0.0025 100:0.0036 
-0.01260310599289184 0.5322579003389589 6:8 7:0.2963 8:27 13:1 17:27 18:1 20:5 21:5 22:1 23:1 25:5 26:5 27:1 28:1 31:8.5 32:0.38 33:32.5 34:0.5 35:0.5 39:0.5 42:32.5 43:1 44:0.5 45:6 46:7 47:4 49:0.5 50:6 51:7 52:4 54:0.5 55:0.5 56:0.5 68:1 88:1 89:3 90:0.1111 91:0.1067 92:0.1193 93:1 94:0.037 95:0.0433 96:0.0429 
-0 2.187312966386351e-05 
-1 0 2:0.25 6:14 7:0.2642 8:53 9:11 12:1 14:1 17:17.6667 18:3 19:1 20:8 21:14 22:2 24:0.1667 25:1.3333 26:2.3333 27:0.3333 29:2 31:10.25 32:0.7854 33:16 34:3.25 38:0.5 39:0.25 42:8.625 43:1.75 45:2.75 46:5.25 47:1 50:0.5944 51:0.6722 52:0.3333 54:1.75 79:1 89:1.75 90:0.033 91:0.0816 92:0.0798 93:0.25 94:0.0047 95:0.0086 96:0.0067 97:0.25 98:0.0047 99:0.0086 100:0.0068 
-0.6646451400907109 0 6:10 7:0.4 8:25 9:2 15:1 17:12.5 18:2 19:1 20:5 21:4 24:1 25:5 26:4 31:11.5 32:0.6839 33:18 34:1 39:0.5 42:18 43:1 45:3 46:3.5 47:1.5 50:1.6667 51:2.1667 52:1.5 55:0.5 58:0.5 59:0.5 67:1 89:3.5 90:0.14 91:0.1856 92:0.2511 93:1 94:0.04 95:0.0435 96:0.0455 97:0.5 98:0.02 99:0.0217 100:0.0228 
-1 0 6:9 7:0.2368 8:38 9:4 14:3 15:3 16:1 17:9.5 18:4 19:2 20:5 21:8 22:3 24:2 25:5 26:8 27:3 31:8.3333 32:0.5823 33:14 34:1.6667 36:0.3333 39:0.6667 41:0.3333 42:10.8333 43:1.3333 45:1 46:5.3333 47:0.3333 50:1 51:5.3333 52:0.3333 54:1.3333 55:0.3333 58:0.3333 59:0.3333 67:1 89:2 90:0.0526 91:0.1449 92:0.086 93:0.3333 94:0.0088 95:0.0175 96:0.0131 
-0.08598442185827054 0.01013431502874534 6:11 7:0.2619 8:42 9:7 14:2 15:1 17:21 18:2 19:1 20:9 21:11 22:3 23:1 24:1 25:9 26:11 27:3 28:1 29:2 31:10.5 32:0.4205 33:268 34:46.5 35:0.5 39:3 40:1 41:2 42:6.4472 43:36.5 44:2.5 45:42 46:69 47:13.5 49:0.625 50:10.45 51:17.15 52:3.35 54:22.5 55:0.5 57:0.5 72:1 89:7.5 90:0.1786 91:0.1923 92:0.2916 93:1 94:0.0238 95:0.0464 96:0.0714 97:0.5 98:0.0119 99:0.001 100:0.0465 
-1 0 6:8 7:0.8 8:10 9:2 15:1 17:10 18:1 20:1 21:3 25:1 26:3 31:7.75 32:0.4981 33:15.75 34:2 42:11 43:1.5 45:2.5 46:4.75 47:0.75 50:2.3125 51:4 52:0.75 54:0.75 56:0.25 57:0.5 58:0.5 59:0.25 67:1 89:1.25 90:0.125 91:0.0879 92:0.1118 
-0.8213050617698118 0 6:8 7:0.25 8:32 9:7 14:2 15:2 17:10.6667 18:3 20:9 21:6 22:4 25:9 26:6 27:4 29:2 31:11.75 32:0.3564 33:111 34:25 39:1.75 42:16.8125 43:6.25 44:0.5 45:12.5 46:36.5 47:6.25 49:0.5 50:11.8571 51:35.4286 52:5.6071 54:8.5 56:0.25 58:0.25 64:1 88:1 89:7.25 90:0.2266 91:0.1667 92:0.226 93:2.5 94:0.0781 95:0.0625 96:0.0834 97:1 98:0.0312 99:0.0359 100:0.0408 
-1 0.9535694149196781 6:9 7:0.3 8:30 9:1 14:2 17:30 18:1 20:6 21:10 22:3 25:1 26:1.6667 27:0.5 31:23 32:1.7111 33:12 39:1.5 42:8.25 43:1.5 45:2 46:3 47:1 50:1.5312 51:1.125 52:0.0625 56:0.5 68:1 88:1 89:3.5 90:0.1167 91:0.2778 92:0.2441 
-1 0.1330373759266688 6:11 7:0.3667 8:30 9:10 10:1 15:4 17:7.5 18:4 20:8 21:10 22:2 25:8 26:10 27:2 29:3 31:23 32:3.2857 33:7 40:1 42:3.5 43:2 45:1 46:3 50:0.0435 51:0.1304 55:1 56:1 68:1 
-1 0.1981572578604038 6:14 7:0.28 8:50 9:11 12:1 15:1 16:2 17:10 18:5 20:4 21:17 22:2 25:4 26:17 27:2 29:3 31:10 32:1.0597 33:20 34:2.4 36:0.2 39:0.2 40:0.2 41:0.2 42:8.3667 43:2 44:0.6 45:2.8 46:3.6 47:1.8 49:0.4333 50:1.4333 51:1.8833 52:0.8333 54:0.2 55:0.2 76:1 89:4 90:0.08 91:0.2476 92:0.1694 
-0.3735207735974614 0 1:0.3243 2:0.3784 6:10 7:0.25 8:40 9:2 15:3 17:10 18:4 19:2 20:7 21:9 22:3 24:2 25:7 26:9 27:3 30:0.6216 31:13.2162 32:0.2663 33:100.3784 34:8.8108 35:0.2162 36:0.027 37:0.0541 38:0.027 39:1.2432 40:0.5405 41:0.5405 42:24.8733 43:4.7838 44:2.3514 45:16.3514 46:21.8649 47:7.7568 48:0.0541 49:1.8378 50:13.1564 51:17.5103 52:6.2831 53:0.0405 54:2.2973 55:0.027 72:1 89:8.2162 90:0.2054 91:0.1136 92:0.2725 93:1.4595 94:0.0365 95:0.0179 96:0.0301 97:0.7297 98:0.0182 99:0.011 100:0.017 
-0.4779985232192683 0.7389696592891878 6:8 7:0.3478 8:23 9:3 17:23 18:1 20:4 21:7 22:1 25:1 26:1.75 27:0.25 29:1 31:8 32:1.0427 33:13.5 34:3.5 42:9 43:1.25 45:1.75 46:4.75 47:0.25 50:1.175 51:2.7321 52:0.25 54:1.25 55:0.25 59:0.25 61:1 88:1 89:1 90:0.0435 91:0.0278 92:0.0501 
-1 0.1876906492159377 6:9 7:0.75 8:12 9:2 15:1 17:12 18:1 20:2 21:2 22:1 25:2 26:2 27:1 29:1 31:17 32:1.506 33:14.5 34:1 36:0.5 39:0.5 42:14.5 43:1 44:0.5 45:3 46:4.5 47:0.5 49:0.0278 50:0.5278 51:0.8278 52:0.1 55:0.5 56:0.5 78:1 88:1 89:1.5 90:0.125 91:0.0714 92:0.0923 
-0 0.3764383224319082 
-1 0.7935401562788136 6:12 7:0.3871 8:31 9:2 14:1 15:3 17:10.3333 18:3 19:1 20:5 21:7 22:1 24:1 25:5 26:7 27:1 29:2 31:9 32:0.3781 33:27.3333 34:1.3333 35:0.3333 39:1 42:13.6667 43:2 45:6.3333 46:7 47:1.3333 50:5.3333 51:6.5 52:1.1667 54:0.6667 55:0.3333 62:1 89:2 90:0.0645 91:0.0526 92:0.0653 
-0 0.1943174818511035 6:9 7:0.2571 8:35 9:6 12:1 17:35 18:1 20:6 21:12 22:3 25:2 26:4 27:1 29:2 31:6 32:0.5 33:12 34:6 41:1 42:12 43:1 45:3 46:5 50:3 51:5 54:4 55:1 69:1 89:6 90:0.1714 91:0.5 92:0.2897 93:2 94:0.0571 95:0.1667 96:0.1019 97:1 98:0.0286 99:0.0833 100:0.051 
-1 -0 6:7 7:0.35 8:20 9:5 14:1 15:1 17:20 18:1 20:4 21:5 22:3 25:4 26:5 27:3 29:2 31:8.75 32:0.399 33:24 34:2.25 35:0.75 39:0.75 41:0.75 42:11.75 43:2.25 45:3.75 46:4.75 47:3 50:2.8125 51:3.8125 52:2.4375 54:0.5 55:0.25 56:0.25 58:0.25 59:0.25 62:1 89:2.25 90:0.1125 91:0.0859 92:0.1023 
-0.3239494297367828 -0.5555172764942261 6:9 7:0.2812 8:32 9:5 14:1 15:1 17:32 18:1 20:5 21:11 22:5 25:5 26:11 27:5 29:3 31:10 32:0.2278 33:46.75 34:7.25 35:0.25 38:0.25 39:1.75 42:27.5417 43:2.25 45:10.25 46:10.5 47:3.75 50:10.25 51:10.5 52:3.75 54:2.25 56:0.25 71:1 88:1 89:6.75 90:0.2109 91:0.1436 92:0.2188 93:0.5 94:0.0156 95:0.0106 96:0.013 97:0.25 98:0.0078 99:0.0053 100:0.0071 
-1 -1 6:9 7:0.5625 8:16 14:1 15:1 17:16 18:1 19:1 20:2 21:5 22:1 24:1 25:2 26:5 27:1 31:8.5 32:0.4683 33:21 34:4 39:0.25 42:14.25 43:1.5 45:3.25 46:5.75 47:1 50:3.25 51:5.75 52:1 54:1.25 56:0.25 77:1 88:1 89:0.75 90:0.0469 91:0.0463 92:0.0467 
-0.8176099104827412 -0.5276564381501463 6:9 7:0.1579 8:57 14:2 17:28.5 18:2 20:8 21:10 22:4 25:2 26:2.5 27:1 31:16.5 32:1.7545 33:40 34:4.5 39:1.5 42:40 43:1 44:1 45:5.5 46:9.5 47:5 49:0.3333 50:1.8333 51:2.5952 52:1.6667 54:1 55:0.5 59:0.5 68:1 88:1 89:4 90:0.0702 91:0.0541 92:0.0754 
-1 -1 1:0.4 2:0.4 6:12 7:0.16 8:75 9:9 14:2 15:1 17:15 18:5 19:1 20:15 21:14 22:6 24:1 25:15 26:14 27:6 29:3 30:1 31:15.2 32:0.3562 33:67.4 34:6.8 35:0.2 39:0.8 40:0.6 41:0.2 42:16.6833 43:4.2 44:0.8 45:9.6 46:16.8 47:4.4 49:0.8 50:8.7 51:15.925 52:4 54:0.8 55:0.2 56:0.2 68:1 89:10 90:0.1333 91:0.2302 92:0.2386 93:1.8 94:0.024 95:0.0283 96:0.0287 97:1 98:0.0133 99:0.016 100:0.0184 
-0 -0.2522273658325472 6:8 7:0.2105 8:38 14:1 17:38 18:1 20:10 21:12 22:2 25:3.3333 26:4 27:0.6667 31:7.6429 32:0.4311 33:31.0714 34:4.2143 35:0.4286 37:0.0714 38:0.0714 39:0.2857 40:0.0714 42:15.669 43:2 44:0.4286 45:5.5 46:6.8571 47:3.1429 49:0.4286 50:3.4772 51:4.1875 52:1.8889 54:1.3571 55:0.0714 56:0.0714 58:0.0714 70:1 89:3.7143 90:0.0977 91:0.1439 92:0.1267 93:0.2143 94:0.0056 95:0.0084 96:0.0067 97:0.0714 98:0.0019 99:0.0017 100:0.002 
-0 -0.7373416652167765 6:10 7:0.2857 8:35 9:5 12:1 15:1 16:3 17:7 18:5 20:6 21:12 22:3 25:6 26:12 27:3 29:2 31:18 32:1.1597 33:15 34:3.6667 35:1.3333 42:12.3333 43:1.3333 45:1.6667 46:5.3333 47:0.3333 50:1.4167 51:1.6218 52:0.3333 54:1.3333 55:0.3333 58:0.3333 59:0.6667 62:1 89:3 90:0.0857 91:0.2059 92:0.2056 93:0.3333 94:0.0095 95:0.0208 96:0.0264 
-0.5022446387095588 -1 6:14 7:0.7 8:20 9:6 15:1 17:20 18:1 20:2 21:8 25:2 26:8 29:2 31:12.5 32:0.7941 33:30 34:2.5 41:1 42:15 43:2 44:1 45:5 46:6.5 47:0.5 49:1 50:5 51:5.3 52:0.5 67:1 89:1.5 90:0.075 91:0.0752 92:0.079 
-0.7520943535572694 -1 6:13 7:0.5417 8:24 9:9 15:1 17:12 18:2 20:3 21:10 22:4 25:0.375 26:1.25 27:0.5 29:1 31:10 32:0.3571 33:28 34:2 39:1 42:14 43:2 45:4 46:8 47:5 50:4 51:8 52:5 54:1 55:1 59:1 62:1 88:1 89:5 90:0.2083 91:0.1786 92:0.2661 93:1 94:0.0417 95:0.0357 96:0.0711 
-0.4738819081375278 -0.7500221920560064 6:7 7:0.3684 8:19 9:1 15:1 16:1 17:9.5 18:2 20:5 21:2 22:2 25:5 26:2 27:2 29:1 31:8 32:2.7361 33:10.75 34:0.5 35:0.25 41:1 42:5.4583 43:1.75 45:2 46:2 47:1 50:1.6111 51:1.8333 52:0.8333 54:0.25 55:0.25 68:1 88:1 89:1.25 90:0.0658 91:0.0689 92:0.0918 
-1 -1 6:7 7:0.6364 8:11 9:3 15:1 17:11 18:1 20:3 21:3 22:1 25:3 26:3 27:1 29:2 31:5.4 32:1.2884 33:5.6 34:1.8 35:0.2 41:0.4 42:5.6 43:1 45:1.2 46:1.8 47:0.4 50:0.4533 51:0.6533 52:0.24 54:1.2 55:0.2 56:0.2 57:0.4 58:0.2 59:0.4 67:1 89:1.2 90:0.1091 91:0.1172 92:0.1184 93:0.2 94:0.0182 95:0.0182 96:0.0191 
-0 -0.6576255156100305 6:10 7:0.2439 8:41 9:4 14:1 15:1 17:41 18:1 20:8 21:9 22:3 25:8 26:9 27:3 29:1 31:11 32:0.4397 33:36.7143 34:7 35:0.2857 36:0.1429 39:0.7143 40:0.4286 41:1 42:20.4405 43:3.1429 44:0.2857 45:6.4286 46:9 47:1.7143 49:0.1905 50:4.0256 51:4.6337 52:1.3187 54:2.4286 55:0.1429 57:0.4286 58:0.4286 59:0.4286 67:1 89:4.1429 90:0.101 91:0.1249 92:0.2398 93:0.5714 94:0.0139 95:0.0117 96:0.0131 97:0.2857 98:0.007 99:0.0059 100:0.0068 
-1 -1 1:0.1304 2:0.2174 6:8 7:0.3636 8:22 14:1 15:1 17:22 18:1 20:5 21:3 22:1 25:5 26:3 27:1 30:0.7826 31:12 32:0.2072 33:81.3478 34:5.0435 35:0.4348 36:0.0435 39:0.6522 40:1.2609 41:0.7826 42:21.7956 43:4.7391 44:2 45:14.4348 46:17.1739 47:8.6957 49:1.417 50:9.0591 51:11.606 52:5.1284 54:1.6087 58:0.0435 59:0.0435 73:1 89:5.3043 90:0.2411 91:0.0808 92:0.1715 93:0.9565 94:0.0435 95:0.0134 96:0.0302 97:0.3913 98:0.0178 99:0.0055 100:0.0125 
-0.7638264962370388 -0 6:9 7:0.9 8:10 9:2 15:2 17:5 18:2 21:4 26:4 29:1 30:0.2857 31:7.4286 32:0.4887 33:19.4286 34:3.5714 35:0.5714 39:0.2857 41:0.2857 42:11.8333 43:1.5714 45:3.7143 46:4.8571 47:1.1429 50:2.0397 51:2.754 52:0.5635 54:1.5714 55:0.1429 56:0.1429 76:1 88:1 89:0.8571 90:0.0857 91:0.0318 92:0.0596 
-0.8448686458972908 -0.9784176351650016 6:7 7:0.5833 8:12 9:4 15:1 17:6 18:2 20:1 21:5 25:1 26:5 29:3 31:13.3333 32:0.4758 33:31 34:2.3333 42:15.3333 43:2.3333 45:4.3333 46:5.3333 47:3 50:2.4667 51:2.1333 52:1.1333 54:0.3333 55:0.3333 59:0.3333 85:1 88:1 89:0.3333 90:0.0278 91:0.0062 92:0.0125 
-0 -0.8939391971195166 6:10 7:0.3704 8:27 9:8 15:1 17:13.5 18:2 20:4 21:12 22:2 25:4 26:12 27:2 29:4 30:0.2 31:6.4 32:0.4111 33:16.6 34:3.8 35:0.2 39:0.2 41:1 42:9.3 43:2.2 45:3.4 46:4.4 47:1.2 50:2.4476 51:2.4952 52:1.0667 54:1.4 55:0.2 56:0.2 62:1 89:3.4 90:0.1259 91:0.2267 92:0.2355 93:0.2 94:0.0074 95:0.02 96:0.0144 
-0.8467223232536916 -0.5475300570469296 6:9 7:0.45 8:20 9:2 15:1 17:20 18:1 20:5 21:5 22:2 25:5 26:5 27:2 31:10.3333 32:1.2741 33:8.6667 34:1.6667 35:0.3333 36:0.3333 42:8.6667 43:1 45:1.6667 46:3 47:0.6667 50:1.0833 51:2.7083 52:0.375 54:0.6667 55:0.3333 56:0.3333 62:1 88:1 89:2 90:0.1 91:0.1667 92:0.1693 93:1 94:0.05 95:0.0833 96:0.0767 97:0.6667 98:0.0333 99:0.0556 100:0.0511 
-0 -0.9942600785472758 6:9 7:0.5 8:18 9:1 15:1 17:18 18:1 19:1 20:2 21:7 22:2 24:1 25:2 26:7 27:2 30:0.5 31:6.75 32:0.5245 33:13.5 34:2 35:0.5 42:13.5 43:1 45:1.5 46:6.25 50:0.4821 51:3.6488 54:0.5 55:0.25 56:0.25 62:1 88:1 89:3.25 90:0.1806 91:0.2349 92:0.2444 93:1 94:0.0556 95:0.0635 96:0.064 
-1 -1 6:7 7:0.1667 8:42 9:8 15:1 17:14 18:3 20:9 21:10 22:3 25:9 26:10 27:3 29:2 31:11 32:1.375 33:8 34:1 39:1 42:8 43:1 45:2 46:1 47:2 50:2 51:1 52:2 55:1 56:1 68:1 88:1 
-1 -1 6:12 7:0.3429 8:35 9:4 14:1 15:1 17:17.5 18:2 20:2 21:15 22:2 25:2 26:15 27:2 29:1 31:12 32:0.4194 33:28.8 34:2 35:0.2 36:0.2 39:0.4 42:28.8 43:1 44:0.2 45:4 46:8.8 47:2 49:0.2 50:2.4667 51:5.4167 52:0.85 54:0.8 55:0.2 56:0.2 62:1 89:4 90:0.1143 91:0.1368 92:0.1428 93:0.2 94:0.0057 95:0.0057 96:0.0057 
-0.09060351595740519 -0 6:11 7:0.4074 8:27 9:3 15:1 17:13.5 18:2 20:4 21:6 22:2 25:4 26:6 27:2 31:9 32:0.1084 33:83 34:5 41:4 42:13.8333 43:6 44:1 45:15 46:15 47:11 49:1 50:15 51:15 52:11 54:2 55:1 56:1 83:1 89:8 90:0.2963 91:0.0964 92:0.3133 
-0.2869079317552958 -0.260125916274027 6:13 7:0.4483 8:29 9:1 12:1 15:1 17:14.5 18:2 20:4 21:8 22:3 25:0.6667 26:1.3333 27:0.5 29:1 31:17 32:1.1159 33:16.6667 34:2 35:0.3333 40:0.3333 42:8.3333 43:2 45:3 46:6 47:1 50:2.1786 51:2.2143 52:1 54:1 55:0.3333 56:0.3333 62:1 88:1 89:2 90:0.069 91:0.119 92:0.1821 93:1 94:0.0345 95:0.0556 96:0.0488 97:0.3333 98:0.0115 99:0.0159 100:0.0151 
-0.1157267143077694 -0.2786340053819485 6:9 7:0.2812 8:32 14:1 17:32 18:1 20:6 21:9 22:3 25:1 26:1.5 27:0.5 31:9 32:0.4974 33:34.3333 34:1.6667 35:0.3333 39:1 42:22 43:1.3333 45:6.6667 46:6.3333 47:3.6667 50:5.1167 51:5.5667 52:2.15 54:0.6667 55:0.3333 56:0.3333 66:1 88:1 89:4.3333 90:0.1354 91:0.1224 92:0.1862 93:0.3333 94:0.0104 95:0.0045 96:0.019 
-0 -1 6:10 7:0.2564 8:39 9:5 15:1 17:13 18:3 20:7 21:12 22:2 25:2.3333 26:4 27:0.6667 29:1 31:11 32:0.1538 33:101.6667 34:9 35:0.6667 38:0.3333 39:2.3333 40:0.3333 41:0.6667 42:23.7222 43:4 44:1 45:16.3333 46:21 47:9.6667 49:1 50:16.3333 51:21 52:9.6667 54:2.6667 55:0.3333 59:0.3333 73:1 88:1 89:8 90:0.2051 91:0.0971 92:0.382 93:2.3333 94:0.0598 95:0.0283 96:0.0503 97:1 98:0.0256 99:0.0144 100:0.0293 
-0.2133681241516826 -0.2179042037275004 6:11 7:0.2973 8:37 9:1 14:1 15:2 17:12.3333 18:3 20:10 21:8 25:10 26:8 29:1 31:7.6667 32:1.9444 33:5 34:1 42:5 43:1 45:0.3333 46:1.3333 47:0.3333 50:0.3333 51:1.1111 52:0.3333 54:0.3333 55:0.3333 56:0.3333 70:1 88:1 89:0.6667 90:0.018 91:0.0833 92:0.0329 
-0.605070928594051 -0.2626133553860447 6:8 7:1.1429 8:7 9:1 15:1 17:7 18:1 20:2 21:4 25:2 26:4 29:1 31:8 32:0.6643 33:12 34:1 40:0.5 41:0.5 42:8.75 43:1.5 44:0.5 45:2 46:2 47:1 49:0.5 50:2 51:2 52:1 67:1 
-0.1517655340728976 -1 6:8 7:0.129 8:62 9:7 12:1 13:1 14:1 15:1 17:15.5 18:4 20:13 21:15 22:5 25:13 26:15 27:5 29:4 31:8.8 32:0.4622 33:25.6 34:1.4 35:0.4 39:0.4 42:14.6667 43:1.8 45:4.4 46:5.2 47:1.8 50:2.5571 51:3.6357 52:1.2 54:0.4 55:0.2 56:0.2 82:1 88:1 89:6.4 90:0.1032 91:0.2639 92:0.2418 93:0.8 94:0.0129 95:0.0405 96:0.0277 
-0.2083676602761291 -0.02486617590600206 6:5 7:1.25 8:4 9:2 17:4 18:1 21:2 26:1 29:2 30:1.3333 31:9 32:0.3333 33:29 34:6.6667 35:0.3333 39:0.6667 42:23.5 43:1.3333 45:3.3333 46:12.3333 47:2.3333 50:3 51:9.1667 52:2.1667 54:1.6667 56:0.3333 68:1 88:1 89:1 90:0.25 91:0.0379 92:0.131 
-1 -0.6152684012419554 6:11 7:1.375 8:8 9:2 17:8 18:1 21:4 26:0.8 29:1 31:6.5 32:1.0536 33:20.3333 34:1.1667 35:0.3333 36:0.1667 39:0.5 42:6.3333 43:2 44:0.3333 45:3 46:3.8333 47:2 49:0.3333 50:2.8889 51:2.8611 52:1.8889 55:0.1667 56:0.1667 87:1 89:0.6667 90:0.0833 91:0.066 92:0.1006 
-0.8912231826361198 -1 6:11 7:0.44 8:25 15:1 17:25 18:1 20:4 21:4 22:3 25:4 26:4 27:3 31:10 32:0.373 33:50.6667 34:5.8333 35:0.5 39:1.6667 42:17.8254 43:2.6667 44:0.6667 45:7.3333 46:13.5 47:5.3333 49:0.3889 50:4.1389 51:6.2778 52:2.6944 54:1.8333 55:0.1667 56:0.1667 70:1 89:5.6667 90:0.2267 91:0.1898 92:0.2783 93:0.5 94:0.02 95:0.0077 96:0.0133 
-0.6287998740364787 -0.4413402147241629 6:9 7:0.2647 8:34 9:1 17:34 18:1 19:1 20:7 21:6 22:3 24:0.3333 25:2.3333 26:2 27:1 31:5 32:1 33:5 34:1 42:5 43:1 45:2 47:1 50:1 52:0.5 55:1 56:1 67:1 89:1 90:0.0294 91:0.2 92:0.0698 93:1 94:0.0294 95:0.2 96:0.0778 97:1 98:0.0294 99:0.2 100:0.0778 
-1 -0 6:8 7:0.1667 8:48 15:5 17:6.8571 18:7 20:9 21:10 22:3 25:9 26:10 27:3 31:5 32:1.6667 33:3 34:1 42:3 43:1 46:2 51:1 54:1 56:1 74:1 88:1 89:1 90:0.0208 91:0.3333 92:0.1586 
-0.7765777414674011 -0.5142990219272293 6:11 7:0.1667 8:66 9:10 12:1 14:1 15:1 17:11 18:6 19:1 20:11 21:20 22:7 24:1 25:11 26:20 27:7 29:2 31:8.75 32:0.4147 33:23.5 34:1.25 35:0.5 39:0.25 42:16.6667 43:1.5 45:4 46:5.5 47:1 50:3.4 51:4.3 52:1 54:0.25 58:0.25 59:0.25 62:1 89:6.25 90:0.0947 91:0.2809 92:0.2026 93:1.75 94:0.0265 95:0.0826 96:0.0469 
-0.8683317931294438 -0 1:0.5455 2:1.1818 6:11 7:0.1429 8:77 9:10 14:4 15:1 16:3 17:15.4 18:5 20:12 21:15 22:7 25:12 26:15 27:7 29:1 30:1.8182 31:12.5455 32:0.234 33:60.3636 34:5.2727 35:0.1818 39:0.8182 40:1 41:3.1818 42:26.0974 43:6.4545 44:0.8182 45:9.4545 46:16.6364 47:3.6364 49:0.2955 50:5.2102 51:8.4545 52:2.4091 54:1.1818 55:0.0909 57:0.1818 58:0.1818 59:0.3636 67:1 89:7.7273 90:0.1004 91:0.1434 92:0.2004 93:0.9091 94:0.0118 95:0.0171 96:0.0164 97:0.4545 98:0.0059 99:0.0094 100:0.0098 
-1 -0.3447824936586815 6:11 7:0.6875 8:16 14:1 15:1 17:8 18:2 20:3 21:4 22:1 25:1 26:1.3333 27:0.3333 31:6.4 32:0.7916 33:9.4 34:0.8 35:0.4 36:0.4 39:0.4 42:9.4 43:1 45:0.8 46:2 47:0.2 50:0.6667 51:1.0167 52:0.2 54:0.2 55:0.2 56:0.2 62:1 88:1 89:1.4 90:0.0875 91:0.1496 92:0.1109 
-1 -0.8560122744662302 2:0.1111 6:11 7:0.1392 8:79 9:13 12:1 14:2 15:1 17:11.2857 18:7 20:13 21:18 22:10 25:13 26:18 27:10 29:5 31:16 32:1.4214 33:21.5556 34:3 35:0.1111 36:0.1111 38:0.1111 39:0.4444 40:0.1111 41:0.4444 42:9.3519 43:2.2222 44:0.2222 45:3 46:6.5556 47:1.7778 49:0.0361 50:2.0381 51:3.5994 52:1.2917 54:1.3333 55:0.1111 56:0.1111 71:1 89:4.1111 90:0.052 91:0.1503 92:0.1536 93:0.6667 94:0.0084 95:0.0218 96:0.0228 97:0.2222 98:0.0028 99:0.0107 100:0.0122 
-0 -0.9684678872515445 6:6 7:0.4 8:15 9:4 15:1 17:15 18:1 20:2 21:7 22:1 25:2 26:7 27:1 29:4 31:7.6667 32:1.2148 33:6.6667 34:0.6667 35:0.6667 42:6.6667 43:1 45:0.3333 46:1.6667 50:0.1111 51:1.2222 56:0.3333 64:1 89:1.3333 90:0.0889 91:0.1667 92:0.1206 93:0.6667 94:0.0444 95:0.0741 96:0.0594 97:0.3333 98:0.0222 99:0.037 100:0.0297 
