svm_type c_svc
kernel_type linear
nr_class 6
total_sv 11631
rho -0.593308 -0.136401 -3.34851 -2.13487 -1.15196 0.324048 -3.37147 -1.30073 -0.403828 -2.00099 -0.791586 -1.08684 0.197023 -0.502454 -0.967841
label 1 3 0 2 4 5
nr_sv 2962 2746 4200 1659 61 3
SV
0 0.5 0.5 0 0 6:7 7:0.7778 8:9 9:2 14:1 15:1 17:9 18:1 19:1 20:1 21:2 22:1 24:1 25:1 26:2 27:1 31:7 32:0.4667 33:15 34:5 42:15 43:1 45:3 46:3 47:3 50:0.6 51:0.6 52:0.6 54:2 55:1 59:1 60:1 61:1 88:1 89:1 90:0.1111 91:0.0667 92:0.0945 
0.5 0.5 0.5 0 0 6:7 7:0.7778 8:9 9:2 14:1 15:1 17:9 18:1 19:1 20:1 21:2 22:1 24:1 25:1 26:2 27:1 31:10 32:0.2439 33:41 34:4 41:8 42:3.7273 43:11 45:5 46:11 47:7 50:5 51:11 52:7 54:1 60:1 61:1 88:1 89:2 90:0.2222 91:0.0488 92:0.1043 
0.5 0.5 0.2970137366236909 0 0 6:7 7:0.7778 8:9 9:2 14:1 15:1 17:9 18:1 19:1 20:1 21:2 22:1 24:1 25:1 26:2 27:1 31:8 32:0.4 33:20 34:7 40:2 42:5 43:4 44:1 45:2 46:5 47:2 49:0.3333 50:0.6667 51:1.6667 52:0.6667 54:3 56:1 60:1 61:1 88:1 
0.5 0.5 0.5 0 0 6:11 7:0.1719 8:64 9:4 14:2 15:1 17:16 18:4 19:1 20:9 21:12 22:7 24:1 25:9 26:12 27:7 31:9 32:0.1047 33:86 34:9 39:4 42:17.2 43:5 44:1 45:19 46:8 47:12 49:1 50:19 51:8 52:12 54:1 56:1 60:1 67:1 89:12 90:0.1875 91:0.1395 92:0.202 93:2 94:0.0312 95:0.0233 96:0.0396 97:1 98:0.0156 99:0.0116 100:0.0287 
0.5 0.5 0.4018312589272849 0.1489606372447467 0 6:7 7:0.3889 8:18 9:1 17:9 18:2 20:2 21:6 25:1 26:3 29:1 31:13 32:0.0963 33:135 34:3 39:1 42:67.5 43:2 45:28 46:32 47:6 50:4.6667 51:5.3333 52:1 54:3 68:1 88:1 89:3 90:0.1667 91:0.0222 92:0.1478 
0.5 0.5 0 0 0 6:7 7:0.3889 8:18 9:1 17:9 18:2 20:2 21:6 25:1 26:3 29:1 31:19 32:0.2676 33:71 34:3 41:1 42:35.5 43:2 44:1 45:16 46:17 47:3 49:0.3333 50:5.3333 51:5.6667 52:1 54:2 56:1 68:1 88:1 89:5 90:0.2778 91:0.0704 92:0.1619 93:2 94:0.1111 95:0.0282 96:0.0538 
0.5 0.5 0 0 0 6:7 7:1.75 8:4 9:2 13:1 17:4 18:1 21:1 26:1 31:23 32:1.7692 33:13 34:5 42:13 43:1 45:1 46:6 50:0.0435 51:0.2609 54:2 55:1 57:1 59:1 60:1 69:1 
0.5 0.5 0.1074288771146808 0 0 6:7 7:1.75 8:4 9:2 13:1 17:4 18:1 21:1 26:1 31:23 32:1.7692 33:13 34:5 42:13 43:1 45:1 46:6 50:0.0435 51:0.2609 54:2 57:1 58:1 59:1 60:1 69:1 
0 0.5 0.5 0.121923943979921 0 6:8 7:0.7273 8:11 15:1 17:5.5 18:2 20:2 21:4 25:2 26:4 31:32 32:0.8205 33:39 40:1 42:19.5 43:2 46:20 51:2.5 56:1 60:1 67:1 
0.5 0.5 0 0 0 6:11 7:0.2115 8:52 9:1 16:1 17:17.3333 18:3 20:9 21:13 22:3 25:9 26:13 27:3 31:3 32:0.75 33:4 34:1 42:4 43:1 46:3 51:1.5 55:1 56:1 57:1 67:1 89:2 90:0.0385 91:0.5 92:0.25 
0.5 0.5 0.5 0 0 6:10 7:0.1887 8:53 9:2 12:1 14:1 15:1 16:1 17:26.5 18:2 19:4 20:12 21:12 22:6 24:4 25:12 26:12 27:6 31:7 32:0.7778 33:9 42:9 43:1 45:2 46:3 50:0.6667 51:1 60:1 65:1 88:1 
0 0.5 0.5 0 0 6:7 7:0.175 8:40 12:1 14:3 15:1 17:13.3333 18:3 19:3 20:7 21:9 22:3 24:0.5 25:1.1667 26:1.5 27:0.5 30:6 31:71 32:1.0758 33:66 34:15 39:1 42:66 43:1 44:1 45:7 46:38 47:1 49:1 50:7 51:38 52:1 54:4 60:1 67:1 89:3 90:0.075 91:0.0455 92:0.0696 
0.5 0.5 0.5 0 0 6:7 7:0.175 8:40 12:1 14:3 15:1 17:13.3333 18:3 19:3 20:7 21:9 22:3 24:0.5 25:1.1667 26:1.5 27:0.5 31:12 32:0.2143 33:56 34:3 39:1 42:18.6667 43:3 45:8 46:7 47:3 50:8 51:7 52:3 60:1 67:1 89:4 90:0.1 91:0.0714 92:0.1794 93:2 94:0.05 95:0.0357 96:0.0422 97:2 98:0.05 99:0.0357 100:0.0458 
0.5 0.5 0.5 0 0 6:7 7:0.175 8:40 12:1 14:3 15:1 17:13.3333 18:3 19:3 20:7 21:9 22:3 24:0.5 25:1.1667 26:1.5 27:0.5 31:23 32:0.7419 33:31 34:9 40:2 42:7.75 43:4 45:3 46:12 47:2 50:0.2308 51:0.9231 52:0.1538 54:1 56:1 60:1 67:1 89:5 90:0.125 91:0.1613 92:0.1905 
0.5 0.5 0 0 0 6:7 7:0.35 8:20 9:5 14:1 15:1 17:20 18:1 20:4 21:5 22:3 25:4 26:5 27:3 29:2 31:7 32:0.875 33:8 42:4 43:2 45:2 46:2 50:2 51:2 57:1 62:1 89:1 90:0.05 91:0.125 92:0.0962 
0 0.5 0.5 0 0 6:9 7:0.2727 8:33 9:10 10:1 11:1 13:1 14:1 15:1 17:11 18:3 20:1 21:9 22:1 25:1 26:9 27:1 29:3 30:2 31:13 32:0.13 33:100 34:19 39:2 42:9.0909 43:11 45:11 46:27 47:4 50:11 51:27 52:4 54:6 55:1 60:1 71:1 89:6 90:0.1818 91:0.06 92:0.2118 
0.5 0.5 0 0 0 6:9 7:0.2727 8:33 9:10 10:1 11:1 13:1 14:1 15:1 17:11 18:3 20:1 21:9 22:1 25:1 26:9 27:1 29:3 31:8 32:1 33:8 34:3 42:8 43:1 45:1 47:1 50:1 52:1 60:1 71:1 
0.5 0.5 0 0 0 6:9 7:0.2727 8:33 9:10 10:1 11:1 13:1 14:1 15:1 17:11 18:3 20:1 21:9 22:1 25:1 26:9 27:1 29:3 31:11 32:1.375 33:8 34:1 42:8 43:1 45:2 46:3 50:0.6667 51:1 54:1 57:1 60:1 71:1 89:2 90:0.0606 91:0.25 92:0.1147 
0.5 0.5 0.5 0 0 6:9 7:0.2727 8:33 9:10 10:1 11:1 13:1 14:1 15:1 17:11 18:3 20:1 21:9 22:1 25:1 26:9 27:1 29:3 31:6 32:0.6 33:10 39:1 41:1 42:10 43:1 45:1 46:1 50:1 51:1 58:1 59:1 60:1 71:1 
0.5 0.5 0 0 0 1:1 2:1 6:9 7:0.2727 8:33 9:10 10:1 11:1 13:1 14:1 15:1 17:11 18:3 20:1 21:9 22:1 25:1 26:9 27:1 29:3 30:1 31:4 32:0.3333 33:12 34:1 40:2 42:3 43:4 44:1 45:3 46:2 47:1 49:1 50:3 51:2 52:1 54:1 59:1 60:1 71:1 89:1 90:0.0303 91:0.0833 92:0.0613 
0.5 0.5 0.5 0 0 6:9 7:0.2727 8:33 9:10 10:1 11:1 13:1 14:1 15:1 17:11 18:3 20:1 21:9 22:1 25:1 26:9 27:1 29:3 31:13 32:0.134 33:97 34:15 39:1 40:1 41:1 42:12.125 43:8 44:1 45:15 46:29 47:7 49:1 50:15 51:29 52:7 54:5 56:1 60:1 71:1 89:9 90:0.2727 91:0.0928 92:0.3685 93:1 94:0.0303 95:0.0103 96:0.0375 
0.5 0.5 0.5 0 0 6:13 7:0.4643 8:28 9:1 12:1 14:3 15:1 16:2 17:9.3333 18:3 19:1 20:6 21:9 22:4 24:1 25:6 26:9 27:4 31:7 32:0.2059 33:34 34:6 40:1 42:8.5 43:4 45:6 46:12 47:2 50:6 51:12 52:2 54:3 55:1 60:1 71:1 89:2 90:0.0714 91:0.0588 92:0.0658 
0.5 0.5 0.5 0 0 1:2 2:2 6:13 7:0.4643 8:28 9:1 12:1 14:3 15:1 16:2 17:9.3333 18:3 19:1 20:6 21:9 22:4 24:1 25:6 26:9 27:4 30:3 31:17 32:0.2125 33:80 34:2 42:80 43:1 44:2 45:8 46:27 47:2 49:0.25 50:1 51:3.375 52:0.25 60:1 71:1 89:4 90:0.1429 91:0.05 92:0.0791 
0.5 0.5 0.5 0 0 6:13 7:0.4643 8:28 9:1 12:1 14:3 15:1 16:2 17:9.3333 18:3 19:1 20:6 21:9 22:4 24:1 25:6 26:9 27:4 31:7 32:0.1591 33:44 34:5 41:1 42:11 43:4 45:9 46:7 47:6 50:3 51:2.3333 52:2 54:1 60:1 71:1 89:4 90:0.1429 91:0.0909 92:0.2216 
0.5 0.5 0.5 0 0 6:12 7:0.6 8:20 9:2 14:1 17:10 18:2 20:3 21:5 22:1 25:0.4286 26:0.7143 27:0.1429 29:1 31:6 32:0.8571 33:7 42:7 43:1 45:1 46:1 47:1 50:1 51:1 52:1 58:1 60:1 67:1 89:1 90:0.05 91:0.1429 92:0.1026 
0.5 0.5 0.5 0 0 6:12 7:0.6 8:20 9:2 14:1 17:10 18:2 20:3 21:5 22:1 25:0.4286 26:0.7143 27:0.1429 29:1 31:10 32:0.3448 33:29 34:5 35:1 39:1 42:14.5 43:2 45:3 46:8 47:2 50:3 51:8 52:2 54:1 60:1 67:1 89:4 90:0.2 91:0.1379 92:0.2094 
0.5 0.5 0 0 0 6:11 7:0.3793 8:29 9:3 15:3 17:7.25 18:4 20:4 21:5 25:4 26:5 31:10 32:0.2703 33:37 34:1 35:1 41:2 42:18.5 43:2 44:2 45:8 46:3 47:4 49:2 50:8 51:3 52:4 60:1 69:1 89:4 90:0.1379 91:0.1081 92:0.193 
0.5 0 0.5 0 0 6:9 7:0.1875 8:48 9:8 12:1 13:1 14:1 15:1 17:12 18:4 20:9 21:12 22:3 25:1.5 26:2 27:0.5 29:2 31:5 32:0.7143 33:7 34:1 37:1 42:7 43:1 45:1 46:3 47:1 50:0.25 51:0.75 52:0.25 56:1 57:1 58:1 60:1 68:1 89:1 90:0.0208 91:0.1429 92:0.0993 
0.5 0.5 0.5 0 0 6:11 7:0.22 8:50 9:5 10:2 13:1 14:1 17:25 18:2 19:1 20:10 21:9 22:3 24:0.3333 25:3.3333 26:3 27:1 29:3 31:14 32:0.7368 33:19 34:1 42:19 43:1 45:3 46:3 47:1 50:3 51:3 52:1 55:1 60:1 65:1 89:4 90:0.08 91:0.2105 92:0.5246 93:2 94:0.04 95:0.1053 96:0.1326 
0.2101920797528752 0.5 0 0 0 1:1 2:1 6:11 7:0.22 8:50 9:5 10:2 13:1 14:1 17:25 18:2 19:1 20:10 21:9 22:3 24:0.3333 25:3.3333 26:3 27:1 29:3 30:5 31:9 32:0.1139 33:79 34:6 41:3 42:15.8 43:5 44:1 45:9 46:36 47:5 49:0.3333 50:3 51:12 52:1.6667 54:3 60:1 65:1 89:6 90:0.12 91:0.0759 92:0.2299 
0.5 0.5 0 0 0 1:1 2:2 6:11 7:0.22 8:50 9:5 10:2 13:1 14:1 17:25 18:2 19:1 20:10 21:9 22:3 24:0.3333 25:3.3333 26:3 27:1 29:3 30:3 31:13 32:0.3333 33:39 34:5 40:1 42:19.5 43:2 45:4 46:19 47:1 50:4 51:19 52:1 54:4 60:1 65:1 89:2 90:0.04 91:0.0513 92:0.0855 
0.5 0.5 0.5 0 0 6:11 7:0.22 8:50 9:5 10:2 13:1 14:1 17:25 18:2 19:1 20:10 21:9 22:3 24:0.3333 25:3.3333 26:3 27:1 29:3 31:5 32:0.2273 33:22 34:2 39:2 42:22 43:1 45:6 46:2 47:4 50:1.2 51:0.4 52:0.8 60:1 65:1 89:1 90:0.02 91:0.0455 92:0.0195 
0.5 0.5 0 0 0 1:1 2:1 6:11 7:0.22 8:50 9:5 10:2 13:1 14:1 17:25 18:2 19:1 20:10 21:9 22:3 24:0.3333 25:3.3333 26:3 27:1 29:3 30:5 31:10 32:0.1064 33:94 34:6 41:2 42:31.3333 43:3 44:4 45:17 46:37 47:7 49:1.3333 50:5.6667 51:12.3333 52:2.3333 54:1 60:1 65:1 89:8 90:0.16 91:0.0851 92:0.2094 
0 0.5 0.5 0 0 1:1 2:2 6:11 7:0.22 8:50 9:5 10:2 13:1 14:1 17:25 18:2 19:1 20:10 21:9 22:3 24:0.3333 25:3.3333 26:3 27:1 29:3 30:6 31:7 32:0.14 33:50 34:2 41:1 42:8.3333 43:6 45:4 46:21 47:2 50:4 51:21 52:2 60:1 65:1 89:4 90:0.08 91:0.08 92:0.0811 
0.5 0 0 0 0 6:11 7:0.22 8:50 9:5 10:2 13:1 14:1 17:25 18:2 19:1 20:10 21:9 22:3 24:0.3333 25:3.3333 26:3 27:1 29:3 31:6 32:0.3333 33:18 37:1 40:5 41:2 42:2.5714 43:7 44:3 45:3 46:1 47:1 49:3 50:3 51:1 52:1 60:1 65:1 89:1 90:0.02 91:0.0556 92:0.0721 
0 0.5 0.5 0 0 1:1 2:2 6:11 7:0.22 8:50 9:5 10:2 13:1 14:1 17:25 18:2 19:1 20:10 21:9 22:3 24:0.3333 25:3.3333 26:3 27:1 29:3 30:6 31:8 32:0.1404 33:57 34:3 41:2 42:8.1429 43:7 45:5 46:24 47:2 50:5 51:24 52:2 54:1 60:1 65:1 89:5 90:0.1 91:0.0877 92:0.1001 
0.5 0.5 0.5 0 0 6:11 7:0.22 8:50 9:5 10:2 13:1 14:1 17:25 18:2 19:1 20:10 21:9 22:3 24:0.3333 25:3.3333 26:3 27:1 29:3 31:10 32:0.4348 33:23 42:23 43:1 45:5 46:4 47:1 50:5 51:4 52:1 57:1 60:1 65:1 89:4 90:0.08 91:0.1739 92:0.3948 93:1 94:0.02 95:0.0435 96:0.0312 
0.5 0.5 0.5 0 0 6:11 7:0.22 8:50 9:5 10:2 13:1 14:1 17:25 18:2 19:1 20:10 21:9 22:3 24:0.3333 25:3.3333 26:3 27:1 29:3 31:7 32:0.2917 33:24 34:2 38:1 39:1 41:2 42:8 43:3 44:1 45:3 46:5 47:2 49:1 50:3 51:5 52:2 58:1 60:1 65:1 89:4 90:0.08 91:0.1667 92:0.1901 
0.5 0.5 0.5 0 0 6:11 7:0.22 8:50 9:5 10:2 13:1 14:1 17:25 18:2 19:1 20:10 21:9 22:3 24:0.3333 25:3.3333 26:3 27:1 29:3 31:7 32:0.28 33:25 34:2 39:1 41:2 42:12.5 43:2 44:1 45:4 46:2 47:3 49:1 50:4 51:2 52:3 60:1 65:1 89:4 90:0.08 91:0.16 92:0.1569 
0.5 0.5 0.03397050754105274 0 0 1:1 2:2 6:11 7:0.22 8:50 9:5 10:2 13:1 14:1 17:25 18:2 19:1 20:10 21:9 22:3 24:0.3333 25:3.3333 26:3 27:1 29:3 30:6 31:7 32:0.1077 33:65 34:1 40:1 41:1 42:9.2857 43:7 45:5 46:24 47:3 50:5 51:24 52:3 59:1 60:1 65:1 89:5 90:0.1 91:0.0769 92:0.188 
0.5 0.5 0 0 0 6:11 7:0.22 8:50 9:5 10:2 13:1 14:1 17:25 18:2 19:1 20:10 21:9 22:3 24:0.3333 25:3.3333 26:3 27:1 29:3 31:10 32:0.4348 33:23 41:4 42:5.75 43:4 44:1 45:6 46:4 47:2 49:1 50:6 51:4 52:2 57:1 59:1 60:1 65:1 89:4 90:0.08 91:0.1739 92:0.4331 93:1 94:0.02 95:0.0435 96:0.0328 
0.5 0.5 0 0 0 6:11 7:0.22 8:50 9:5 10:2 13:1 14:1 17:25 18:2 19:1 20:10 21:9 22:3 24:0.3333 25:3.3333 26:3 27:1 29:3 31:11 32:0.6111 33:18 34:1 41:4 42:4.5 43:4 45:3 46:3 47:1 50:3 51:3 52:1 57:1 58:1 60:1 65:1 89:3 90:0.06 91:0.1667 92:0.3419 
0.5 0.5 0.5 0 0 6:11 7:0.22 8:50 9:5 10:2 13:1 14:1 17:25 18:2 19:1 20:10 21:9 22:3 24:0.3333 25:3.3333 26:3 27:1 29:3 31:11 32:3.6667 33:3 42:3 43:1 46:1 51:1 56:1 58:1 60:1 65:1 89:1 90:0.02 91:0.3333 92:0.0806 
0 0.5 0.3306689878072681 0 0 6:9 7:0.2045 8:44 9:5 12:1 17:14.6667 18:3 20:7 21:10 22:3 25:7 26:10 27:3 29:2 31:7 32:0.3182 33:22 34:10 42:22 43:1 45:4 46:6 47:2 50:2 51:3 52:1 60:1 67:1 89:1 90:0.0227 91:0.0455 92:0.0295 
0.5 0.5 0.5 0 0 6:10 7:0.1351 8:74 9:5 15:1 17:24.6667 18:3 19:1 20:13 21:18 22:6 23:1 24:1 25:13 26:18 27:6 28:1 29:2 31:9 32:1.125 33:8 34:1 42:8 43:1 45:1 46:4 50:0.1111 51:0.4444 54:1 55:1 60:1 71:1 89:1 90:0.0135 91:0.125 92:0.0792 
0.5 0.5 0.5 0 0 6:16 7:0.4 8:40 10:1 14:4 17:40 18:1 20:9 21:11 22:2 25:4.5 26:5.5 27:1 31:9 32:0.2093 33:43 34:5 38:1 39:2 40:3 42:8.6 43:5 44:2 45:7 46:9 47:6 49:2 50:7 51:9 52:6 60:1 66:1 88:1 89:7 90:0.175 91:0.1628 92:0.1482 93:5 94:0.125 95:0.1163 96:0.1282 97:3 98:0.075 99:0.0698 100:0.0811 
0 0.5 0.5 0 0 6:16 7:0.4 8:40 10:1 14:4 17:40 18:1 20:9 21:11 22:2 25:4.5 26:5.5 27:1 31:11 32:0.1028 33:107 34:14 40:1 41:8 42:9.7273 43:11 44:2 45:16 46:24 47:5 49:2 50:16 51:24 52:5 54:5 60:1 66:1 88:1 89:5 90:0.125 91:0.0467 92:0.1084 93:1 94:0.025 95:0.0093 96:0.0171 97:1 98:0.025 99:0.0093 100:0.0176 
0 0.5 0.5 0 0 6:8 7:0.4 8:20 9:3 15:1 17:10 18:2 19:1 20:4 21:5 22:1 24:1 25:4 26:5 27:1 29:1 31:14 32:0.6087 33:23 34:3 42:23 43:1 45:7 46:3 47:3 50:0.5 51:0.2143 52:0.2143 55:1 60:1 67:1 89:1 90:0.05 91:0.0435 92:0.0464 
0.5 0.5 0.5 0 0 6:8 7:0.4 8:20 9:3 15:1 17:10 18:2 19:1 20:4 21:5 22:1 24:1 25:4 26:5 27:1 29:1 31:8 32:0.7273 33:11 34:1 42:11 43:1 45:1 46:3 47:1 50:0.3333 51:1 52:0.3333 54:1 60:1 67:1 89:1 90:0.05 91:0.0909 92:0.0791 
0.5 0.5 0 0 0 6:7 7:0.4375 8:16 15:1 17:16 18:1 19:1 20:4 21:3 22:3 24:1 25:4 26:3 27:3 31:6 32:0.4615 33:13 40:1 42:13 43:1 44:1 45:2 46:3 49:1 50:2 51:3 56:1 68:1 
0.5 0.5 0 0 0 1:1 2:2 6:5 7:0.7143 8:7 9:2 17:7 18:1 20:2 21:2 25:2 26:2 29:1 30:3 31:9 32:0.2143 33:42 34:5 41:2 42:14 43:3 45:5 46:16 47:1 50:5 51:16 52:1 54:4 55:1 56:1 60:1 73:1 
0 0.5 0 0 0 1:2 2:4 6:11 7:3.6667 8:3 17:3 18:1 21:2 26:0.1818 30:5 31:7 32:0.1667 33:42 34:1 41:1 42:14 43:3 45:4 46:18 50:2 51:9 55:1 56:1 60:1 75:1 
0.5 0.5 0 0 0 1:1 2:2 6:8 7:0.2353 8:34 9:6 13:1 14:1 15:1 17:11.3333 18:3 19:1 20:3 21:10 22:3 24:1 25:3 26:10 27:3 29:1 30:3 31:8 32:0.2667 33:30 34:2 40:1 42:15 43:2 45:4 46:14 47:1 50:4 51:14 52:1 54:1 55:1 60:1 73:1 89:3 90:0.0882 91:0.1 92:0.2882 93:1 94:0.0294 95:0.0333 96:0.0375 
0.5 0.5 0.5 0 0 6:8 7:0.2353 8:34 9:6 13:1 14:1 15:1 17:11.3333 18:3 19:1 20:3 21:10 22:3 24:1 25:3 26:10 27:3 29:1 31:9 32:0.5 33:18 34:2 39:1 41:2 42:6 43:3 44:1 45:4 46:2 47:2 49:1 50:4 51:2 52:2 56:1 60:1 73:1 89:2 90:0.0588 91:0.1111 92:0.0849 93:1 94:0.0294 95:0.0556 96:0.0464 97:1 98:0.0294 99:0.0556 100:0.0464 
0 0.5 0.5 0 0 6:9 7:0.5625 8:16 9:1 17:8 18:2 20:4 21:4 22:1 25:4 26:4 27:1 31:10 32:0.5 33:20 39:1 41:3 42:6.6667 43:3 45:3 46:2 50:3 51:2 55:1 60:1 70:1 89:1 90:0.0625 91:0.05 92:0.0471 
0.5 0.5 0.5 0 0 6:9 7:0.5625 8:16 9:1 17:8 18:2 20:4 21:4 22:1 25:4 26:4 27:1 31:10 32:0.3125 33:32 34:3 38:1 42:10.6667 43:3 45:3 46:9 47:3 50:3 51:9 52:3 54:2 60:1 70:1 
0 0.5 0.5 0 0 6:9 7:0.5625 8:16 9:2 14:1 15:3 17:5.3333 18:3 20:2 21:4 22:2 25:2 26:4 27:2 31:46 32:3.5385 33:13 34:4 42:13 43:1 45:1 46:2 50:1 51:2 54:3 55:1 56:1 60:1 67:1 89:2 90:0.125 91:0.1538 92:0.1672 
0 0.5 0 0 0 6:5 7:0.7143 8:7 9:2 17:7 18:1 20:1 21:2 22:1 25:1 26:2 27:1 31:4 32:1.3333 33:3 41:1 42:3 43:1 46:1 51:1 55:1 56:1 60:1 67:1 
0.5 0.5 0 0 0 6:10 7:0.3571 8:28 9:3 14:3 15:1 17:28 18:1 19:2 20:4 21:4 22:4 24:2 25:4 26:4 27:4 29:1 31:8 32:0.2667 33:30 34:1 40:1 41:1 42:15 43:2 44:1 45:2 46:5 47:3 49:1 50:2 51:5 52:3 60:1 71:1 89:3 90:0.1071 91:0.1 92:0.1035 
0.5 0.5 0.5 0 0 6:9 7:0.75 8:12 15:1 17:12 18:1 20:3 21:4 25:3 26:4 31:8 32:2 33:4 34:2 42:4 43:1 45:1 50:1 60:1 64:1 88:1 
0.5 0.5 0.5 0 0 6:9 7:0.75 8:12 15:1 17:12 18:1 20:3 21:4 25:3 26:4 31:8 32:1 33:8 41:3 42:2.6667 43:3 45:1 46:2 50:1 51:2 60:1 64:1 88:1 
0.5 0 0 0 0 6:10 7:0.2703 8:37 9:3 13:1 14:1 17:18.5 18:2 19:1 20:2 21:9 22:2 24:1 25:2 26:9 27:2 29:1 31:6 32:2 33:3 34:1 37:1 42:3 43:1 46:2 51:0.6667 55:1 56:1 57:1 60:1 70:1 89:1 90:0.027 91:0.3333 92:0.1925 
0.5 0.5 0.5 0 0 6:11 7:0.1507 8:73 9:8 14:2 15:3 16:1 17:12.1667 18:6 19:2 20:15 21:12 22:9 24:2 25:15 26:12 27:9 29:1 31:14 32:0.1261 33:111 34:8 35:1 42:18.5 43:6 44:2 45:25 46:15 47:15 49:2 50:25 51:15 52:15 55:1 60:1 67:1 89:17 90:0.2329 91:0.1532 92:0.4252 93:6 94:0.0822 95:0.0541 96:0.2164 97:2 98:0.0274 99:0.018 100:0.1667 
0.5 0 0 0 0 6:11 7:0.1507 8:73 9:8 14:2 15:3 16:1 17:12.1667 18:6 19:2 20:15 21:12 22:9 24:2 25:15 26:12 27:9 29:1 31:9 32:0.6 33:15 34:1 40:1 41:1 42:7.5 43:2 45:4 46:4 47:2 50:4 51:4 52:2 60:1 67:1 89:1 90:0.0137 91:0.0667 92:0.0583 
0 0.5 0 0 0 6:11 7:0.1507 8:73 9:8 14:2 15:3 16:1 17:12.1667 18:6 19:2 20:15 21:12 22:9 24:2 25:15 26:12 27:9 29:1 31:7 32:0.7 33:10 34:2 42:10 43:1 45:1 46:4 50:1 51:4 54:1 60:1 67:1 89:1 90:0.0137 91:0.1 92:0.0357 
0.5 0.5 0.5 0 0 6:11 7:0.1507 8:73 9:8 14:2 15:3 16:1 17:12.1667 18:6 19:2 20:15 21:12 22:9 24:2 25:15 26:12 27:9 29:1 31:11 32:0.2558 33:43 34:2 42:43 43:1 45:8 46:11 47:3 50:1.3333 51:1.8333 52:0.5 60:1 67:1 89:8 90:0.1096 91:0.186 92:0.3191 93:1 94:0.0137 95:0.0233 96:0.0525 97:1 98:0.0137 99:0.0233 100:0.0552 
0.5 0.5 0.5 0 0 6:11 7:0.1507 8:73 9:8 14:2 15:3 16:1 17:12.1667 18:6 19:2 20:15 21:12 22:9 24:2 25:15 26:12 27:9 29:1 31:12 32:0.1935 33:62 34:3 36:1 42:62 43:1 45:13 46:12 47:5 50:13 51:12 52:5 60:1 67:1 89:10 90:0.137 91:0.1613 92:0.3347 93:2 94:0.0274 95:0.0323 96:0.04 
0.5 0.5 0.5 0 0 6:11 7:0.1507 8:73 9:8 14:2 15:3 16:1 17:12.1667 18:6 19:2 20:15 21:12 22:9 24:2 25:15 26:12 27:9 29:1 31:14 32:0.7368 33:19 34:2 39:1 42:9.5 43:2 45:1 46:5 47:1 50:1 51:5 52:1 60:1 67:1 89:3 90:0.0411 91:0.1579 92:0.1715 
0.5 0.5 0.5 0 0 6:11 7:0.1507 8:73 9:8 14:2 15:3 16:1 17:12.1667 18:6 19:2 20:15 21:12 22:9 24:2 25:15 26:12 27:9 29:1 31:15 32:0.6522 33:23 34:1 41:1 42:11.5 43:2 45:5 46:5 47:1 50:2.5 51:2.5 52:0.5 54:1 59:1 60:1 67:1 89:5 90:0.0685 91:0.2174 92:0.2317 
0.5 0.5 0.5 0 0 6:11 7:0.1507 8:73 9:8 14:2 15:3 16:1 17:12.1667 18:6 19:2 20:15 21:12 22:9 24:2 25:15 26:12 27:9 29:1 31:10 32:0.0752 33:133 34:16 39:1 40:1 42:16.625 43:8 44:4 45:29 46:16 47:14 49:4 50:29 51:16 52:14 57:1 60:1 67:1 89:21 90:0.2877 91:0.1579 92:0.4246 93:6 94:0.0822 95:0.0451 96:0.1941 97:4 98:0.0548 99:0.0301 100:0.178 
0.5 0.5 0 0 0 6:11 7:0.1507 8:73 9:8 14:2 15:3 16:1 17:12.1667 18:6 19:2 20:15 21:12 22:9 24:2 25:15 26:12 27:9 29:1 31:10 32:0.9091 33:11 34:1 42:11 43:1 45:1 46:2 47:2 50:0.3333 51:0.6667 52:0.6667 60:1 67:1 89:3 90:0.0411 91:0.2727 92:0.2132 
0.5 0.5 0.5 0 0 6:11 7:0.1507 8:73 9:8 14:2 15:3 16:1 17:12.1667 18:6 19:2 20:15 21:12 22:9 24:2 25:15 26:12 27:9 29:1 31:10 32:0.6667 33:15 34:2 42:15 43:1 45:1 46:3 47:2 50:1 51:3 52:2 60:1 67:1 89:4 90:0.0548 91:0.2667 92:0.1961 
0.5 0.5 0.5 0 0 6:11 7:0.1507 8:73 9:8 14:2 15:3 16:1 17:12.1667 18:6 19:2 20:15 21:12 22:9 24:2 25:15 26:12 27:9 29:1 31:8 32:0.5333 33:15 34:1 42:15 43:1 45:4 46:3 50:4 51:3 60:1 67:1 89:2 90:0.0274 91:0.1333 92:0.0952 
0 0.5 0 0 0 6:11 7:0.1507 8:73 9:8 14:2 15:3 16:1 17:12.1667 18:6 19:2 20:15 21:12 22:9 24:2 25:15 26:12 27:9 29:1 31:7 32:0.875 33:8 34:1 42:8 43:1 45:2 47:2 50:2 52:2 60:1 67:1 
0.5 0.5 0 0 0 6:11 7:0.1507 8:73 9:8 14:2 15:3 16:1 17:12.1667 18:6 19:2 20:15 21:12 22:9 24:2 25:15 26:12 27:9 29:1 31:8 32:0.6154 33:13 34:2 42:13 43:1 44:3 45:3 46:3 47:1 49:0.4286 50:0.4286 51:0.4286 52:0.1429 60:1 67:1 89:4 90:0.0548 91:0.3077 92:0.1681 
0.5 0.5 0 0 0 6:11 7:0.1507 8:73 9:8 14:2 15:3 16:1 17:12.1667 18:6 19:2 20:15 21:12 22:9 24:2 25:15 26:12 27:9 29:1 31:7 32:0.4118 33:17 34:3 42:8.5 43:2 44:1 45:4 46:1 47:3 49:1 50:4 51:1 52:3 54:2 60:1 67:1 89:5 90:0.0685 91:0.2941 92:0.243 93:3 94:0.0411 95:0.1765 96:0.1533 97:2 98:0.0274 99:0.1176 100:0.126 
0.5 0.5 0 0 0 6:11 7:0.1507 8:73 9:8 14:2 15:3 16:1 17:12.1667 18:6 19:2 20:15 21:12 22:9 24:2 25:15 26:12 27:9 29:1 31:8 32:0.7273 33:11 34:2 42:11 43:1 45:1 46:3 47:1 50:1 51:3 52:1 54:1 60:1 67:1 89:2 90:0.0274 91:0.1818 92:0.1278 
0 0.5 0 0 0 6:11 7:0.1507 8:73 9:8 14:2 15:3 16:1 17:12.1667 18:6 19:2 20:15 21:12 22:9 24:2 25:15 26:12 27:9 29:1 31:9 32:0.6429 33:14 34:3 42:7 43:2 45:2 46:4 47:1 50:2 51:4 52:1 54:1 60:1 67:1 89:1 90:0.0137 91:0.0714 92:0.0958 93:1 94:0.0137 95:0.0714 96:0.1088 97:1 98:0.0137 99:0.0714 100:0.1118 
0.5 0.5 0 0 0 6:11 7:0.1507 8:73 9:8 14:2 15:3 16:1 17:12.1667 18:6 19:2 20:15 21:12 22:9 24:2 25:15 26:12 27:9 29:1 31:6 32:0.2609 33:23 34:2 40:1 42:11.5 43:2 44:1 45:5 46:4 49:1 50:5 51:4 54:1 60:1 67:1 89:4 90:0.0548 91:0.1739 92:0.2106 
0.5 0.5 0.5 0 0 6:11 7:0.1507 8:73 9:8 14:2 15:3 16:1 17:12.1667 18:6 19:2 20:15 21:12 22:9 24:2 25:15 26:12 27:9 29:1 31:5 32:0.3125 33:16 34:2 42:8 43:2 45:5 46:2 47:2 50:5 51:2 52:2 60:1 67:1 89:3 90:0.0411 91:0.1875 92:0.162 
0.5 0.5 0 0 0 6:11 7:0.1507 8:73 9:8 14:2 15:3 16:1 17:12.1667 18:6 19:2 20:15 21:12 22:9 24:2 25:15 26:12 27:9 29:1 31:8 32:0.6667 33:12 34:1 40:1 41:2 42:3 43:4 45:2 46:2 47:1 50:2 51:2 52:1 60:1 67:1 89:2 90:0.0274 91:0.1667 92:0.1909 
0 0.5 0.5 0 0 6:11 7:0.1507 8:73 9:8 14:2 15:3 16:1 17:12.1667 18:6 19:2 20:15 21:12 22:9 24:2 25:15 26:12 27:9 29:1 31:6 32:0.5455 33:11 34:2 42:5.5 43:2 45:2 46:3 50:2 51:3 54:2 60:1 67:1 89:1 90:0.0137 91:0.0909 92:0.0714 
0.5 0.5 0 0 0 6:11 7:0.1507 8:73 9:8 14:2 15:3 16:1 17:12.1667 18:6 19:2 20:15 21:12 22:9 24:2 25:15 26:12 27:9 29:1 31:8 32:0.5 33:16 34:1 39:1 40:1 41:2 42:5.3333 43:3 44:1 45:2 46:3 49:1 50:2 51:3 60:1 67:1 89:4 90:0.0548 91:0.25 92:0.1304 
0.5 0.5 0.5 0 0 6:11 7:0.1507 8:73 9:8 14:2 15:3 16:1 17:12.1667 18:6 19:2 20:15 21:12 22:9 24:2 25:15 26:12 27:9 29:1 31:12 32:1.2 33:10 34:1 42:10 43:1 45:2 46:2 47:2 50:2 51:2 52:2 54:1 56:1 60:1 67:1 89:3 90:0.0411 91:0.3 92:0.1786 
0.5 0.5 0 0 0 6:10 7:0.6667 8:15 9:2 15:1 17:15 18:1 19:1 20:2 21:4 24:1 25:2 26:4 29:1 31:7 32:0.28 33:25 34:2 41:1 42:12.5 43:2 45:5 46:4 47:2 50:5 51:4 52:2 54:1 60:1 67:1 89:1 90:0.0667 91:0.04 92:0.1369 
0.5 0.5 0.5 0 0 6:10 7:0.6667 8:15 9:2 15:1 17:15 18:1 19:1 20:2 21:4 24:1 25:2 26:4 29:1 31:11 32:1.2222 33:9 42:9 43:1 45:2 46:4 50:0.3333 51:0.6667 60:1 67:1 89:1 90:0.0667 91:0.1111 92:0.1667 
0.5 0.5 0 0 0 6:10 7:0.6667 8:15 9:2 15:1 17:15 18:1 19:1 20:2 21:4 24:1 25:2 26:4 29:1 31:10 32:2 33:5 40:1 42:5 43:1 45:1 46:2 50:1 51:2 60:1 67:1 
0.5 0.5 0 0 0 6:10 7:0.6667 8:15 9:2 15:1 17:15 18:1 19:1 20:2 21:4 24:1 25:2 26:4 29:1 31:10 32:0.7692 33:13 34:2 40:1 41:1 42:6.5 43:2 44:1 45:2 46:3 47:2 49:1 50:2 51:3 52:2 60:1 67:1 89:1 90:0.0667 91:0.0769 92:0.0754 
0.5 0.5 0.5 0 0 6:10 7:0.6667 8:15 9:2 15:1 17:15 18:1 19:1 20:2 21:4 24:1 25:2 26:4 29:1 31:10 32:0.4348 33:23 34:2 39:1 40:1 42:11.5 43:2 44:1 45:2 46:7 47:2 49:1 50:2 51:7 52:2 60:1 67:1 89:2 90:0.1333 91:0.087 92:0.1677 93:1 94:0.0667 95:0.0435 96:0.063 
0 0.5 0 0 0 6:10 7:0.6667 8:15 9:2 15:1 17:15 18:1 19:1 20:2 21:4 24:1 25:2 26:4 29:1 31:9 32:1.2857 33:7 34:3 35:1 42:7 43:1 45:1 46:3 47:1 50:0.1111 51:0.3333 52:0.1111 60:1 67:1 
0.5 0.5 0.5 0 0 6:10 7:0.3448 8:29 9:7 14:1 16:1 17:9.6667 18:3 19:1 20:5 21:9 22:3 24:1 25:5 26:9 27:3 29:3 31:8 32:0.8 33:10 34:1 40:1 42:10 43:1 45:4 46:1 47:2 50:4 51:1 52:2 55:1 57:1 60:1 65:1 89:2 90:0.069 91:0.2 92:0.1217 
0.5 0.5 0.5 0 0 6:10 7:0.2564 8:39 9:10 12:1 14:1 15:1 16:2 17:7.8 18:5 19:1 20:5 21:13 22:2 24:1 25:5 26:13 27:2 29:4 31:5 32:0.4167 33:12 34:2 42:12 43:1 45:4 47:1 50:4 52:1 54:1 60:1 67:1 89:4 90:0.1026 91:0.3333 92:0.2068 
0.5 0.5 0.5 0 0 6:10 7:0.2564 8:39 9:10 12:1 14:1 15:1 16:2 17:7.8 18:5 19:1 20:5 21:13 22:2 24:1 25:5 26:13 27:2 29:4 31:6 32:0.3333 33:18 34:2 42:18 43:1 44:1 45:2 46:4 47:2 49:1 50:2 51:4 52:2 54:1 60:1 67:1 89:3 90:0.0769 91:0.1667 92:0.1286 
0.5 0.5 0.5 0 0 6:15 7:0.2239 8:67 9:8 12:1 14:2 15:1 17:22.3333 18:3 19:2 20:10 21:17 22:5 24:0.5 25:2.5 26:4.25 27:1.25 29:3 31:11 32:0.141 33:78 34:11 37:1 42:13 43:6 44:4 45:14 46:17 47:10 49:0.6667 50:2.3333 51:2.8333 52:1.6667 54:3 58:1 59:1 60:1 65:1 89:11 90:0.1642 91:0.141 92:0.2253 
0.5 0.5 0.5 0 0 6:15 7:0.2239 8:67 9:8 12:1 14:2 15:1 17:22.3333 18:3 19:2 20:10 21:17 22:5 24:0.5 25:2.5 26:4.25 27:1.25 29:3 31:6 32:0.8571 33:7 34:6 42:7 43:1 46:6 51:2 54:3 58:1 60:1 65:1 
0.5 0.5 0.5 0 0 6:10 7:0.3226 8:31 9:5 12:1 15:1 17:10.3333 18:3 19:1 20:5 21:10 22:2 24:0.1667 25:0.8333 26:1.6667 27:0.3333 29:1 31:9 32:0.4737 33:19 34:4 42:19 43:1 45:3 46:7 50:3 51:7 54:4 60:1 67:1 
0.5 0.5 0.3780682192288915 0 0 6:10 7:0.3226 8:31 9:5 12:1 15:1 17:10.3333 18:3 19:1 20:5 21:10 22:2 24:0.1667 25:0.8333 26:1.6667 27:0.3333 29:1 31:6 32:3 33:2 42:2 43:1 46:1 51:0.1667 60:1 67:1 
0.5 0.5 0.5 0 0 6:9 7:0.1023 8:88 9:3 16:2 17:29.3333 18:3 20:18 21:19 22:8 25:18 26:19 27:8 29:2 31:17 32:0.3542 33:48 34:1 41:3 42:16 43:3 45:4 46:10 47:2 50:4 51:10 52:2 56:1 60:1 65:1 89:10 90:0.1136 91:0.2083 92:0.2186 93:1 94:0.0114 95:0.0208 96:0.0153 
0 0.5 0 0 0 6:9 7:0.2045 8:44 9:4 14:3 15:1 17:44 18:1 20:10 21:6 22:6 25:10 26:6 27:6 29:1 31:10 32:0.9091 33:11 34:1 42:11 43:1 44:1 45:2 46:1 47:1 49:1 50:2 51:1 52:1 54:1 60:1 70:1 
0.5 0.5 0.5 0 0 6:11 7:0.4074 8:27 9:3 15:1 17:27 18:1 20:2 21:11 25:2 26:11 29:2 30:2 31:30 32:0.3226 33:93 34:8 40:2 42:23.25 43:4 44:1 45:17 46:26 47:7 49:1 50:17 51:26 52:7 54:3 56:1 60:1 76:1 89:4 90:0.1481 91:0.043 92:0.1549 
0.5 0.5 0.5 0 0 6:28 7:1.75 8:16 15:1 17:16 18:1 19:1 20:2 21:4 24:1 25:2 26:4 31:7 32:0.6364 33:11 34:4 38:1 42:11 43:1 45:3 46:4 47:1 50:0.6 51:0.8 52:0.2 54:2 55:1 60:1 68:1 88:1 89:1 90:0.0625 91:0.0909 92:0.0778 
0.5 0.5 0.5 0 0 6:28 7:1.75 8:16 15:1 17:16 18:1 19:1 20:2 21:4 24:1 25:2 26:4 31:8 32:0.16 33:50 34:7 40:3 42:12.5 43:4 44:4 45:11 46:11 47:5 49:4 50:11 51:11 52:5 54:1 60:1 68:1 88:1 89:3 90:0.1875 91:0.06 92:0.1671 
0.5 0.5 0.5 0.1069890590917965 0 6:28 7:1.75 8:16 15:1 17:16 18:1 19:1 20:2 21:4 24:1 25:2 26:4 31:10 32:0.1961 33:51 34:47 42:17 43:3 45:2 46:43 47:1 50:0.5 51:10.75 52:0.25 54:7 56:1 60:1 68:1 88:1 
0.5 0.5 0.5 0 0 6:10 7:0.2564 8:39 9:13 17:19.5 18:2 19:2 20:6 21:15 22:3 24:2 25:6 26:15 27:3 29:6 31:11 32:0.3667 33:30 34:1 42:30 43:1 45:7 46:6 50:7 51:6 59:1 60:1 73:1 89:2 90:0.0513 91:0.0667 92:0.1091 
0.5 0.4897428606918424 0.5 0 0 6:10 7:0.2564 8:39 9:13 17:19.5 18:2 19:2 20:6 21:15 22:3 24:2 25:6 26:15 27:3 29:6 31:9 32:0.4286 33:21 34:3 37:1 39:1 42:21 43:1 45:1 46:7 47:2 50:1 51:7 52:2 54:1 57:1 60:1 73:1 89:2 90:0.0513 91:0.0952 92:0.0772 
0.5 0.5 0 0 0 6:9 7:0.1579 8:57 14:2 17:28.5 18:2 20:8 21:10 22:4 25:2 26:2.5 27:1 31:11 32:0.5789 33:19 42:19 43:1 44:1 45:3 46:4 47:4 49:1 50:3 51:4 52:4 68:1 88:1 89:5 90:0.0877 91:0.2632 92:0.0968 
0 0.5 0 0 0 6:11 7:0.3438 8:32 9:5 15:3 17:8 18:4 19:2 20:4 21:9 22:4 24:0.4 25:0.8 26:1.8 27:0.8 31:6 32:3 33:2 34:2 42:2 43:1 46:2 51:0.3333 54:2 55:1 59:1 60:1 67:1 
0.5 0.5 0.5 0 0 6:11 7:0.3438 8:32 9:5 15:3 17:8 18:4 19:2 20:4 21:9 22:4 24:0.4 25:0.8 26:1.8 27:0.8 31:11 32:0.6471 33:17 34:3 41:3 42:4.25 43:4 45:1 46:6 50:0.5 51:3 54:2 58:1 59:1 60:1 67:1 
0.5 0.5 0.5 0 0 6:11 7:0.3438 8:32 9:5 15:3 17:8 18:4 19:2 20:4 21:9 22:4 24:0.4 25:0.8 26:1.8 27:0.8 31:14 32:0.2333 33:60 34:4 41:1 42:20 43:3 45:8 46:13 47:1 50:1.6 51:2.6 52:0.2 54:1 57:1 60:1 67:1 89:5 90:0.1562 91:0.0833 92:0.1356 93:2 94:0.0625 95:0.0333 96:0.0524 97:2 98:0.0625 99:0.0333 100:0.0524 
0.5 0.5 0 0 0 6:11 7:0.3438 8:32 9:5 15:3 17:8 18:4 19:2 20:4 21:9 22:4 24:0.4 25:0.8 26:1.8 27:0.8 31:8 32:0.8889 33:9 34:2 42:9 43:1 45:1 46:2 47:1 50:1 51:2 52:1 60:1 67:1 
0.5 0.5 0 0 0 6:11 7:0.3438 8:32 9:5 15:3 17:8 18:4 19:2 20:4 21:9 22:4 24:0.4 25:0.8 26:1.8 27:0.8 31:7 32:0.28 33:25 34:4 37:1 41:2 42:12.5 43:2 45:4 46:5 47:4 50:4 51:5 52:4 54:2 59:1 60:1 67:1 89:3 90:0.0938 91:0.12 92:0.11 93:2 94:0.0625 95:0.08 96:0.0821 97:1 98:0.0312 99:0.04 100:0.041 
0.5 0.5 0 0 0 6:11 7:0.2619 8:42 9:1 17:21 18:2 20:5 21:13 22:1 23:1 25:1.6667 26:4.3333 27:0.3333 28:0.3333 31:7 32:0.4118 33:17 34:9 39:1 42:17 43:1 45:1 46:8 47:1 50:0.5 51:4 52:0.5 54:3 76:1 89:1 90:0.0238 91:0.0588 92:0.039 
0.5 0.5 0 0 0 1:1 2:1 6:11 7:0.2619 8:42 9:1 17:21 18:2 20:5 21:13 22:1 23:1 25:1.6667 26:4.3333 27:0.3333 28:0.3333 30:5 31:21 32:0.2625 33:80 34:3 40:3 42:16 43:5 44:2 45:14 46:25 47:9 49:2 50:14 51:25 52:9 54:1 76:1 89:4 90:0.0952 91:0.05 92:0.0923 
0.5 0.5 0 0 0 6:11 7:0.2619 8:42 9:1 17:21 18:2 20:5 21:13 22:1 23:1 25:1.6667 26:4.3333 27:0.3333 28:0.3333 31:11 32:0.2973 33:37 34:8 39:1 42:18.5 43:2 44:1 45:4 46:10 47:3 49:0.5 50:2 51:5 52:1.5 54:2 76:1 89:4 90:0.0952 91:0.1081 92:0.1702 
0.5 0.5 0.5 0 0 6:11 7:0.2619 8:42 9:1 17:21 18:2 20:5 21:13 22:1 23:1 25:1.6667 26:4.3333 27:0.3333 28:0.3333 31:55 32:0.7432 33:74 34:6 39:2 42:37 43:2 44:1 45:17 46:18 47:5 49:0.5 50:8.5 51:9 52:2.5 54:3 56:1 76:1 89:9 90:0.2143 91:0.1216 92:0.2917 
0.5 0.5 0.5 0.03038303356253565 0 6:11 7:0.2245 8:49 9:11 10:1 12:1 13:1 14:2 17:24.5 18:2 19:1 20:8 21:20 22:4 24:0.1667 25:1.3333 26:3.3333 27:0.6667 29:5 31:9 32:1 33:9 34:1 37:1 42:9 43:1 45:2 46:3 50:0.2222 51:0.3333 54:1 57:1 60:1 68:1 88:1 89:2 90:0.0408 91:0.2222 92:0.0962 
0.5 0.5 0.5 0 0 6:11 7:0.2245 8:49 9:11 10:1 12:1 13:1 14:2 17:24.5 18:2 19:1 20:8 21:20 22:4 24:0.1667 25:1.3333 26:3.3333 27:0.6667 29:5 31:6 32:0.2143 33:28 34:4 36:1 42:14 43:2 45:4 46:5 47:1 50:4 51:5 52:1 59:1 60:1 68:1 88:1 89:4 90:0.0816 91:0.1429 92:0.0962 
0.5 0.5 0.5 0 0 6:11 7:0.2245 8:49 9:11 10:1 12:1 13:1 14:2 17:24.5 18:2 19:1 20:8 21:20 22:4 24:0.1667 25:1.3333 26:3.3333 27:0.6667 29:5 31:9 32:1.2857 33:7 34:2 37:1 42:7 43:1 45:1 46:5 50:0.1667 51:0.8333 54:1 56:1 57:1 60:1 68:1 88:1 89:3 90:0.0612 91:0.4286 92:0.1543 
0.5 0.5 0.5 0 0 6:7 7:0.1556 8:45 9:4 12:1 14:2 15:1 16:2 17:11.25 18:4 19:1 20:7 21:12 22:2 24:0.3333 25:2.3333 26:4 27:0.6667 29:2 31:8 32:2.6667 33:3 41:1 42:3 43:1 46:2 51:2 56:1 58:1 60:1 65:1 
0.5 0 0 0 0 6:5 7:0.3125 8:16 9:9 14:1 15:4 17:4 18:4 19:1 20:3 21:3 22:1 24:1 25:3 26:3 27:1 29:2 31:11 32:0.44 33:25 34:4 40:2 41:1 42:8.3333 43:3 44:1 45:5 46:4 47:1 49:1 50:5 51:4 52:1 54:1 56:1 60:1 67:1 
0 0.5 0 0.1211392347239845 0 6:7 7:0.5 8:14 9:2 15:1 17:7 18:2 20:2 21:2 22:2 25:2 26:2 27:2 31:6 32:0.4286 33:14 42:4.6667 43:3 45:3 46:4 50:0.5 51:0.6667 55:1 68:1 88:1 
0.5 0.5 0.5 0.1572753699607524 0 6:9 7:0.1579 8:57 9:6 14:2 15:1 17:57 18:1 19:1 20:11 21:19 22:3 24:1 25:11 26:19 27:3 29:3 31:6 32:0.8571 33:7 42:7 43:1 45:1 46:2 47:1 50:0.2 51:0.4 52:0.2 57:1 60:1 68:1 88:1 89:5 90:0.0877 91:0.7143 92:0.308 93:2 94:0.0351 95:0.2857 96:0.0867 
0 0.5 0 0 0 1:1 2:2 6:11 7:0.1618 8:68 9:4 12:1 14:1 17:34 18:2 20:11 21:17 22:4 25:5.5 26:8.5 27:2 29:2 30:3 31:8 32:0.2424 33:33 34:5 42:33 43:1 45:2 46:17 50:2 51:17 54:4 55:1 56:1 60:1 69:1 89:2 90:0.0294 91:0.0606 92:0.1918 
0.5 0.5 0.5 0 0 6:6 7:0.4286 8:14 12:1 17:14 18:1 20:3 21:6 22:1 25:1 26:2 27:0.3333 31:6 32:0.4 33:15 34:4 39:1 42:15 43:1 45:3 46:5 47:1 50:3 51:5 52:1 54:2 56:1 60:1 68:1 88:1 89:3 90:0.2143 91:0.2 92:0.2224 
0.5 0.5 0 0 0 6:10 7:0.1639 8:61 9:7 10:2 12:1 15:1 16:1 17:12.2 18:5 19:1 20:14 21:13 22:9 24:1 25:14 26:13 27:9 29:2 31:7 32:0.4667 33:15 42:15 43:1 44:1 45:4 46:4 49:1 50:4 51:4 60:1 67:1 89:2 90:0.0328 91:0.1333 92:0.0942 
0.5 0.5 0.5 0 0.06682097193800543 6:9 7:0.45 8:20 9:3 15:1 17:10 18:2 20:3 21:5 22:1 25:3 26:5 27:1 29:2 31:7 32:7 33:1 34:1 42:1 43:1 45:1 50:0.1429 56:1 60:1 70:1 
0.5 0.5 0 0 0 1:1 2:1 6:14 7:0.8235 8:17 9:5 17:8.5 18:2 19:1 20:3 21:5 24:1 25:3 26:5 29:3 30:5 31:9 32:0.1059 33:85 34:6 39:1 40:1 41:3 42:17 43:5 44:2 45:16 46:33 47:5 49:0.6667 50:5.3333 51:11 52:1.6667 54:1 58:1 60:1 69:1 89:3 90:0.1765 91:0.0353 92:0.1539 
0.5 0.5 0.5 0 0 6:14 7:0.8235 8:17 9:5 17:8.5 18:2 19:1 20:3 21:5 24:1 25:3 26:5 29:3 31:8 32:0.3333 33:24 34:2 38:1 42:24 43:1 45:5 46:8 47:4 50:1.6667 51:2.6667 52:1.3333 60:1 69:1 89:1 90:0.0588 91:0.0417 92:0.0459 
0.5 0.5 0.5 0 0 6:14 7:0.8235 8:17 9:5 17:8.5 18:2 19:1 20:3 21:5 24:1 25:3 26:5 29:3 30:2 31:55 32:1.6176 33:34 34:5 42:34 43:1 45:8 46:11 47:3 50:8 51:11 52:3 54:1 60:1 69:1 
0.5 0.5 0.5 0 0 6:11 7:0.3793 8:29 9:3 14:1 17:29 18:1 19:1 20:8 21:5 22:2 24:1 25:8 26:5 27:2 31:7 32:1 33:7 34:1 39:1 42:7 43:1 45:1 46:2 47:1 50:1 51:2 52:1 56:1 60:1 68:1 89:2 90:0.069 91:0.2857 92:0.14 
0.5 0.5 0.5 0 0 6:10 7:0.3448 8:29 9:3 14:1 15:3 17:7.25 18:4 19:2 20:5 21:8 24:2 25:5 26:8 29:1 31:8 32:0.4706 33:17 39:1 40:1 42:8.5 43:2 45:3 46:3 47:1 50:0.6 51:0.6 52:0.2 55:1 60:1 69:1 89:4 90:0.1379 91:0.2353 92:0.2321 
0.5 0.5 0 0 0 6:11 7:0.1746 8:63 9:5 10:1 12:1 14:1 15:1 17:31.5 18:2 20:8 21:24 22:3 25:8 26:24 27:3 29:1 31:4 32:1.3333 33:3 40:1 42:3 43:1 44:1 45:1 49:1 50:1 55:1 56:1 60:1 79:1 
0.5 0.5 0 0 0 6:11 7:0.234 8:47 9:6 15:1 17:11.75 18:4 19:1 20:13 21:7 22:5 24:1 25:13 26:7 27:5 31:3 32:0.75 33:4 34:1 36:1 41:1 42:4 43:1 46:1 51:1 57:1 60:1 70:1 
0.5 0.5 0.5 0 0 6:11 7:0.234 8:47 9:6 15:1 17:11.75 18:4 19:1 20:13 21:7 22:5 24:1 25:13 26:7 27:5 31:7 32:0.4667 33:15 34:1 42:15 43:1 45:3 46:3 47:1 50:1.5 51:1.5 52:0.5 58:1 60:1 70:1 89:2 90:0.0426 91:0.1333 92:0.0687 
0.5 0.5 0.5 0 0 6:11 7:0.234 8:47 9:6 15:1 17:11.75 18:4 19:1 20:13 21:7 22:5 24:1 25:13 26:7 27:5 31:9 32:0.2903 33:31 34:3 39:1 40:1 42:15.5 43:2 44:1 45:7 46:3 47:6 49:1 50:7 51:3 52:6 57:1 58:1 60:1 70:1 89:7 90:0.1489 91:0.2258 92:0.3009 93:2 94:0.0426 95:0.0645 96:0.0576 97:2 98:0.0426 99:0.0645 100:0.0576 
0.5 0.5 0.5 0 0 6:11 7:0.1864 8:59 9:5 14:1 15:1 17:14.75 18:4 19:3 20:14 21:9 22:4 24:3 25:14 26:9 27:4 31:13 32:0.5 33:26 42:26 43:1 45:3 46:6 47:1 50:3 51:6 52:1 57:1 58:1 59:1 60:1 73:1 89:4 90:0.0678 91:0.1538 92:0.1283 
0.5 0.5 0 0 0 6:11 7:0.1864 8:59 9:5 14:1 15:1 17:14.75 18:4 19:3 20:14 21:9 22:4 24:3 25:14 26:9 27:4 31:6 32:1.2 33:5 42:5 43:1 46:3 51:3 59:1 60:1 73:1 
0 0.5 0.5 0 0 6:11 7:0.1746 8:63 9:8 14:2 17:15.75 18:4 19:1 20:10 21:22 22:1 24:1 25:10 26:22 27:1 29:1 31:9 32:0.2093 33:43 34:1 42:43 43:1 45:6 46:10 47:1 50:6 51:10 52:1 54:1 55:1 60:1 67:1 89:6 90:0.0952 91:0.1395 92:0.2627 
0.5 0.5 0 0 0 6:11 7:0.1746 8:63 9:8 14:2 17:15.75 18:4 19:1 20:10 21:22 22:1 24:1 25:10 26:22 27:1 29:1 31:10 32:1 33:10 40:1 42:10 43:1 45:1 46:4 50:1 51:4 60:1 67:1 89:3 90:0.0476 91:0.3 92:0.1582 
0.5 0.5 0.5 0 0 6:11 7:0.1746 8:63 9:8 14:2 17:15.75 18:4 19:1 20:10 21:22 22:1 24:1 25:10 26:22 27:1 29:1 31:5 32:0.3333 33:15 39:1 42:15 43:1 45:3 46:3 47:1 50:1 51:1 52:0.3333 60:1 67:1 89:5 90:0.0794 91:0.3333 92:0.2072 93:1 94:0.0159 95:0.0667 96:0.0611 
0.5 0.5 0.5 0 0 6:11 7:0.1746 8:63 9:8 14:2 17:15.75 18:4 19:1 20:10 21:22 22:1 24:1 25:10 26:22 27:1 29:1 31:11 32:0.1486 33:74 34:6 39:2 42:24.6667 43:3 45:10 46:19 47:6 50:10 51:19 52:6 54:1 59:1 60:1 67:1 89:7 90:0.1111 91:0.0946 92:0.1789 
0.5 0 0 0 0 6:11 7:0.1746 8:63 9:8 14:2 17:15.75 18:4 19:1 20:10 21:22 22:1 24:1 25:10 26:22 27:1 29:1 31:8 32:0.6154 33:13 34:3 40:4 42:3.25 43:4 45:1 46:6 47:1 50:1 51:6 52:1 54:1 58:1 60:1 67:1 
0.5 0.5 0 0 0 6:11 7:0.1746 8:63 9:8 14:2 17:15.75 18:4 19:1 20:10 21:22 22:1 24:1 25:10 26:22 27:1 29:1 31:5 32:1 33:5 34:1 41:1 42:5 43:1 45:1 46:2 50:1 51:2 54:1 56:1 60:1 67:1 
0.5 0.5 0.5 0 0 6:8 7:0.4706 8:17 9:4 13:1 14:1 15:1 17:8.5 18:2 19:1 20:2 21:4 22:2 24:0.3333 25:0.6667 26:1.3333 27:0.6667 29:1 31:9 32:0.2368 33:38 34:1 42:38 43:1 44:1 45:9 46:7 47:1 49:0.2 50:1.8 51:1.4 52:0.2 54:1 55:1 60:1 68:1 89:4 90:0.2353 91:0.1053 92:0.1929 93:1 94:0.0588 95:0.0263 96:0.0417 
0.5 0.5 0.5 0 0 6:8 7:0.4706 8:17 9:4 13:1 14:1 15:1 17:8.5 18:2 19:1 20:2 21:4 22:2 24:0.3333 25:0.6667 26:1.3333 27:0.6667 29:1 31:7 32:0.5833 33:12 34:2 42:12 43:1 45:2 46:2 50:0.2857 51:0.2857 54:1 60:1 68:1 89:1 90:0.0588 91:0.0833 92:0.0693 
0 0.5 0.5 0 0 6:18 7:0.3273 8:55 9:5 14:1 15:1 17:18.3333 18:3 19:1 20:11 21:13 22:5 24:1 25:11 26:13 27:5 29:2 31:14 32:14 33:1 42:1 43:1 46:1 51:0.0714 60:1 62:1 
0.5 0.5 0 0 0 6:10 7:0.1786 8:56 9:6 14:3 15:2 17:14 18:4 20:5 21:19 22:1 25:5 26:19 27:1 29:1 31:11 32:0.44 33:25 34:4 39:1 42:25 43:1 45:4 46:7 50:4 51:7 55:1 57:1 59:1 75:1 89:6 90:0.1071 91:0.24 92:0.312 93:1 94:0.0179 95:0.04 96:0.0296 
0.5 0 0 0 0 6:10 7:0.1786 8:56 9:6 14:3 15:2 17:14 18:4 20:5 21:19 22:1 25:5 26:19 27:1 29:1 31:9 32:0.3462 33:26 34:3 37:1 39:1 41:3 42:5.2 43:5 45:4 46:4 47:3 50:1 51:1 52:0.75 54:1 57:1 58:1 75:1 89:1 90:0.0179 91:0.0385 92:0.0518 
0.5 0 0 0 0 6:10 7:0.1786 8:56 9:6 14:3 15:2 17:14 18:4 20:5 21:19 22:1 25:5 26:19 27:1 29:1 31:5 32:0.5 33:10 34:2 40:2 41:1 42:2.5 43:4 45:4 46:2 50:1 51:0.5 58:1 75:1 
0.5 0 0 0 0 6:10 7:0.1786 8:56 9:6 14:3 15:2 17:14 18:4 20:5 21:19 22:1 25:5 26:19 27:1 29:1 31:7 32:0.5833 33:12 34:2 40:4 42:3 43:4 45:2 46:2 50:2 51:2 54:1 75:1 
0 0.5 0 0 0 6:10 7:0.1786 8:56 9:6 14:3 15:2 17:14 18:4 20:5 21:19 22:1 25:5 26:19 27:1 29:1 31:7 32:0.4667 33:15 34:2 39:1 40:1 42:7.5 43:2 45:2 46:4 50:0.4 51:0.8 59:1 75:1 89:2 90:0.0357 91:0.1333 92:0.1018 93:1 94:0.0179 95:0.0667 96:0.0741 97:1 98:0.0179 99:0.0667 100:0.0741 
0 0.5 0 0 0 6:10 7:0.1786 8:56 9:6 14:3 15:2 17:14 18:4 20:5 21:19 22:1 25:5 26:19 27:1 29:1 31:9 32:0.3333 33:27 34:4 39:1 42:13.5 43:2 45:6 46:7 47:2 50:6 51:7 52:2 58:1 75:1 89:3 90:0.0536 91:0.1111 92:0.1016 
0 0.5 0 0 0 6:10 7:0.1786 8:56 9:6 14:3 15:2 17:14 18:4 20:5 21:19 22:1 25:5 26:19 27:1 29:1 31:7 32:0.5 33:14 34:3 40:1 42:14 43:1 44:1 45:3 46:5 49:1 50:3 51:5 54:1 75:1 89:3 90:0.0536 91:0.2143 92:0.1466 
0 0.5 0 0 0 6:10 7:0.1786 8:56 9:6 14:3 15:2 17:14 18:4 20:5 21:19 22:1 25:5 26:19 27:1 29:1 31:6 32:0.375 33:16 34:4 42:5.3333 43:3 45:4 46:1 47:3 50:4 51:1 52:3 75:1 
0 0.5 0 0 0 6:10 7:0.1786 8:56 9:6 14:3 15:2 17:14 18:4 20:5 21:19 22:1 25:5 26:19 27:1 29:1 31:7 32:0.4118 33:17 34:2 42:17 43:1 45:3 46:3 47:1 50:3 51:3 52:1 54:1 59:1 75:1 
0.5 0 0 0 0 6:10 7:0.1786 8:56 9:6 14:3 15:2 17:14 18:4 20:5 21:19 22:1 25:5 26:19 27:1 29:1 31:9 32:0.4737 33:19 34:3 40:1 42:9.5 43:2 44:1 45:2 46:6 49:0.3333 50:0.6667 51:2 57:1 59:1 75:1 89:4 90:0.0714 91:0.2105 92:0.154 
0 0.5 0 0 0 6:10 7:0.1786 8:56 9:6 14:3 15:2 17:14 18:4 20:5 21:19 22:1 25:5 26:19 27:1 29:1 31:7 32:1.1667 33:6 34:1 42:6 43:1 45:2 46:1 50:2 51:1 54:1 58:1 75:1 89:2 90:0.0357 91:0.3333 92:0.1704 
0.5 0.5 0 0 0 1:1 2:1 6:10 7:0.1786 8:56 9:6 14:3 15:2 17:14 18:4 20:5 21:19 22:1 25:5 26:19 27:1 29:1 30:2 31:33 32:1.1786 33:28 34:4 42:28 43:1 45:1 46:13 47:1 50:0.0303 51:0.3939 52:0.0303 54:2 57:1 75:1 89:5 90:0.0893 91:0.1786 92:0.1815 93:1 94:0.0179 95:0.0357 96:0.0296 
0 0.5 0 0 0 6:11 7:0.6471 8:17 9:5 15:1 17:17 18:1 20:3 21:6 22:1 25:3 26:6 27:1 29:1 31:11 32:0.3667 33:30 34:13 41:4 42:7.5 43:4 45:2 46:13 47:3 50:2 51:13 52:3 54:3 60:1 67:1 
0.5 0.5 0 0 0 6:11 7:0.6471 8:17 9:5 15:1 17:17 18:1 20:3 21:6 22:1 25:3 26:6 27:1 29:1 31:11 32:0.3235 33:34 34:11 41:2 42:11.3333 43:3 45:3 46:12 47:3 50:3 51:12 52:3 54:3 56:1 60:1 67:1 89:1 90:0.0588 91:0.0294 92:0.0505 
0.5 0.5 0.5 0 0 6:9 7:0.3 8:30 9:9 13:1 15:1 17:10 18:3 20:3 21:14 22:1 25:3 26:14 27:1 29:3 31:14 32:0.0881 33:159 34:7 39:2 42:159 43:1 44:2 45:31 46:32 47:12 49:2 50:31 51:32 52:12 54:2 55:1 57:1 60:1 79:1 89:9 90:0.3 91:0.0566 92:0.2757 93:1 94:0.0333 95:0.0063 96:0.0151 
0.5 0.5 0.5 0 0 6:9 7:0.3 8:30 9:9 13:1 15:1 17:10 18:3 20:3 21:14 22:1 25:3 26:14 27:1 29:3 31:8 32:0.3077 33:26 34:5 42:13 43:2 45:8 46:5 47:4 50:4 51:2.5 52:2 54:1 58:1 60:1 79:1 89:1 90:0.0333 91:0.0385 92:0.0357 
0.5 0.5 0 0 0 6:9 7:0.3 8:30 9:9 13:1 15:1 17:10 18:3 20:3 21:14 22:1 25:3 26:14 27:1 29:3 31:9 32:1 33:9 34:2 42:9 43:1 45:2 46:4 50:0.5 51:1 54:1 59:1 60:1 79:1 89:1 90:0.0333 91:0.1111 92:0.063 
0.5 0 0 0 0 6:9 7:0.3 8:30 9:9 13:1 15:1 17:10 18:3 20:3 21:14 22:1 25:3 26:14 27:1 29:3 31:6 32:0.5455 33:11 34:2 35:1 38:1 42:11 43:1 45:1 46:2 50:1 51:2 54:1 57:1 59:1 60:1 79:1 89:1 90:0.0333 91:0.0909 92:0.0668 93:1 94:0.0333 95:0.0909 96:0.0693 97:1 98:0.0333 99:0.0909 100:0.0693 
0.5 0.5 0.5 0 0 6:9 7:0.3 8:30 9:9 13:1 15:1 17:10 18:3 20:3 21:14 22:1 25:3 26:14 27:1 29:3 31:10 32:0.1149 33:87 34:1 35:1 39:1 42:87 43:1 44:3 45:13 46:16 47:4 49:1 50:4.3333 51:5.3333 52:1.3333 57:1 58:1 60:1 79:1 89:5 90:0.1667 91:0.0575 92:0.206 
0.5 0.5 0.5 0 0 6:9 7:0.3 8:30 9:9 13:1 15:1 17:10 18:3 20:3 21:14 22:1 25:3 26:14 27:1 29:3 31:7 32:0.875 33:8 42:8 43:1 45:1 46:4 50:0.1429 51:0.5714 58:1 60:1 79:1 89:2 90:0.0667 91:0.25 92:0.1336 
0.5 0 0 0 0 6:9 7:0.3 8:30 9:9 13:1 15:1 17:10 18:3 20:3 21:14 22:1 25:3 26:14 27:1 29:3 31:10 32:0.3846 33:26 37:1 40:3 42:6.5 43:4 44:1 45:2 46:9 47:1 48:1 49:0.1667 50:0.3333 51:1.5 52:0.1667 53:0.1667 60:1 79:1 89:1 90:0.0333 91:0.0385 92:0.0394 
0.5 0.5 0 0 0 6:9 7:0.3 8:30 9:9 13:1 15:1 17:10 18:3 20:3 21:14 22:1 25:3 26:14 27:1 29:3 31:7 32:0.7 33:10 34:10 42:10 43:1 46:10 51:1.4286 54:1 60:1 79:1 
0.5 0.5 0.5 0 0 6:9 7:0.3 8:30 9:9 13:1 15:1 17:10 18:3 20:3 21:14 22:1 25:3 26:14 27:1 29:3 31:7 32:0.4667 33:15 34:1 39:1 42:15 43:1 45:3 46:6 47:1 50:1.5 51:3 52:0.5 56:1 60:1 79:1 89:2 90:0.0667 91:0.1333 92:0.0976 
0.5 0.5 0.5 0 0 6:10 7:0.4762 8:21 14:1 16:3 17:7 18:3 20:4 21:3 22:3 25:4 26:3 27:3 31:28 32:0.549 33:51 34:5 39:1 40:3 41:3 42:7.2857 43:7 45:9 46:11 47:4 50:9 51:11 52:4 55:1 60:1 74:1 88:1 89:1 90:0.0476 91:0.0196 92:0.0377 
0.5 0.5 0.5 0 0 6:16 7:0.2712 8:59 13:1 14:1 17:59 18:1 19:1 20:14 21:19 22:2 24:0.125 25:1.75 26:2.375 27:0.25 31:6 32:1 33:6 42:6 43:1 44:1 46:3 49:0.1667 51:0.5 60:1 68:1 88:1 89:2 90:0.0339 91:0.3333 92:0.088 
0 0.5 0.2519785253941805 0 0 6:10 7:0.1333 8:75 9:3 13:1 14:1 17:18.75 18:4 20:9 21:33 22:1 25:1.5 26:5.5 27:0.1667 29:3 31:10 32:0.2174 33:46 34:9 42:46 43:1 45:2 46:7 50:1 51:3.5 54:2 55:1 56:1 60:1 67:1 
0.5 0.5 0.5 0 0 6:11 7:0.2619 8:42 9:3 14:3 15:1 17:21 18:2 19:1 20:9 21:10 22:2 24:1 25:9 26:10 27:2 31:9 32:0.1268 33:71 34:4 35:2 39:1 42:35.5 43:2 45:7 46:14 47:7 50:7 51:14 52:7 54:2 55:1 60:1 68:1 88:1 89:8 90:0.1905 91:0.1127 92:0.2496 93:1 94:0.0238 95:0.0141 96:0.0198 
0 0.5 0 0 0 6:1 7:0.0526 8:19 15:19 17:1 18:19 31:7 32:3.5 33:2 34:1 42:2 43:1 46:1 51:1 54:1 55:1 56:1 60:1 69:1 
0.5 0.5 0.5 0 0 6:9 7:0.5625 8:16 9:1 16:5 17:3.2 18:5 20:2 21:3 25:2 26:3 31:10 32:0.3704 33:27 34:4 42:9 43:3 45:3 46:8 47:2 50:3 51:8 52:2 54:1 60:1 71:1 89:2 90:0.125 91:0.0741 92:0.1183 
0 0.5 0.5 0 0 6:9 7:0.3103 8:29 9:3 13:2 14:1 15:1 17:14.5 18:2 19:1 20:4 21:9 22:3 24:1 25:4 26:9 27:3 29:1 31:7 32:0.2258 33:31 34:2 39:1 42:15.5 43:2 45:4 46:7 47:4 50:2 51:3.5 52:2 54:1 55:1 60:1 61:1 88:1 89:2 90:0.069 91:0.0645 92:0.0938 
0.5 0.5 0.5 0 0 6:9 7:0.3103 8:29 9:3 13:2 14:1 15:1 17:14.5 18:2 19:1 20:4 21:9 22:3 24:1 25:4 26:9 27:3 29:1 31:8 32:0.5714 33:14 34:1 42:14 43:1 45:4 46:3 47:3 50:4 51:3 52:3 60:1 61:1 88:1 89:1 90:0.0345 91:0.0714 92:0.0799 
0.5 0.5 0 0 0 6:12 7:0.3158 8:38 9:2 15:1 17:19 18:2 19:2 20:5 21:7 22:4 24:2 25:5 26:7 27:4 31:10 32:0.1852 33:54 34:8 37:1 42:54 43:1 45:3 46:10 47:1 50:1.5 51:5 52:0.5 54:3 55:1 60:1 75:1 89:3 90:0.0789 91:0.0556 92:0.0363 
0.5 0.5 0 0 0 6:12 7:0.3158 8:38 9:2 15:1 17:19 18:2 19:2 20:5 21:7 22:4 24:2 25:5 26:7 27:4 31:11 32:1.375 33:8 34:1 40:1 42:4 43:2 45:1 46:4 50:1 51:4 54:1 60:1 75:1 
0.5 0.5 0 0 0 6:12 7:0.3158 8:38 9:2 15:1 17:19 18:2 19:2 20:5 21:7 22:4 24:2 25:5 26:7 27:4 31:11 32:0.9167 33:12 34:1 41:4 42:3 43:4 45:2 46:2 47:1 50:2 51:2 52:1 60:1 75:1 89:1 90:0.0263 91:0.0833 92:0.0605 
0.5 0.5 0.5 0 0 6:12 7:0.3158 8:38 9:2 15:1 17:19 18:2 19:2 20:5 21:7 22:4 24:2 25:5 26:7 27:4 31:8 32:0.25 33:32 34:2 39:1 41:1 42:16 43:2 45:10 46:5 47:3 50:1.25 51:0.625 52:0.375 60:1 75:1 89:5 90:0.1316 91:0.1562 92:0.2251 
0.5 0.5 0.2455369864810368 0 0 6:12 7:0.3158 8:38 9:2 15:1 17:19 18:2 19:2 20:5 21:7 22:4 24:2 25:5 26:7 27:4 31:6 32:0.6667 33:9 34:2 42:9 43:1 45:2 46:3 50:2 51:3 60:1 75:1 89:2 90:0.0526 91:0.2222 92:0.1132 
0.5 0.5 0 0 0 6:12 7:0.3158 8:38 9:2 15:1 17:19 18:2 19:2 20:5 21:7 22:4 24:2 25:5 26:7 27:4 31:6 32:0.75 33:8 34:2 42:8 43:1 45:1 46:4 47:3 50:0.1667 51:0.6667 52:0.5 60:1 75:1 
0.5 0 0 0.1334014138189213 0 1:1 2:1 6:12 7:0.3158 8:38 9:2 15:1 17:19 18:2 19:2 20:5 21:7 22:4 24:2 25:5 26:7 27:4 30:1 31:6 32:0.2857 33:21 34:1 40:5 42:3.5 43:6 44:1 45:1 46:10 49:1 50:1 51:10 60:1 75:1 
0.5 0.5 0.5 0 0 6:12 7:0.3158 8:38 9:2 15:1 17:19 18:2 19:2 20:5 21:7 22:4 24:2 25:5 26:7 27:4 31:8 32:0.2 33:40 39:1 42:13.3333 43:3 44:3 45:11 46:7 47:5 49:3 50:11 51:7 52:5 60:1 75:1 89:9 90:0.2368 91:0.225 92:0.2965 93:1 94:0.0263 95:0.025 96:0.0282 
0.5 0.5 0.5 0 0 1:1 2:1 6:12 7:0.3158 8:38 9:2 15:1 17:19 18:2 19:2 20:5 21:7 22:4 24:2 25:5 26:7 27:4 30:1 31:4 32:0.3636 33:11 42:5.5 43:2 44:1 45:3 46:2 47:1 49:1 50:3 51:2 52:1 60:1 75:1 89:4 90:0.1053 91:0.3636 92:0.3397 93:1 94:0.0263 95:0.0909 96:0.0598 
0 0.5 0 0 0 1:1 2:1 6:12 7:0.3158 8:38 9:2 15:1 17:19 18:2 19:2 20:5 21:7 22:4 24:2 25:5 26:7 27:4 30:1 31:42 32:6 33:7 34:2 42:7 43:1 46:6 51:6 54:1 60:1 75:1 
0.5 0.5 0.01386945920959993 0 0 6:12 7:0.3158 8:38 9:2 15:1 17:19 18:2 19:2 20:5 21:7 22:4 24:2 25:5 26:7 27:4 31:6 32:1 33:6 34:1 42:6 43:1 45:1 46:2 47:1 50:1 51:2 52:1 54:1 58:1 60:1 75:1 
0.5 0.5 0.5 0 0 6:12 7:0.3158 8:38 9:2 15:1 17:19 18:2 19:2 20:5 21:7 22:4 24:2 25:5 26:7 27:4 31:23 32:1.2778 33:18 34:4 42:18 43:1 45:2 46:6 47:1 48:1 50:0.087 51:0.2609 52:0.0435 53:0.0435 54:1 59:1 60:1 75:1 89:5 90:0.1316 91:0.2778 92:0.2048 
0.5 0.5 0 0 0 6:12 7:0.3158 8:38 9:2 15:1 17:19 18:2 19:2 20:5 21:7 22:4 24:2 25:5 26:7 27:4 31:8 32:1 33:8 34:2 42:4 43:2 45:2 46:2 47:1 50:0.25 51:0.25 52:0.125 54:1 57:1 59:1 60:1 75:1 89:1 90:0.0263 91:0.125 92:0.0605 
0.5 0.5 0.5 0.5 0 6:12 7:0.3158 8:38 9:2 15:1 17:19 18:2 19:2 20:5 21:7 22:4 24:2 25:5 26:7 27:4 31:9 32:0.1837 33:49 34:4 40:3 41:1 42:8.1667 43:6 45:6 46:19 47:3 48:1 50:1.5 51:4.75 52:0.75 53:0.25 60:1 75:1 89:3 90:0.0789 91:0.0612 92:0.1284 
0.5 0.5 0.5 0 0 6:12 7:0.3158 8:38 9:2 15:1 17:19 18:2 19:2 20:5 21:7 22:4 24:2 25:5 26:7 27:4 31:15 32:0.5172 33:29 39:1 40:1 42:29 43:1 45:6 46:3 47:3 50:6 51:3 52:3 60:1 75:1 89:5 90:0.1316 91:0.1724 92:0.2013 
0.5 0.5 0.5 0 0 6:12 7:0.2553 8:47 9:6 17:23.5 18:2 20:7 21:12 22:4 25:7 26:12 27:4 29:1 31:12 32:0.5 33:24 34:1 42:24 43:1 45:6 46:6 47:1 50:6 51:6 52:1 54:1 55:1 57:1 60:1 73:1 89:4 90:0.0851 91:0.1667 92:0.1508 
0.5 0.5 0.5 0 0 6:12 7:0.2553 8:47 9:6 17:23.5 18:2 20:7 21:12 22:4 25:7 26:12 27:4 29:1 31:6 32:0.24 33:25 34:3 42:25 43:1 45:3 46:5 47:2 50:1 51:1.6667 52:0.6667 54:1 58:1 60:1 73:1 89:3 90:0.0638 91:0.12 92:0.1633 
0.5 0 0 0 0 6:12 7:0.2553 8:47 9:6 17:23.5 18:2 20:7 21:12 22:4 25:7 26:12 27:4 29:1 31:14 32:1.1667 33:12 34:1 40:3 41:3 42:2 43:6 44:1 46:3 49:1 51:3 60:1 73:1 
0.5 0.5 0 0 0 6:12 7:0.2553 8:47 9:6 17:23.5 18:2 20:7 21:12 22:4 25:7 26:12 27:4 29:1 31:11 32:0.4231 33:26 34:2 35:5 42:26 43:1 45:6 46:4 47:1 50:0.75 51:0.5 52:0.125 54:1 57:1 60:1 73:1 89:2 90:0.0426 91:0.0769 92:0.064 
0.5 0.5 0 0 0 6:12 7:0.2553 8:47 9:6 17:23.5 18:2 20:7 21:12 22:4 25:7 26:12 27:4 29:1 31:7 32:0.5833 33:12 41:1 42:6 43:2 44:1 45:1 47:1 49:1 50:1 52:1 60:1 73:1 
0.5 0.5 0.5 0 0 6:12 7:0.2553 8:47 9:6 17:23.5 18:2 20:7 21:12 22:4 25:7 26:12 27:4 29:1 31:8 32:0.381 33:21 34:1 37:1 39:1 42:21 43:1 45:4 46:5 47:3 50:2 51:2.5 52:1.5 59:1 60:1 73:1 89:3 90:0.0638 91:0.1429 92:0.1333 
0.5 0.5 0.5 0 0 6:12 7:0.2553 8:47 9:6 17:23.5 18:2 20:7 21:12 22:4 25:7 26:12 27:4 29:1 31:12 32:0.3158 33:38 39:1 42:38 43:1 44:1 45:5 46:12 47:3 49:1 50:5 51:12 52:3 60:1 73:1 89:4 90:0.0851 91:0.1053 92:0.1444 
0.5 0.5 0.5 0.5 0 2:1 6:12 7:0.2553 8:47 9:6 17:23.5 18:2 20:7 21:12 22:4 25:7 26:12 27:4 29:1 31:11 32:1.2222 33:9 42:9 43:1 46:5 47:1 51:1.25 52:0.25 60:1 73:1 
0.5 0.5 0.5 0 0 6:12 7:0.2553 8:47 9:6 17:23.5 18:2 20:7 21:12 22:4 25:7 26:12 27:4 29:1 31:7 32:0.7 33:10 39:1 42:10 43:1 45:2 46:1 47:1 50:2 51:1 52:1 59:1 60:1 73:1 
0.5 0.5 0.4020802142910396 0.3227308149153025 0 6:8 7:0.3077 8:26 9:5 14:1 15:3 16:2 17:5.2 18:5 20:5 21:9 22:1 25:5 26:9 27:1 29:2 31:6 32:1.2 33:5 42:5 43:1 46:2 51:2 55:1 60:1 73:1 
0.5 0.5 0.5 0.5 0 6:8 7:0.3077 8:26 9:5 14:1 15:3 16:2 17:5.2 18:5 20:5 21:9 22:1 25:5 26:9 27:1 29:2 31:5 32:1 33:5 34:1 42:5 43:1 46:2 51:2 54:1 57:1 58:1 60:1 73:1 
0.5 0 0 0 0 6:11 7:0.125 8:88 9:8 10:1 13:1 15:1 17:22 18:4 19:1 20:14 21:20 22:4 24:0.1667 25:2.3333 26:3.3333 27:0.6667 29:2 31:13 32:0.5 33:26 34:1 40:3 41:3 42:4.3333 43:6 45:4 46:6 50:4 51:6 57:1 60:1 67:1 89:5 90:0.0568 91:0.1923 92:0.2003 
0.5 0 0 0 0 6:11 7:0.125 8:88 9:8 10:1 13:1 15:1 17:22 18:4 19:1 20:14 21:20 22:4 24:0.1667 25:2.3333 26:3.3333 27:0.6667 29:2 31:10 32:0.0806 33:124 34:22 40:6 41:6 42:9.5385 43:13 44:4 45:13 46:29 47:5 49:4 50:13 51:29 52:5 54:14 58:1 60:1 67:1 89:16 90:0.1818 91:0.129 92:0.3898 93:2 94:0.0227 95:0.0161 96:0.0399 97:1 98:0.0114 99:0.0081 100:0.0213 
0.5 0.5 0.5 0 0 6:11 7:0.125 8:88 9:8 10:1 13:1 15:1 17:22 18:4 19:1 20:14 21:20 22:4 24:0.1667 25:2.3333 26:3.3333 27:0.6667 29:2 31:13 32:0.1182 33:110 34:12 35:1 39:1 40:1 42:15.7143 43:7 44:1 45:16 46:28 47:6 49:1 50:16 51:28 52:6 54:3 60:1 67:1 89:18 90:0.2045 91:0.1636 92:0.4716 93:7 94:0.0795 95:0.0636 96:0.0886 97:3 98:0.0341 99:0.0273 100:0.0315 
0.5 0.5 0.5 0 0 6:11 7:0.125 8:88 9:8 10:1 13:1 15:1 17:22 18:4 19:1 20:14 21:20 22:4 24:0.1667 25:2.3333 26:3.3333 27:0.6667 29:2 31:10 32:0.1695 33:59 34:3 39:1 42:19.6667 43:3 44:1 45:9 46:14 47:1 49:1 50:9 51:14 52:1 60:1 67:1 89:6 90:0.0682 91:0.1017 92:0.2594 
0.5 0 0 0 0 6:11 7:0.125 8:88 9:8 10:1 13:1 15:1 17:22 18:4 19:1 20:14 21:20 22:4 24:0.1667 25:2.3333 26:3.3333 27:0.6667 29:2 31:8 32:0.5 33:16 34:2 40:4 42:4 43:4 45:4 46:3 47:1 50:4 51:3 52:1 54:1 60:1 67:1 89:3 90:0.0341 91:0.1875 92:0.1325 93:1 94:0.0114 95:0.0625 96:0.0299 
0.5 0.5 0.5 0 0 6:11 7:0.125 8:88 9:8 10:1 13:1 15:1 17:22 18:4 19:1 20:14 21:20 22:4 24:0.1667 25:2.3333 26:3.3333 27:0.6667 29:2 31:7 32:0.2059 33:34 34:8 42:8.5 43:4 45:5 46:10 47:1 50:2.5 51:5 52:0.5 54:4 60:1 67:1 89:9 90:0.1023 91:0.2647 92:0.3496 93:3 94:0.0341 95:0.0882 96:0.083 97:1 98:0.0114 99:0.0294 100:0.0347 
0.5 0.5 0.5 0 0 6:11 7:0.125 8:88 9:8 10:1 13:1 15:1 17:22 18:4 19:1 20:14 21:20 22:4 24:0.1667 25:2.3333 26:3.3333 27:0.6667 29:2 31:8 32:0.1739 33:46 34:3 42:15.3333 43:3 44:1 45:12 46:4 47:9 49:1 50:12 51:4 52:9 59:1 60:1 67:1 89:9 90:0.1023 91:0.1957 92:0.2736 93:1 94:0.0114 95:0.0217 96:0.015 
0.5 0.5 0.5 0 0 6:11 7:0.125 8:88 9:8 10:1 13:1 15:1 17:22 18:4 19:1 20:14 21:20 22:4 24:0.1667 25:2.3333 26:3.3333 27:0.6667 29:2 31:12 32:0.4 33:30 34:1 35:1 42:15 43:2 44:1 45:5 46:8 47:2 49:1 50:5 51:8 52:2 59:1 60:1 67:1 89:7 90:0.0795 91:0.2333 92:0.2216 
0.5 0.5 0.5 0 0 6:11 7:0.125 8:88 9:8 10:1 13:1 15:1 17:22 18:4 19:1 20:14 21:20 22:4 24:0.1667 25:2.3333 26:3.3333 27:0.6667 29:2 31:9 32:0.36 33:25 42:25 43:1 45:4 46:6 47:2 50:1 51:1.5 52:0.5 57:1 59:1 60:1 67:1 89:8 90:0.0909 91:0.32 92:0.3532 
0.5 0 0 0 0 6:11 7:0.125 8:88 9:8 10:1 13:1 15:1 17:22 18:4 19:1 20:14 21:20 22:4 24:0.1667 25:2.3333 26:3.3333 27:0.6667 29:2 31:12 32:0.0909 33:132 34:10 39:1 40:7 42:16.5 43:8 44:4 45:27 46:22 47:8 49:2 50:13.5 51:11 52:4 57:1 58:1 60:1 67:1 89:16 90:0.1818 91:0.1212 92:0.4411 93:3 94:0.0341 95:0.0227 96:0.0275 
0.5 0.5 0.5 0 0 1:1 2:1 6:11 7:0.125 8:88 9:8 10:1 13:1 15:1 17:22 18:4 19:1 20:14 21:20 22:4 24:0.1667 25:2.3333 26:3.3333 27:0.6667 29:2 30:1 31:8 32:0.3636 33:22 42:22 43:1 44:1 45:2 46:10 49:1 50:2 51:10 58:1 60:1 67:1 89:4 90:0.0455 91:0.1818 92:0.24 93:1 94:0.0114 95:0.0455 96:0.0232 
0.5 0.5 0.04729832793110912 0 0 6:11 7:0.125 8:88 9:8 10:1 13:1 15:1 17:22 18:4 19:1 20:14 21:20 22:4 24:0.1667 25:2.3333 26:3.3333 27:0.6667 29:2 30:2 31:57 32:1.5 33:38 34:2 42:19 43:2 44:1 45:8 46:13 47:1 49:1 50:8 51:13 52:1 60:1 67:1 89:4 90:0.0455 91:0.1053 92:0.1939 
0.5 0.5 0.5 0 0 1:1 2:2 6:11 7:0.125 8:88 9:8 10:1 13:1 15:1 17:22 18:4 19:1 20:14 21:20 22:4 24:0.1667 25:2.3333 26:3.3333 27:0.6667 29:2 30:3 31:10 32:0.1493 33:67 34:7 39:1 42:33.5 43:2 44:1 45:10 46:24 47:3 49:1 50:10 51:24 52:3 54:4 60:1 67:1 89:14 90:0.1591 91:0.209 92:0.395 93:3 94:0.0341 95:0.0448 96:0.0476 
0.5 0 0 0 0 6:11 7:0.125 8:88 9:8 10:1 13:1 15:1 17:22 18:4 19:1 20:14 21:20 22:4 24:0.1667 25:2.3333 26:3.3333 27:0.6667 29:2 31:5 32:0.5 33:10 34:1 42:10 43:1 44:1 45:1 46:1 47:1 49:1 50:1 51:1 52:1 54:1 57:1 60:1 67:1 89:2 90:0.0227 91:0.2 92:0.0967 
0.5 0 0 0 0 6:11 7:0.125 8:88 9:8 10:1 13:1 15:1 17:22 18:4 19:1 20:14 21:20 22:4 24:0.1667 25:2.3333 26:3.3333 27:0.6667 29:2 31:8 32:1.3333 33:6 34:1 40:2 42:3 43:2 44:1 45:2 47:1 49:1 50:2 52:1 60:1 67:1 89:1 90:0.0114 91:0.1667 92:0.0382 
0.5 0.5 0 0 0 6:11 7:0.125 8:88 9:8 10:1 13:1 15:1 17:22 18:4 19:1 20:14 21:20 22:4 24:0.1667 25:2.3333 26:3.3333 27:0.6667 29:2 31:6 32:1 33:6 35:1 42:6 43:1 46:4 51:1 60:1 67:1 89:2 90:0.0227 91:0.3333 92:0.1561 
0.5 0.5 0.5 0 0 6:11 7:0.125 8:88 9:8 10:1 13:1 15:1 17:22 18:4 19:1 20:14 21:20 22:4 24:0.1667 25:2.3333 26:3.3333 27:0.6667 29:2 31:10 32:0.0699 33:143 34:11 35:1 42:15.8889 43:9 44:1 45:20 46:32 47:8 49:1 50:20 51:32 52:8 54:3 60:1 67:1 89:21 90:0.2386 91:0.1469 92:0.4327 93:3 94:0.0341 95:0.021 96:0.0364 97:1 98:0.0114 99:0.007 100:0.0096 
0.5 0.5 0.5 0 0 6:11 7:0.125 8:88 9:8 10:1 13:1 15:1 17:22 18:4 19:1 20:14 21:20 22:4 24:0.1667 25:2.3333 26:3.3333 27:0.6667 29:2 31:13 32:0.0778 33:167 34:19 39:2 40:6 41:10 42:8.35 43:20 44:5 45:22 46:37 47:8 49:5 50:22 51:37 52:8 54:7 60:1 67:1 89:22 90:0.25 91:0.1317 92:0.5984 93:10 94:0.1136 95:0.0599 96:0.1178 97:4 98:0.0455 99:0.024 100:0.0458 
0.5 0.5 0.5 0 0 6:11 7:0.125 8:88 9:8 10:1 13:1 15:1 17:22 18:4 19:1 20:14 21:20 22:4 24:0.1667 25:2.3333 26:3.3333 27:0.6667 29:2 31:8 32:0.1633 33:49 34:5 42:16.3333 43:3 44:1 45:10 46:12 47:4 49:1 50:10 51:12 52:4 54:1 60:1 67:1 89:6 90:0.0682 91:0.1224 92:0.3524 93:1 94:0.0114 95:0.0204 96:0.0306 
0 0.5 0 0 0 6:11 7:0.125 8:88 9:8 10:1 13:1 15:1 17:22 18:4 19:1 20:14 21:20 22:4 24:0.1667 25:2.3333 26:3.3333 27:0.6667 29:2 31:6 32:0.4 33:15 34:1 42:7.5 43:2 44:1 45:3 46:2 47:2 49:0.3333 50:1 51:0.6667 52:0.6667 60:1 67:1 
0.5 0.5 0 0 0 6:11 7:0.125 8:88 9:8 10:1 13:1 15:1 17:22 18:4 19:1 20:14 21:20 22:4 24:0.1667 25:2.3333 26:3.3333 27:0.6667 29:2 31:6 32:0.2609 33:23 34:3 42:11.5 43:2 45:2 46:4 47:5 50:2 51:4 52:5 60:1 67:1 89:2 90:0.0227 91:0.087 92:0.0698 
0 0.5 0.5 0 0 6:11 7:0.125 8:88 9:8 10:1 13:1 15:1 17:22 18:4 19:1 20:14 21:20 22:4 24:0.1667 25:2.3333 26:3.3333 27:0.6667 29:2 30:1 31:10 32:0.1075 33:93 34:11 35:1 41:3 42:13.2857 43:7 45:12 46:27 47:1 48:1 50:2.4 51:5.4 52:0.2 53:0.2 54:9 60:1 67:1 89:9 90:0.1023 91:0.0968 92:0.265 93:2 94:0.0227 95:0.0215 96:0.0362 
0.5 0.5 0.5 0 0 6:14 7:0.4242 8:33 9:6 12:1 17:16.5 18:2 19:1 20:7 21:8 22:3 24:0.1429 25:1 26:1.1429 27:0.4286 29:1 31:9 32:0.45 33:20 34:1 42:20 43:1 45:4 46:5 50:4 51:5 55:1 57:1 60:1 69:1 89:3 90:0.0909 91:0.15 92:0.1519 
0 0.5 0.5 0 0.04872537257381548 6:13 7:0.2241 8:58 9:15 13:1 14:1 15:1 17:29 18:2 20:12 21:15 22:3 25:12 26:15 27:3 29:5 31:3 32:3 33:1 42:1 43:1 46:1 51:0.3333 55:1 56:1 60:1 62:1 
0.5 0.5 0.5 0 0 6:12 7:0.3077 8:39 9:9 14:1 17:13 18:3 19:1 20:4 21:13 22:3 24:1 25:4 26:13 27:3 29:4 31:7 32:1.4 33:5 34:1 40:1 42:5 43:1 46:2 51:2 54:1 55:1 60:1 78:1 88:1 
0.5 0.5 0.5 0 0 6:9 7:0.12 8:75 9:13 16:4 17:12.5 18:6 19:1 20:11 21:20 22:7 24:0.3333 25:3.6667 26:6.6667 27:2.3333 29:3 31:10 32:0.1408 33:71 34:4 38:1 42:17.75 43:4 45:12 46:18 47:7 50:1.5 51:2.25 52:0.875 54:1 60:1 70:1 89:18 90:0.24 91:0.2535 92:0.4186 93:6 94:0.08 95:0.0845 96:0.0889 97:1 98:0.0133 99:0.0141 100:0.0148 
0.5 0.5 0 0 0 6:8 7:0.7273 8:11 14:1 15:1 17:11 18:1 20:2 21:4 25:2 26:4 31:7 32:0.7778 33:9 34:1 42:9 43:1 45:2 46:2 47:2 50:2 51:2 52:2 54:1 55:1 71:1 88:1 
0.5 0.5 0.5 0 0 6:11 7:0.3929 8:28 9:3 15:2 17:9.3333 18:3 20:6 21:3 22:3 25:6 26:3 27:3 31:5 32:1.25 33:4 34:1 41:1 42:4 43:1 45:1 47:1 50:1 52:1 60:1 68:1 
0.5 0.5 0.5 0 0 6:11 7:0.3929 8:28 9:3 15:2 17:9.3333 18:3 20:6 21:3 22:3 25:6 26:3 27:3 31:9 32:0.5625 33:16 34:4 40:2 42:8 43:2 45:1 46:4 50:1 51:4 54:1 59:1 60:1 68:1 89:1 90:0.0357 91:0.0625 92:0.0806 
0.5 0.5 0.5 0 0 6:11 7:0.3929 8:28 9:3 15:2 17:9.3333 18:3 20:6 21:3 22:3 25:6 26:3 27:3 31:9 32:0.18 33:50 34:4 39:2 40:1 42:16.6667 43:3 45:10 46:9 47:5 50:3.3333 51:3 52:1.6667 57:1 58:1 60:1 68:1 89:6 90:0.2143 91:0.12 92:0.3877 93:3 94:0.1071 95:0.06 96:0.1166 97:1 98:0.0357 99:0.02 100:0.0583 
0.5 0.5 0.5 0 0 6:11 7:0.3929 8:28 9:3 15:2 17:9.3333 18:3 20:6 21:3 22:3 25:6 26:3 27:3 31:11 32:0.44 33:25 34:1 42:25 43:1 45:5 46:5 47:4 50:2.5 51:2.5 52:2 58:1 60:1 68:1 89:4 90:0.1429 91:0.16 92:0.1818 
0.5 0.5 0.5 0 0 6:11 7:0.3929 8:28 9:3 15:2 17:9.3333 18:3 20:6 21:3 22:3 25:6 26:3 27:3 31:9 32:0.3214 33:28 34:1 39:1 42:28 43:1 45:7 46:6 47:3 50:7 51:6 52:3 60:1 68:1 89:3 90:0.1071 91:0.1071 92:0.1358 
0.5 0.5 0 0 0 6:16 7:0.2857 8:56 9:8 14:1 15:6 17:8 18:7 19:1 20:11 21:12 22:1 24:1 25:11 26:12 27:1 29:3 31:5 32:1.25 33:4 34:3 42:4 43:1 46:2 51:2 54:2 60:1 69:1 
0 0.5 0 0 0 6:16 7:0.2857 8:56 9:8 14:1 15:6 17:8 18:7 19:1 20:11 21:12 22:1 24:1 25:11 26:12 27:1 29:3 31:11 32:5.5 33:2 34:2 42:2 43:1 46:1 51:0.0909 54:1 60:1 69:1 
0.5 0.5 0.5 0 0 6:16 7:0.2857 8:56 9:8 14:1 15:6 17:8 18:7 19:1 20:11 21:12 22:1 24:1 25:11 26:12 27:1 29:3 31:11 32:1.1 33:10 34:1 38:1 39:1 42:10 43:1 45:2 46:3 47:2 50:2 51:3 52:2 58:1 60:1 69:1 89:2 90:0.0357 91:0.2 92:0.0891 
0.5 0.5 0.5 0 0 6:16 7:0.2857 8:56 9:8 14:1 15:6 17:8 18:7 19:1 20:11 21:12 22:1 24:1 25:11 26:12 27:1 29:3 31:9 32:0.2308 33:39 34:6 39:2 41:1 42:13 43:3 45:7 46:4 47:5 50:7 51:4 52:5 54:1 60:1 69:1 89:7 90:0.125 91:0.1795 92:0.2015 
0.5 0.5 0 0 0 6:16 7:0.2857 8:56 9:8 14:1 15:6 17:8 18:7 19:1 20:11 21:12 22:1 24:1 25:11 26:12 27:1 29:3 31:9 32:0.9 33:10 34:1 42:10 43:1 45:2 46:3 47:2 50:2 51:3 52:2 60:1 69:1 89:2 90:0.0357 91:0.2 92:0.1336 
0.5 0.5 0.2620547204206334 0 0 6:16 7:0.2857 8:56 9:8 14:1 15:6 17:8 18:7 19:1 20:11 21:12 22:1 24:1 25:11 26:12 27:1 29:3 31:11 32:0.2895 33:38 34:5 41:1 42:12.6667 43:3 44:1 45:8 46:8 47:7 49:1 50:8 51:8 52:7 54:1 60:1 69:1 89:4 90:0.0714 91:0.1053 92:0.1223 
0.5 0.5 0.5 0 0 6:16 7:0.2857 8:56 9:8 14:1 15:6 17:8 18:7 19:1 20:11 21:12 22:1 24:1 25:11 26:12 27:1 29:3 31:9 32:0.2368 33:38 34:3 39:1 42:19 43:2 45:6 46:12 47:1 50:6 51:12 52:1 60:1 69:1 89:2 90:0.0357 91:0.0526 92:0.0591 
0.5 0.5 0.5 0 0 6:16 7:0.2857 8:56 9:8 14:1 15:6 17:8 18:7 19:1 20:11 21:12 22:1 24:1 25:11 26:12 27:1 29:3 31:6 32:0.4286 33:14 39:1 42:14 43:1 45:5 46:1 47:1 50:1.25 51:0.25 52:0.25 59:1 60:1 69:1 89:1 90:0.0179 91:0.0714 92:0.0315 
0.5 0.5 0.5 0 0 6:16 7:0.2857 8:56 9:8 14:1 15:6 17:8 18:7 19:1 20:11 21:12 22:1 24:1 25:11 26:12 27:1 29:3 31:12 32:1.0909 33:11 34:3 39:1 42:11 43:1 45:2 46:3 50:2 51:3 54:2 57:1 59:1 60:1 69:1 89:1 90:0.0179 91:0.0909 92:0.0891 
0.5 0.5 0 0 0 6:16 7:0.2857 8:56 9:8 14:1 15:6 17:8 18:7 19:1 20:11 21:12 22:1 24:1 25:11 26:12 27:1 29:3 31:8 32:0.5714 33:14 34:4 42:14 43:1 45:3 46:2 47:3 50:3 51:2 52:3 57:1 58:1 60:1 69:1 89:2 90:0.0357 91:0.1429 92:0.0972 
0.5 0.3061701373877527 0 0 0 6:16 7:0.2857 8:56 9:8 14:1 15:6 17:8 18:7 19:1 20:11 21:12 22:1 24:1 25:11 26:12 27:1 29:3 31:5 32:0.5556 33:9 34:1 37:1 39:1 42:9 43:1 45:1 46:2 47:2 50:1 51:2 52:2 58:1 60:1 69:1 
0.5 0.5 0 0 0 6:16 7:0.2857 8:56 9:8 14:1 15:6 17:8 18:7 19:1 20:11 21:12 22:1 24:1 25:11 26:12 27:1 29:3 31:8 32:0.2051 33:39 34:4 39:1 40:2 42:13 43:3 44:1 45:7 46:6 47:3 49:1 50:7 51:6 52:3 54:3 60:1 69:1 89:4 90:0.0714 91:0.1026 92:0.1604 93:1 94:0.0179 95:0.0256 96:0.0261 97:1 98:0.0179 99:0.0256 100:0.0261 
0.5 0.5 0.5 0 0 6:16 7:0.2857 8:56 9:8 14:1 15:6 17:8 18:7 19:1 20:11 21:12 22:1 24:1 25:11 26:12 27:1 29:3 31:6 32:0.2857 33:21 34:1 39:1 42:21 43:1 45:3 46:6 47:3 50:3 51:6 52:3 60:1 69:1 89:3 90:0.0536 91:0.1429 92:0.1909 
0.5 0.5 0.5 0 0 6:16 7:0.2857 8:56 9:8 14:1 15:6 17:8 18:7 19:1 20:11 21:12 22:1 24:1 25:11 26:12 27:1 29:3 31:12 32:0.5 33:24 34:1 39:1 42:24 43:1 45:4 46:5 47:2 50:4 51:5 52:2 60:1 69:1 89:4 90:0.0714 91:0.1667 92:0.1533 
0.5 0.5 0 0 0 6:16 7:0.2857 8:56 9:8 14:1 15:6 17:8 18:7 19:1 20:11 21:12 22:1 24:1 25:11 26:12 27:1 29:3 31:8 32:0.2667 33:30 34:4 36:1 42:30 43:1 45:4 46:7 47:3 50:4 51:7 52:3 54:1 60:1 69:1 89:3 90:0.0536 91:0.1 92:0.0993 
0.5 0.5 0 0 0 6:16 7:0.2857 8:56 9:8 14:1 15:6 17:8 18:7 19:1 20:11 21:12 22:1 24:1 25:11 26:12 27:1 29:3 31:4 32:0.5714 33:7 34:2 42:7 43:1 45:1 46:1 47:1 50:1 51:1 52:1 54:1 60:1 69:1 89:1 90:0.0179 91:0.1429 92:0.0598 93:1 94:0.0179 95:0.1429 96:0.0659 97:1 98:0.0179 99:0.1429 100:0.0659 
0.5 0 0 0 0 6:16 7:0.2857 8:56 9:8 14:1 15:6 17:8 18:7 19:1 20:11 21:12 22:1 24:1 25:11 26:12 27:1 29:3 31:11 32:1.8333 33:6 34:1 40:2 42:3 43:2 45:1 46:1 50:1 51:1 60:1 69:1 
0.5 0.5 0 0 0 6:16 7:0.2857 8:56 9:8 14:1 15:6 17:8 18:7 19:1 20:11 21:12 22:1 24:1 25:11 26:12 27:1 29:3 31:9 32:1.2857 33:7 34:1 40:1 42:7 43:1 45:1 46:2 47:2 50:1 51:2 52:2 60:1 69:1 
0.5 0.5 0.5 0 0 6:16 7:0.2857 8:56 9:8 14:1 15:6 17:8 18:7 19:1 20:11 21:12 22:1 24:1 25:11 26:12 27:1 29:3 31:10 32:0.5 33:20 34:2 35:1 42:20 43:1 45:4 46:3 47:2 50:4 51:3 52:2 60:1 69:1 89:4 90:0.0714 91:0.2 92:0.189 
0.5 0.5 0 0 0 6:16 7:0.2857 8:56 9:8 14:1 15:6 17:8 18:7 19:1 20:11 21:12 22:1 24:1 25:11 26:12 27:1 29:3 31:14 32:0.6667 33:21 34:2 40:1 42:10.5 43:2 44:1 45:4 46:6 47:2 49:0.2 50:0.8 51:1.2 52:0.4 60:1 69:1 89:1 90:0.0179 91:0.0476 92:0.0262 
0.5 0 0 0 0 6:16 7:0.2857 8:56 9:8 14:1 15:6 17:8 18:7 19:1 20:11 21:12 22:1 24:1 25:11 26:12 27:1 29:3 31:6 32:0.375 33:16 34:2 39:1 40:1 41:1 42:8 43:2 44:1 45:4 46:2 47:3 49:1 50:4 51:2 52:3 60:1 69:1 89:1 90:0.0179 91:0.0625 92:0.0386 93:1 94:0.0179 95:0.0625 96:0.0426 97:1 98:0.0179 99:0.0625 100:0.0426 
0.5 0.5 0.5 0 0 6:16 7:0.2857 8:56 9:8 14:1 15:6 17:8 18:7 19:1 20:11 21:12 22:1 24:1 25:11 26:12 27:1 29:3 31:10 32:0.7143 33:14 34:1 42:7 43:2 45:3 46:4 47:1 50:0.4286 51:0.5714 52:0.1429 60:1 69:1 89:1 90:0.0179 91:0.0714 92:0.0371 
0.5 0.5 0.5 0 0 6:16 7:0.2857 8:56 9:8 14:1 15:6 17:8 18:7 19:1 20:11 21:12 22:1 24:1 25:11 26:12 27:1 29:3 31:7 32:0.4375 33:16 34:2 39:1 40:1 42:8 43:2 44:1 45:3 46:1 49:1 50:3 51:1 60:1 69:1 89:2 90:0.0357 91:0.125 92:0.0772 
0.5 0.5 0.5 0 0 6:16 7:0.2857 8:56 9:8 14:1 15:6 17:8 18:7 19:1 20:11 21:12 22:1 24:1 25:11 26:12 27:1 29:3 31:8 32:0.2286 33:35 34:1 42:35 43:1 45:6 46:6 47:5 50:6 51:6 52:5 60:1 69:1 89:5 90:0.0893 91:0.1429 92:0.1498 93:1 94:0.0179 95:0.0286 96:0.0257 97:1 98:0.0179 99:0.0286 100:0.0265 
0.5 0.5 0.5 0 0 6:9 7:0.1731 8:52 9:9 14:1 15:3 17:10.4 18:5 19:2 20:12 21:8 22:7 24:2 25:12 26:8 27:7 29:1 31:9 32:0.4286 33:21 42:7 43:3 45:5 46:6 50:5 51:6 55:1 60:1 62:1 88:1 89:5 90:0.0962 91:0.2381 92:0.2177 93:1 94:0.0192 95:0.0476 96:0.033 
0.5 0.5 0.5 0 0 6:9 7:0.1731 8:52 9:9 14:1 15:3 17:10.4 18:5 19:2 20:12 21:8 22:7 24:2 25:12 26:8 27:7 29:1 31:7 32:0.7 33:10 34:3 42:10 43:1 45:1 46:3 47:1 50:1 51:3 52:1 54:1 60:1 62:1 88:1 89:2 90:0.0385 91:0.2 92:0.2182 
0.5 0.5 0.5 0 0 6:10 7:0.1887 8:53 9:4 14:1 15:1 17:13.25 18:4 20:14 21:9 22:5 25:14 26:9 27:5 29:1 31:10 32:0.3571 33:28 34:4 42:14 43:2 45:8 46:4 47:5 50:8 51:4 52:5 55:1 57:1 60:1 65:1 89:2 90:0.0377 91:0.0714 92:0.4017 93:1 94:0.0189 95:0.0357 96:0.1532 97:1 98:0.0189 99:0.0357 100:0.1559 
0.5 0.5 0.5 0 0 6:10 7:0.1887 8:53 9:4 14:1 15:1 17:13.25 18:4 20:14 21:9 22:5 25:14 26:9 27:5 29:1 31:9 32:0.1286 33:70 34:8 37:1 39:2 42:14 43:5 44:2 45:18 46:7 47:10 49:2 50:18 51:7 52:10 54:2 57:1 60:1 65:1 89:11 90:0.2075 91:0.1571 92:0.445 93:8 94:0.1509 95:0.1143 96:0.3116 97:4 98:0.0755 99:0.0571 100:0.2447 
0.5 0.5 0.5 0 0 6:10 7:0.1887 8:53 9:4 14:1 15:1 17:13.25 18:4 20:14 21:9 22:5 25:14 26:9 27:5 29:1 31:9 32:0.6 33:15 34:2 42:15 43:1 45:3 46:4 47:2 50:1.5 51:2 52:1 54:1 58:1 59:1 60:1 65:1 89:2 90:0.0377 91:0.1333 92:0.112 
0.5 0.5 0.5 0 0 6:10 7:0.1887 8:53 9:4 14:1 15:1 17:13.25 18:4 20:14 21:9 22:5 25:14 26:9 27:5 29:1 31:11 32:0.1571 33:70 34:3 39:1 42:23.3333 43:3 44:1 45:12 46:10 47:11 49:0.125 50:1.5 51:1.25 52:1.375 58:1 59:1 60:1 65:1 89:9 90:0.1698 91:0.1286 92:0.2374 93:2 94:0.0377 95:0.0286 96:0.0313 
0.5 0.5 0.5 0 0 6:10 7:0.1887 8:53 9:4 14:1 15:1 17:13.25 18:4 20:14 21:9 22:5 25:14 26:9 27:5 29:1 31:9 32:0.1765 33:51 34:2 39:2 42:8.5 43:6 45:7 46:9 47:2 50:1 51:1.2857 52:0.2857 54:1 60:1 65:1 89:4 90:0.0755 91:0.0784 92:0.1635 
0.5 0.5 0.5 0 0 6:10 7:0.1887 8:53 9:4 14:1 15:1 17:13.25 18:4 20:14 21:9 22:5 25:14 26:9 27:5 29:1 31:9 32:0.5294 33:17 34:2 39:1 42:17 43:1 44:1 45:5 46:3 47:2 49:1 50:5 51:3 52:2 58:1 60:1 65:1 89:4 90:0.0755 91:0.2353 92:0.2668 93:2 94:0.0377 95:0.1176 96:0.1302 97:1 98:0.0189 99:0.0588 100:0.0993 
0 0.5 0 0 0 6:8 7:0.2105 8:38 14:1 17:38 18:1 20:10 21:12 22:2 25:3.3333 26:4 27:0.6667 31:16 32:0.8421 33:19 34:3 40:1 41:1 42:6.3333 43:3 44:1 45:3 46:5 47:1 49:0.2 50:0.6 51:1 52:0.2 54:1 70:1 89:1 90:0.0263 91:0.0526 92:0.0365 
0 0.5 0 0 0 1:1 2:1 6:8 7:0.2105 8:38 14:1 17:38 18:1 20:10 21:12 22:2 25:3.3333 26:4 27:0.6667 30:1 31:9 32:0.6429 33:14 42:14 43:1 45:4 46:4 47:1 50:4 51:4 52:1 70:1 89:1 90:0.0263 91:0.0714 92:0.0421 
0 0.5 0 0 0 6:8 7:0.2105 8:38 14:1 17:38 18:1 20:10 21:12 22:2 25:3.3333 26:4 27:0.6667 30:2 31:72 32:6.5455 33:11 42:11 43:1 46:9 51:9 59:1 70:1 89:1 90:0.0263 91:0.0909 92:0.1305 
0.5 0.5 0 0 0 6:8 7:0.2105 8:38 14:1 17:38 18:1 20:10 21:12 22:2 25:3.3333 26:4 27:0.6667 31:7 32:7 33:1 42:1 43:1 46:1 51:0.1429 57:1 58:1 59:1 70:1 
0.5 0 0 0 0 6:8 7:0.2105 8:38 14:1 17:38 18:1 20:10 21:12 22:2 25:3.3333 26:4 27:0.6667 31:10 32:2 33:5 40:3 42:1.6667 43:3 46:2 51:2 58:1 70:1 
0.5 0.5 0 0 0 6:8 7:0.2105 8:38 14:1 17:38 18:1 20:10 21:12 22:2 25:3.3333 26:4 27:0.6667 31:11 32:0.4231 33:26 34:6 37:1 41:1 42:8.6667 43:3 45:4 46:9 47:1 50:0.8 51:1.8 52:0.2 54:4 70:1 89:1 90:0.0263 91:0.0385 92:0.0318 
0 0.5 0 0 0 1:1 2:1 6:8 7:0.2105 8:38 14:1 17:38 18:1 20:10 21:12 22:2 25:3.3333 26:4 27:0.6667 30:1 31:7 32:0.3182 33:22 34:1 42:11 43:2 44:1 45:2 46:7 49:1 50:2 51:7 70:1 
0 0.5 0 0 0 6:8 7:0.2105 8:38 14:1 17:38 18:1 20:10 21:12 22:2 25:3.3333 26:4 27:0.6667 30:5 31:10 32:0.3125 33:32 34:11 41:3 42:10.6667 43:3 45:4 46:19 47:3 50:4 51:19 52:3 54:3 70:1 89:2 90:0.0526 91:0.0625 92:0.0572 
0 0.5 0 0 0 6:8 7:0.2105 8:38 14:1 17:38 18:1 20:10 21:12 22:2 25:3.3333 26:4 27:0.6667 31:9 32:2.25 33:4 42:4 43:1 45:1 46:2 50:0.2 51:0.4 59:1 70:1 
0.5 0.5 0 0 0 6:8 7:0.2105 8:38 14:1 17:38 18:1 20:10 21:12 22:2 25:3.3333 26:4 27:0.6667 31:7 32:0.6364 33:11 42:11 43:1 45:2 46:4 50:0.5 51:1 57:1 70:1 89:1 90:0.0263 91:0.0909 92:0.044 
0 0.5 0 0 0 1:1 2:2 6:8 7:0.2105 8:38 14:1 17:38 18:1 20:10 21:12 22:2 25:3.3333 26:4 27:0.6667 30:1 31:10 32:0.1923 33:52 34:9 36:1 39:1 42:52 43:1 44:2 45:8 46:15 47:3 49:1 50:4 51:7.5 52:1.5 54:3 70:1 89:4 90:0.1053 91:0.0769 92:0.1193 93:2 94:0.0526 95:0.0385 96:0.0654 97:1 98:0.0263 99:0.0192 100:0.0353 
0 0.5 0 0 0.01168377523573811 1:2 2:2 6:10 7:1.25 8:8 17:8 18:1 20:1 21:3 25:1 26:3 29:1 30:3 31:33 32:1.0645 33:31 34:1 42:31 43:1 45:3 46:15 50:0.0909 51:0.4545 55:1 56:1 69:1 
0.5 0.5 0.5 0 0 6:10 7:0.2564 8:39 10:1 15:2 17:7.8 18:5 19:1 20:5 21:13 24:0.1429 25:0.7143 26:1.8571 31:10 32:0.4545 33:22 34:1 39:1 42:22 43:1 45:3 46:3 47:2 50:1 51:1 52:0.6667 54:1 55:1 60:1 68:1 88:1 89:3 90:0.0769 91:0.1364 92:0.1956 
0.5 0.5 0 0 0 6:10 7:0.2857 8:35 9:5 12:1 15:1 16:3 17:7 18:5 20:6 21:12 22:3 25:6 26:12 27:3 29:2 31:11 32:0.9167 33:12 34:3 37:1 42:6 43:2 46:5 47:1 51:5 52:1 54:1 57:1 62:1 89:2 90:0.0571 91:0.1667 92:0.1111 
0.5 0.5 0 0 0 6:10 7:0.2857 8:35 9:5 12:1 15:1 16:3 17:7 18:5 20:6 21:12 22:3 25:6 26:12 27:3 29:2 31:6 32:1 33:6 37:1 42:3 43:2 45:1 46:1 47:1 50:1 51:1 52:1 56:1 57:1 62:1 89:1 90:0.0286 91:0.1667 92:0.0962 
0.5 0.5 0 0.3328010289515569 0 6:10 7:0.2564 8:39 9:3 14:2 15:6 17:6.5 18:6 20:9 21:5 22:4 25:9 26:5 27:4 31:4 32:2 33:2 42:2 43:1 46:2 51:0.5 54:2 57:1 60:1 79:1 
0.5 0.5 0 0 0 6:10 7:0.2564 8:39 9:3 14:2 15:6 17:6.5 18:6 20:9 21:5 22:4 25:9 26:5 27:4 31:8 32:0.6154 33:13 42:13 43:1 45:1 46:7 50:0.5 51:3.5 57:1 58:1 60:1 79:1 89:2 90:0.0513 91:0.1538 92:0.2582 93:1 94:0.0256 95:0.0769 96:0.0483 
0.5 0.5 0.5 0 0 6:12 7:0.16 8:75 9:12 14:3 15:2 17:10.7143 18:7 20:14 21:19 22:5 25:2.3333 26:3.1667 27:0.8333 29:5 31:13 32:0.1008 33:129 34:23 39:1 41:1 42:12.9 43:10 45:14 46:35 47:6 50:2.3333 51:5.8333 52:1 54:9 57:1 60:1 73:1 89:25 90:0.3333 91:0.1938 92:0.5648 93:13 94:0.1733 95:0.1008 96:0.1751 97:5 98:0.0667 99:0.0388 100:0.0573 
0.5 0.5 0.5 0 0 6:11 7:0.3548 8:31 9:11 14:2 15:2 17:7.75 18:4 19:1 20:6 21:11 22:2 24:0.1429 25:0.8571 26:1.5714 27:0.2857 29:3 31:9 32:0.3333 33:27 34:1 42:13.5 43:2 44:1 45:7 46:6 47:5 49:0.2 50:1.4 51:1.2 52:1 58:1 60:1 83:1 89:2 90:0.0645 91:0.0741 92:0.0626 
0.5 0.5 0 0.09041720193981265 0 6:8 7:0.3077 8:26 9:5 12:1 14:1 17:26 18:1 20:4 21:7 22:4 25:4 26:7 27:4 29:2 31:7 32:1.4 33:5 34:1 38:1 42:5 43:1 45:1 46:2 50:0.1429 51:0.2857 54:1 60:1 70:1 
0.5 0.5 0.5 0 0 6:11 7:0.3333 8:33 9:7 12:1 15:1 16:1 17:11 18:3 19:1 20:4 21:12 22:3 24:0.1667 25:0.6667 26:2 27:0.5 29:1 31:11 32:0.5789 33:19 34:1 42:19 43:1 44:1 45:2 46:4 47:2 49:0.3333 50:0.6667 51:1.3333 52:0.6667 55:1 60:1 77:1 88:1 
0.5 0.5 0.5 0 0 6:9 7:0.1475 8:61 9:7 15:1 17:12.2 18:5 19:1 20:10 21:16 22:5 24:1 25:10 26:16 27:5 29:2 31:18 32:0.1579 33:114 34:12 39:2 40:5 42:19 43:6 44:1 45:22 46:27 47:5 49:0.3333 50:7.3333 51:9 52:1.6667 54:2 55:1 59:1 60:1 73:1 89:11 90:0.1803 91:0.0965 92:0.3028 93:3 94:0.0492 95:0.0263 96:0.0623 97:2 98:0.0328 99:0.0175 100:0.0377 
0.5 0.5 0.5 0 0 6:9 7:0.1475 8:61 9:7 15:1 17:12.2 18:5 19:1 20:10 21:16 22:5 24:1 25:10 26:16 27:5 29:2 31:9 32:0.5625 33:16 34:1 42:8 43:2 45:2 46:2 47:2 50:1 51:1 52:1 58:1 60:1 73:1 89:13 90:0.2131 91:0.8125 92:0.4679 93:12 94:0.1967 95:0.75 96:0.4068 97:11 98:0.1803 99:0.6875 100:0.3729 
0.5 0.5 0.5 0 0 6:9 7:0.1475 8:61 9:7 15:1 17:12.2 18:5 19:1 20:10 21:16 22:5 24:1 25:10 26:16 27:5 29:2 31:14 32:0.1414 33:99 34:1 39:3 42:99 43:1 45:18 46:27 47:6 50:2 51:3 52:0.6667 60:1 73:1 89:9 90:0.1475 91:0.0909 92:0.2968 93:1 94:0.0164 95:0.0101 96:0.0133 
0.5 0.5 0 0 0 6:9 7:0.1475 8:61 9:7 15:1 17:12.2 18:5 19:1 20:10 21:16 22:5 24:1 25:10 26:16 27:5 29:2 31:9 32:0.8182 33:11 40:1 42:11 43:1 45:2 46:4 47:1 50:2 51:4 52:1 60:1 73:1 89:1 90:0.0164 91:0.0909 92:0.0674 
0.5 0.5 0.5 0 0 6:9 7:0.1475 8:61 9:7 15:1 17:12.2 18:5 19:1 20:10 21:16 22:5 24:1 25:10 26:16 27:5 29:2 31:10 32:0.1639 33:61 34:2 35:1 40:1 42:15.25 43:4 44:2 45:11 46:9 47:5 49:0.6667 50:3.6667 51:3 52:1.6667 56:1 60:1 73:1 89:7 90:0.1148 91:0.1148 92:0.2091 93:1 94:0.0164 95:0.0164 96:0.0162 
0.5 0.5 0.5 0 0 6:5 7:1.6667 8:3 9:3 17:3 18:1 21:3 26:0.6 29:1 31:13 32:0.4062 33:32 34:8 42:16 43:2 45:3 46:15 50:3 51:15 54:6 55:1 56:1 60:1 74:1 
0.5 0.5 0.5 0 0 6:10 7:0.1266 8:79 9:12 14:1 15:1 17:26.3333 18:3 19:1 20:10 21:21 22:4 24:1 25:10 26:21 27:4 29:6 31:13 32:0.0575 33:226 34:25 39:3 40:2 42:75.3333 43:3 44:6 45:46 46:49 47:24 49:3 50:23 51:24.5 52:12 54:10 55:1 56:1 60:1 65:1 88:1 89:20 90:0.2532 91:0.0885 92:0.3303 93:3 94:0.038 95:0.0133 96:0.0223 97:1 98:0.0127 99:0.0044 100:0.0078 
0.5 0.5 0.5 0 0 6:12 7:0.375 8:32 9:1 13:1 14:1 17:32 18:1 20:7 21:10 22:1 25:7 26:10 27:1 29:1 31:9 32:0.2432 33:37 34:5 39:1 42:37 43:1 45:7 46:7 47:2 50:7 51:7 52:2 54:1 59:1 60:1 79:1 89:6 90:0.1875 91:0.1622 92:0.1898 
0.5 0.5 0 0 0 6:10 7:0.1136 8:88 9:11 10:1 12:1 14:1 15:12 17:5.1765 18:17 19:1 20:12 21:25 22:5 24:0.1667 25:2 26:4.1667 27:0.8333 29:5 31:7 32:0.5 33:14 34:1 41:1 42:7 43:2 45:1 46:4 47:2 50:0.1667 51:0.6667 52:0.3333 57:1 60:1 70:1 89:2 90:0.0227 91:0.1429 92:0.1534 
0.5 0.5 0 0 0 6:10 7:0.1136 8:88 9:11 10:1 12:1 14:1 15:12 17:5.1765 18:17 19:1 20:12 21:25 22:5 24:0.1667 25:2 26:4.1667 27:0.8333 29:5 31:7 32:0.5385 33:13 34:1 40:1 42:13 43:1 45:4 46:2 47:1 50:4 51:2 52:1 54:1 60:1 70:1 89:4 90:0.0455 91:0.3077 92:0.2001 
0.3727301069449234 0.5 0 0 0 6:10 7:0.1136 8:88 9:11 10:1 12:1 14:1 15:12 17:5.1765 18:17 19:1 20:12 21:25 22:5 24:0.1667 25:2 26:4.1667 27:0.8333 29:5 31:11 32:0.4231 33:26 34:2 38:1 42:13 43:2 45:8 46:6 47:2 50:2 51:1.5 52:0.5 54:1 60:1 70:1 89:1 90:0.0114 91:0.0385 92:0.0335 
0.5 0.5 0 0 0 6:10 7:0.1136 8:88 9:11 10:1 12:1 14:1 15:12 17:5.1765 18:17 19:1 20:12 21:25 22:5 24:0.1667 25:2 26:4.1667 27:0.8333 29:5 31:5 32:0.625 33:8 34:2 40:1 42:4 43:2 44:1 45:1 47:2 49:1 50:1 52:2 59:1 60:1 70:1 89:3 90:0.0341 91:0.375 92:0.2021 93:2 94:0.0227 95:0.25 96:0.0962 97:1 98:0.0114 99:0.125 100:0.0488 
0.5 0.5 0.5 0 0 6:10 7:0.1136 8:88 9:11 10:1 12:1 14:1 15:12 17:5.1765 18:17 19:1 20:12 21:25 22:5 24:0.1667 25:2 26:4.1667 27:0.8333 29:5 31:12 32:0.2264 33:53 34:3 35:1 42:26.5 43:2 45:9 46:13 47:3 50:3 51:4.3333 52:1 58:1 59:1 60:1 70:1 89:9 90:0.1023 91:0.1698 92:0.2579 93:2 94:0.0227 95:0.0377 96:0.0472 97:1 98:0.0114 99:0.0189 100:0.0163 
0.5 0.5 0.5 0 0 6:6 7:1 8:6 9:1 15:1 17:6 18:1 21:3 26:3 31:3 32:0.375 33:8 34:2 42:8 43:1 45:1 46:1 50:1 51:1 54:1 60:1 65:1 
0 0.5 0 0 0 6:14 7:0.7 8:20 9:6 15:1 17:20 18:1 20:2 21:8 25:2 26:8 29:2 31:12 32:0.2182 33:55 34:11 39:1 42:13.75 43:4 45:8 46:17 47:3 50:8 51:17 52:3 54:4 56:1 67:1 89:2 90:0.1 91:0.0364 92:0.0574 
0 0.5 0 0 0 1:2 2:4 6:11 7:0.1571 8:70 9:10 10:1 13:1 14:2 17:17.5 18:4 20:10 21:18 22:5 25:10 26:18 27:5 29:2 30:5 31:7 32:0.14 33:50 34:2 42:10 43:5 45:6 46:20 47:2 50:6 51:20 52:2 54:1 55:1 56:1 60:1 67:1 89:3 90:0.0429 91:0.06 92:0.0508 
0.5 0.5 0.5 0 0 6:11 7:0.1719 8:64 9:4 14:1 15:1 17:32 18:2 20:12 21:20 22:9 25:1.5 26:2.5 27:1.125 31:4 32:0.6667 33:6 42:6 43:1 45:1 46:1 47:2 50:0.3333 51:0.3333 52:0.6667 55:1 56:1 57:1 60:1 62:1 88:1 89:2 90:0.0312 91:0.3333 92:0.2712 
0.5 0.5 0.5 0 0 6:10 7:0.3571 8:28 9:11 12:1 17:9.3333 18:3 19:2 20:3 21:12 22:1 24:0.2857 25:0.4286 26:1.7143 27:0.1429 29:4 31:6 32:1.5 33:4 34:1 42:4 43:1 45:1 46:1 50:0.3333 51:0.3333 54:1 55:1 60:1 63:1 88:1 89:2 90:0.0714 91:0.5 92:0.2466 
0.5 0.5 0 0 0 6:10 7:0.3125 8:32 9:4 12:1 13:1 14:1 15:2 16:1 17:8 18:4 20:2 21:13 22:2 25:2 26:13 27:2 29:1 31:8 32:0.2286 33:35 34:2 40:1 42:17.5 43:2 44:1 45:9 46:4 47:7 49:1 50:9 51:4 52:7 59:1 60:1 67:1 89:3 90:0.0938 91:0.0857 92:0.105 
0 0.5 0.5 0 0 6:7 7:0.7 8:10 9:4 15:1 17:10 18:1 20:2 21:4 25:2 26:4 29:2 31:9 32:0.6 33:15 34:1 42:15 43:1 45:4 46:1 47:3 50:1.3333 51:0.3333 52:1 55:1 60:1 65:1 
0.5 0.5 0.5 0 0 6:7 7:0.7 8:10 9:4 15:1 17:10 18:1 20:2 21:4 25:2 26:4 29:2 31:10 32:0.303 33:33 34:6 42:16.5 43:2 45:6 46:9 47:2 50:6 51:9 52:2 54:3 59:1 60:1 65:1 
0.5 0.5 0.5 0 0 6:7 7:0.7 8:10 9:4 15:1 17:10 18:1 20:2 21:4 25:2 26:4 29:2 31:12 32:0.0513 33:234 34:12 39:9 40:1 42:19.5 43:12 44:5 45:46 46:40 47:26 49:5 50:46 51:40 52:26 57:1 60:1 65:1 89:1 90:0.1 91:0.0043 92:0.0334 
0.5 0.5 0.5 0 0 6:7 7:0.7 8:10 9:4 15:1 17:10 18:1 20:2 21:4 25:2 26:4 29:2 31:9 32:0.1875 33:48 34:8 35:1 40:1 41:2 42:16 43:3 44:1 45:12 46:8 47:4 49:1 50:12 51:8 52:4 54:2 58:1 60:1 65:1 89:1 90:0.1 91:0.0208 92:0.0875 
0 0.5 0 0 0 6:7 7:0.7 8:10 9:4 15:1 17:10 18:1 20:2 21:4 25:2 26:4 29:2 31:4 32:0.2353 33:17 41:14 42:1.2143 43:14 46:2 51:2 60:1 65:1 
0.5 0.5 0.5 0 0 6:7 7:0.7 8:10 9:4 15:1 17:10 18:1 20:2 21:4 25:2 26:4 29:2 31:7 32:0.4667 33:15 42:15 43:1 44:1 45:4 46:3 47:3 49:1 50:4 51:3 52:3 60:1 65:1 
0.5 0.5 0.5 0 0 6:7 7:0.7 8:10 9:4 15:1 17:10 18:1 20:2 21:4 25:2 26:4 29:2 31:7 32:1.4 33:5 34:2 42:5 43:1 45:1 46:2 50:0.2 51:0.4 60:1 65:1 
0.5 0.5 0.5 0 0 6:5 7:0.5 8:10 9:3 15:3 17:3.3333 18:3 20:3 21:2 25:3 26:2 29:1 31:5 32:0.2174 33:23 34:1 40:2 42:5.75 43:4 44:1 45:5 46:3 47:3 49:1 50:5 51:3 52:3 55:1 57:1 59:1 60:1 68:1 88:1 89:1 90:0.1 91:0.0435 92:0.0867 
0.5 0.5 0.5 0 0 6:10 7:0.4 8:25 9:4 12:1 15:1 17:12.5 18:2 20:5 21:8 22:2 25:5 26:8 27:2 31:9 32:0.4286 33:21 34:1 39:1 41:5 42:4.2 43:5 45:4 46:3 47:2 50:4 51:3 52:2 54:1 60:1 66:1 88:1 89:1 90:0.04 91:0.0476 92:0.0533 
0.5 0.5 0.5 0 0 6:10 7:0.4 8:25 9:4 12:1 15:1 17:12.5 18:2 20:5 21:8 22:2 25:5 26:8 27:2 31:8 32:0.4444 33:18 34:5 41:1 42:9 43:2 45:2 46:4 47:1 50:2 51:4 52:1 54:5 60:1 66:1 88:1 
0.5 0.5 0.5 0 0 6:10 7:0.4 8:25 9:4 12:1 15:1 17:12.5 18:2 20:5 21:8 22:2 25:5 26:8 27:2 31:8 32:0.5714 33:14 34:1 40:3 42:3.5 43:4 44:1 45:2 46:2 49:0.2 50:0.4 51:0.4 60:1 66:1 88:1 89:4 90:0.16 91:0.2857 92:0.3214 93:1 94:0.04 95:0.0714 96:0.0674 
0 0.5 0.5 0 0 6:7 7:0.4667 8:15 9:3 15:2 17:7.5 18:2 20:3 21:5 22:1 25:3 26:5 27:1 29:1 31:46 32:2.7059 33:17 34:5 42:17 43:1 44:1 45:1 46:3 49:1 50:1 51:3 54:3 55:1 56:1 60:1 67:1 89:1 90:0.0667 91:0.0588 92:0.138 
0.5 0.5 0.5 0 0 6:8 7:0.3636 8:22 9:4 12:1 13:1 14:1 17:7.3333 18:3 19:1 20:2 21:7 22:1 24:0.5 25:1 26:3.5 27:0.5 29:2 31:7 32:0.3889 33:18 34:1 39:1 42:18 43:1 45:4 46:3 47:2 50:4 51:3 52:2 55:1 60:1 68:1 88:1 89:1 90:0.0455 91:0.0556 92:0.0526 
0.5 0.5 0.5 0 0 6:12 7:0.2034 8:59 9:1 12:1 14:1 15:2 16:1 17:14.75 18:4 20:8 21:14 22:8 25:1.1429 26:2 27:1.1429 31:7 32:0.3182 33:22 39:1 42:22 43:1 45:3 46:5 47:4 50:0.6 51:1 52:0.8 58:1 60:1 62:1 88:1 89:7 90:0.1186 91:0.3182 92:0.3636 
0.5 0.5 0.5 0 0 6:12 7:0.2034 8:59 9:1 12:1 14:1 15:2 16:1 17:14.75 18:4 20:8 21:14 22:8 25:1.1429 26:2 27:1.1429 31:7 32:0.7778 33:9 35:1 42:9 43:1 45:2 46:1 47:2 50:2 51:1 52:2 60:1 62:1 88:1 89:1 90:0.0169 91:0.1111 92:0.2325 
0.5 0.5 0 0 0 6:10 7:0.4348 8:23 9:5 12:1 14:1 15:1 17:11.5 18:2 20:1 21:9 22:3 25:0.1667 26:1.5 27:0.5 29:1 31:10 32:0.2128 33:47 34:6 40:1 42:47 43:1 44:1 45:9 46:12 47:6 49:1 50:9 51:12 52:6 55:1 57:1 62:1 88:1 89:5 90:0.2174 91:0.1064 92:0.2291 93:1 94:0.0435 95:0.0213 96:0.0341 
0.5 0.5 0 0 0 6:10 7:0.4348 8:23 9:5 12:1 14:1 15:1 17:11.5 18:2 20:1 21:9 22:3 25:0.1667 26:1.5 27:0.5 29:1 31:10 32:0.2381 33:42 40:1 42:21 43:2 44:2 45:7 46:9 47:3 49:2 50:7 51:9 52:3 59:1 62:1 88:1 89:4 90:0.1739 91:0.0952 92:0.1787 
0.5 0.5 0 0 0 6:10 7:0.4348 8:23 9:5 12:1 14:1 15:1 17:11.5 18:2 20:1 21:9 22:3 25:0.1667 26:1.5 27:0.5 29:1 31:11 32:0.1667 33:66 34:4 38:1 42:22 43:3 45:14 46:16 47:7 50:4.6667 51:5.3333 52:2.3333 57:1 62:1 88:1 89:7 90:0.3043 91:0.1061 92:0.278 
0.5 0.5 0.5 0.5 0 6:6 7:0.8571 8:7 15:1 17:7 18:1 20:1 21:2 25:1 26:2 31:6 32:1.2 33:5 34:1 41:1 42:5 43:1 46:3 51:3 54:1 60:1 68:1 88:1 
0.5 0.5 0.5 0 0 6:6 7:0.8571 8:7 15:1 17:7 18:1 20:1 21:2 25:1 26:2 31:6 32:1.5 33:4 34:1 42:4 43:1 46:2 51:0.6667 54:1 60:1 68:1 88:1 
0.5 0.5 0.5 0 0 6:6 7:0.8571 8:7 15:1 17:7 18:1 20:1 21:2 25:1 26:2 31:7 32:0.3889 33:18 34:3 39:1 42:9 43:2 45:2 46:7 47:2 50:2 51:7 52:2 54:1 56:1 60:1 68:1 88:1 
0 0.5 0.5 0 0 6:8 7:0.7273 8:11 9:2 15:1 17:5.5 18:2 20:1 21:3 22:2 25:1 26:3 27:2 31:9 32:0.18 33:50 42:12.5 43:4 44:1 45:11 46:10 47:2 49:1 50:11 51:10 52:2 60:1 67:1 
0.5 0.5 0.5 0 0 6:11 7:0.3333 8:33 9:4 14:2 15:1 17:11 18:3 19:1 20:5 21:9 22:2 24:1 25:5 26:9 27:2 29:1 31:6 32:0.3529 33:17 42:17 43:1 45:3 46:4 47:1 50:3 51:4 52:1 60:1 73:1 89:1 90:0.0303 91:0.0588 92:0.0392 
0 0.5 0 0 0 6:7 7:0.5 8:14 9:2 15:1 17:7 18:2 19:1 20:4 21:1 22:1 24:1 25:4 26:1 27:1 31:3 32:1 33:3 34:2 41:1 42:3 43:1 46:2 51:2 54:1 60:1 67:1 
0.5 0.5 0 0 0 6:7 7:0.5 8:14 9:2 15:1 17:7 18:2 19:1 20:4 21:1 22:1 24:1 25:4 26:1 27:1 31:7 32:0.3182 33:22 34:4 42:22 43:1 44:1 45:5 46:4 47:3 49:1 50:5 51:4 52:3 60:1 67:1 
0.5 0.5 0.5 0 0 6:5 7:0.4545 8:11 12:1 14:1 15:1 17:5.5 18:2 20:1 21:4 22:1 25:0.3333 26:1.3333 27:0.3333 31:8 32:0.2963 33:27 34:5 40:3 42:9 43:3 45:6 46:8 47:2 50:6 51:8 52:2 54:1 55:1 60:1 64:1 88:1 89:1 90:0.0909 91:0.037 92:0.0645 
0.5 0.5 0.5 0 0 6:5 7:0.4545 8:11 12:1 14:1 15:1 17:5.5 18:2 20:1 21:4 22:1 25:0.3333 26:1.3333 27:0.3333 31:4 32:0.8 33:5 34:4 42:5 43:1 46:3 51:0.75 60:1 64:1 88:1 
0.5 0.5 0.5 0 0 6:9 7:0.1731 8:52 9:12 12:1 14:1 15:1 17:8.6667 18:6 19:1 20:8 21:14 22:4 24:0.1429 25:1.1429 26:2 27:0.5714 29:5 31:6 32:0.3158 33:19 42:19 43:1 45:5 46:3 47:1 50:5 51:3 52:1 60:1 68:1 88:1 89:4 90:0.0769 91:0.2105 92:0.1343 
0.5 0.5 0.1134523705037208 0 0 6:9 7:0.2727 8:33 9:7 12:1 15:2 17:11 18:3 20:4 21:12 25:4 26:12 29:4 31:6 32:0.5455 33:11 39:1 42:11 43:1 44:1 45:2 46:2 47:1 49:0.3333 50:0.6667 51:0.6667 52:0.3333 59:1 60:1 84:1 89:1 90:0.0303 91:0.0909 92:0.0471 
0.5 0 0.5 0 0 6:13 7:0.4194 8:31 9:6 15:3 17:10.3333 18:3 20:4 21:12 22:1 23:2 25:4 26:12 27:1 28:2 29:3 31:9 32:0.2143 33:42 39:2 42:42 43:1 44:1 45:9 46:5 47:4 49:0.3333 50:3 51:1.6667 52:1.3333 57:1 60:1 79:1 89:3 90:0.0968 91:0.0714 92:0.1352 93:1 94:0.0323 95:0.0238 96:0.0325 97:1 98:0.0323 99:0.0238 100:0.0333 
0.5 0.5 0 0 0 2:1 6:13 7:0.4194 8:31 9:6 15:3 17:10.3333 18:3 20:4 21:12 22:1 23:2 25:4 26:12 27:1 28:2 29:3 30:8 31:9 32:0.1184 33:76 34:11 39:1 41:2 42:19 43:4 45:7 46:39 47:5 50:7 51:39 52:5 54:1 56:1 60:1 79:1 89:3 90:0.0968 91:0.0395 92:0.0943 
0.5 0.5 0.5 0 0 6:11 7:0.1864 8:59 9:9 12:2 17:29.5 18:2 20:7 21:17 22:5 25:7 26:17 27:5 31:6 32:0.2143 33:28 34:4 39:1 41:1 42:14 43:2 45:4 46:6 47:2 50:4 51:6 52:2 55:1 56:1 60:1 67:1 89:6 90:0.1017 91:0.2143 92:0.2504 
0.5 0.5 0.5 0 0 6:8 7:0.1778 8:45 9:4 12:1 14:1 17:45 18:1 19:2 20:11 21:16 22:3 24:0.2857 25:1.5714 26:2.2857 27:0.4286 29:2 31:6 32:0.75 33:8 34:4 42:8 43:1 45:2 46:4 50:0.6667 51:1.3333 54:4 60:1 65:1 88:1 89:2 90:0.0444 91:0.25 92:0.2052 
0.5 0.5 0.5 0 0 6:11 7:0.3056 8:36 9:4 12:1 14:1 15:1 17:9 18:4 19:1 20:7 21:8 22:4 24:0.3333 25:2.3333 26:2.6667 27:1.3333 29:2 31:5 32:0.4167 33:12 34:2 39:1 41:3 42:4 43:3 45:1 46:4 47:1 50:1 51:4 52:1 54:1 60:1 68:1 88:1 89:1 90:0.0278 91:0.0833 92:0.0534 
0 0.5 0.5 0 0 6:11 7:0.1692 8:65 9:13 12:1 15:3 16:1 17:13 18:5 19:3 20:14 21:19 22:4 24:3 25:14 26:19 27:4 29:2 31:58 32:19.3333 33:3 42:3 43:1 46:2 51:0.0345 60:1 72:1 
0.5 0.5 0.5 0 0 6:13 7:0.3421 8:38 9:5 12:1 13:1 15:1 17:7.6 18:5 20:5 21:14 22:2 25:0.7143 26:2 27:0.2857 29:3 31:9 32:1.125 33:8 34:3 42:8 43:1 46:3 47:1 51:1 52:0.3333 54:1 60:1 76:1 89:1 90:0.0263 91:0.125 92:0.0606 
0.5 0.5 0 0 0 6:11 7:0.1746 8:63 9:10 12:1 15:2 17:7.875 18:8 19:1 20:11 21:16 22:1 24:0.25 25:2.75 26:4 27:0.25 29:5 31:6 32:0.6667 33:9 34:2 41:1 42:4.5 43:2 45:1 46:2 47:1 50:1 51:2 52:1 70:1 89:1 90:0.0159 91:0.1111 92:0.2291 
0.5 0.5 0.5 0 0 6:11 7:0.1325 8:83 9:6 14:1 15:2 17:9.2222 18:9 19:2 20:16 21:19 22:9 24:2 25:16 26:19 27:9 29:2 31:11 32:0.5789 33:19 34:2 35:1 42:19 43:1 45:2 46:8 47:3 50:0.3333 51:1.3333 52:0.5 54:1 55:1 60:1 62:1 88:1 89:4 90:0.0482 91:0.2105 92:0.1162 
0.5 0.5 0.5 0 0 6:10 7:0.2381 8:42 9:4 12:1 14:1 15:3 17:8.4 18:5 19:2 20:6 21:13 24:0.6667 25:2 26:4.3333 31:7 32:1.75 33:4 41:1 42:4 43:1 45:1 46:1 50:1 51:1 60:1 68:1 88:1 89:1 90:0.0238 91:0.25 92:0.1761 
0 0.5 0 0 0 6:9 7:0.2143 8:42 9:5 14:1 15:4 17:10.5 18:4 19:1 20:7 21:7 22:3 24:1 25:7 26:7 27:3 29:1 31:7 32:0.3684 33:19 34:3 42:19 43:1 45:2 46:4 47:1 50:1 51:2 52:0.5 54:2 60:1 67:1 89:2 90:0.0476 91:0.1053 92:0.0666 
0.5 0.5 0 0 0 6:9 7:0.8182 8:11 9:4 15:1 17:11 18:1 19:1 20:2 21:5 24:1 25:2 26:5 29:2 31:3 32:0.75 33:4 41:1 42:4 43:1 46:3 51:3 55:1 56:1 60:1 70:1 
0 0.5 0 0 0 6:11 7:0.4074 8:27 9:5 12:1 15:2 17:9 18:3 20:4 21:8 22:1 25:4 26:8 27:1 29:2 31:5 32:0.8333 33:6 42:6 43:1 46:2 51:0.6667 55:1 60:1 69:1 
0.5 0.5 0 0 0 6:11 7:0.4074 8:27 9:5 12:1 15:2 17:9 18:3 20:4 21:8 22:1 25:4 26:8 27:1 29:2 31:7 32:0.2917 33:24 35:1 41:2 42:12 43:2 45:2 46:7 47:1 50:2 51:7 52:1 60:1 69:1 89:1 90:0.037 91:0.0417 92:0.1188 
0.5 0.5 0.5 0 0 6:11 7:0.4074 8:27 9:5 12:1 15:2 17:9 18:3 20:4 21:8 22:1 25:4 26:8 27:1 29:2 31:11 32:2.75 33:4 42:4 43:1 46:3 51:1 59:1 60:1 69:1 
0.5 0.5 0.5 0 0 6:11 7:0.4074 8:27 9:5 12:1 15:2 17:9 18:3 20:4 21:8 22:1 25:4 26:8 27:1 29:2 31:7 32:1.4 33:5 41:2 42:1.6667 43:3 46:1 51:1 58:1 60:1 69:1 
0.5 0.5 0.5 0 0 6:11 7:0.4074 8:27 9:5 12:1 15:2 17:9 18:3 20:4 21:8 22:1 25:4 26:8 27:1 29:2 31:9 32:0.2903 33:31 34:5 42:15.5 43:2 45:4 46:11 50:1.3333 51:3.6667 54:4 60:1 69:1 89:2 90:0.0741 91:0.0645 92:0.0666 
0.5 0.5 0 0 0 6:11 7:0.4074 8:27 9:5 12:1 15:2 17:9 18:3 20:4 21:8 22:1 25:4 26:8 27:1 29:2 31:7 32:0.6364 33:11 35:1 42:11 43:1 45:1 46:3 50:1 51:3 60:1 69:1 
0.5 0.5 0 0 0 6:11 7:0.4074 8:27 9:5 12:1 15:2 17:9 18:3 20:4 21:8 22:1 25:4 26:8 27:1 29:2 31:5 32:0.8333 33:6 42:6 43:1 46:2 51:2 60:1 69:1 
0.5 0.5 0 0 0 6:11 7:0.4074 8:27 9:5 12:1 15:2 17:9 18:3 20:4 21:8 22:1 25:4 26:8 27:1 29:2 30:4 31:5 32:0.2 33:25 42:12.5 43:2 45:2 46:12 50:2 51:12 56:1 60:1 69:1 89:1 90:0.037 91:0.04 92:0.0418 
0.5 0.5 0 0 0 6:10 7:0.1389 8:72 9:7 12:1 14:3 17:72 18:1 20:12 21:19 22:5 25:4 26:6.3333 27:1.6667 29:2 31:11 32:0.4074 33:27 34:2 40:1 41:1 42:13.5 43:2 45:6 46:3 47:5 50:6 51:3 52:5 60:1 70:1 89:5 90:0.0694 91:0.1852 92:0.2303 
0.5 0.5 0 0 0 6:10 7:0.1389 8:72 9:7 12:1 14:3 17:72 18:1 20:12 21:19 22:5 25:4 26:6.3333 27:1.6667 29:2 31:5 32:0.3571 33:14 34:2 41:1 42:7 43:2 45:2 46:3 47:1 50:0.6667 51:1 52:0.3333 54:1 57:1 60:1 70:1 89:1 90:0.0139 91:0.0714 92:0.0287 
0 0.5 0.5 0 0 6:10 7:0.1389 8:72 9:7 12:1 14:3 17:72 18:1 20:12 21:19 22:5 25:4 26:6.3333 27:1.6667 29:2 31:10 32:0.5263 33:19 34:4 42:19 43:1 45:2 46:5 47:2 50:2 51:5 52:2 54:2 58:1 60:1 70:1 89:3 90:0.0417 91:0.1579 92:0.0995 93:1 94:0.0139 95:0.0526 96:0.0297 97:1 98:0.0139 99:0.0526 100:0.0301 
0.5 0.5 0.5 0 0 6:10 7:0.1389 8:72 9:7 12:1 14:3 17:72 18:1 20:12 21:19 22:5 25:4 26:6.3333 27:1.6667 29:2 31:7 32:0.5833 33:12 34:3 42:12 43:1 45:1 46:4 47:1 50:1 51:4 52:1 54:1 60:1 70:1 89:6 90:0.0833 91:0.5 92:0.27 93:1 94:0.0139 95:0.0833 96:0.0358 
0.5 0.5 0 0 0 1:1 2:1 6:9 7:0.5 8:18 9:6 14:1 15:1 17:9 18:2 19:1 20:3 21:9 22:1 24:0.3333 25:1 26:3 27:0.3333 29:2 30:1 31:6 32:0.5 33:12 34:2 42:12 43:1 45:2 46:6 47:1 50:2 51:6 52:1 60:1 67:1 89:1 90:0.0556 91:0.0833 92:0.0808 
0.5 0.5 0.5 0 0 6:10 7:0.3571 8:28 9:7 15:1 17:14 18:2 20:3 21:11 25:0.3 26:1.1 29:4 31:8 32:0.8889 33:9 34:2 35:1 41:1 42:9 43:1 45:1 46:2 50:1 51:2 55:1 60:1 70:1 89:2 90:0.0714 91:0.2222 92:0.1543 93:1 94:0.0357 95:0.1111 96:0.0772 
0.5 0.5 0 0 0 6:11 7:0.8462 8:13 9:1 15:1 17:13 18:1 20:3 21:4 25:3 26:4 31:5 32:1 33:5 42:5 43:1 45:1 47:1 50:0.3333 52:0.3333 55:1 60:1 73:1 
0.5 0.5 0.5 0 0 6:11 7:0.8462 8:13 9:1 15:1 17:13 18:1 20:3 21:4 25:3 26:4 31:9 32:4.5 33:2 42:2 43:1 46:2 51:0.2222 60:1 73:1 
0.5 0.5 0.5 0 0 6:11 7:0.8462 8:13 9:1 15:1 17:13 18:1 20:3 21:4 25:3 26:4 31:6 32:1.2 33:5 42:5 43:1 46:2 51:0.3333 59:1 60:1 73:1 
0.5 0.5 0.5 0 0 6:11 7:0.8462 8:13 9:1 15:1 17:13 18:1 20:3 21:4 25:3 26:4 31:13 32:0.8125 33:16 34:2 42:16 43:1 45:2 46:4 47:1 50:2 51:4 52:1 54:1 59:1 60:1 73:1 
0.5 0.5 0.5 0 0 6:11 7:0.8462 8:13 9:1 15:1 17:13 18:1 20:3 21:4 25:3 26:4 31:5 32:0.5 33:10 34:2 42:10 43:1 44:1 45:2 46:2 47:2 49:1 50:2 51:2 52:2 58:1 60:1 73:1 
0.5 0.5 0 0 0 6:11 7:0.8462 8:13 9:1 15:1 17:13 18:1 20:3 21:4 25:3 26:4 31:6 32:0.6 33:10 34:1 40:2 42:5 43:2 45:2 46:1 50:2 51:1 60:1 73:1 89:1 90:0.0769 91:0.1 92:0.114 
0.5 0.5 0.5 0 0 6:11 7:0.8462 8:13 9:1 15:1 17:13 18:1 20:3 21:4 25:3 26:4 31:6 32:0.5 33:12 34:1 39:1 42:12 43:1 44:1 45:3 46:2 47:2 49:1 50:3 51:2 52:2 60:1 73:1 
0.5 0.5 0.5 0 0 6:11 7:0.8462 8:13 9:1 15:1 17:13 18:1 20:3 21:4 25:3 26:4 31:10 32:0.7692 33:13 34:3 42:13 43:1 45:1 46:3 50:1 51:3 54:1 56:1 60:1 73:1 
0.5 0.5 0.5 0 0 6:11 7:0.2075 8:53 9:11 12:1 13:1 14:2 15:1 17:10.6 18:5 20:5 21:17 22:2 25:5 26:17 27:2 29:4 31:36 32:0.9474 33:38 39:1 40:1 42:19 43:2 45:2 46:13 47:1 50:0.2857 51:1.8571 52:0.1429 55:1 60:1 64:1 88:1 89:1 90:0.0189 91:0.0263 92:0.0306 
0.5 0.5 0 0 0 1:1 2:1 6:7 7:0.1458 8:48 9:7 15:2 17:9.6 18:5 19:2 20:9 21:12 22:2 24:2 25:9 26:12 27:2 29:2 30:1 31:6 32:0.2222 33:27 34:1 39:1 42:9 43:3 45:6 46:3 47:5 50:6 51:3 52:5 56:1 58:1 67:1 89:7 90:0.1458 91:0.2593 92:0.2806 
0.5 0.5 0.5 0 0 2:1 6:11 7:0.1341 8:82 9:12 14:1 15:1 17:16.4 18:5 19:2 20:16 21:16 22:5 24:0.5 25:4 26:4 27:1.25 29:3 31:11 32:0.141 33:78 34:2 35:2 39:1 42:13 43:6 44:1 45:8 46:19 47:1 49:1 50:8 51:19 52:1 59:1 60:1 69:1 89:18 90:0.2195 91:0.2308 92:0.3376 93:7 94:0.0854 95:0.0897 96:0.094 97:5 98:0.061 99:0.0641 100:0.0688 
0.5 0.5 0 0 0 6:11 7:0.1341 8:82 9:12 14:1 15:1 17:16.4 18:5 19:2 20:16 21:16 22:5 24:0.5 25:4 26:4 27:1.25 29:3 31:11 32:1.5714 33:7 34:2 42:7 43:1 45:2 47:1 50:0.1818 52:0.0909 60:1 69:1 89:3 90:0.0366 91:0.4286 92:0.0938 
0.5 0.5 0.5 0 0 6:11 7:0.1341 8:82 9:12 14:1 15:1 17:16.4 18:5 19:2 20:16 21:16 22:5 24:0.5 25:4 26:4 27:1.25 29:3 31:10 32:0.0459 33:218 34:9 40:1 42:31.1429 43:7 44:2 45:38 46:51 47:14 48:1 49:0.5 50:9.5 51:12.75 52:3.5 53:0.25 54:2 57:1 60:1 69:1 89:24 90:0.2927 91:0.1101 92:0.4894 93:5 94:0.061 95:0.0229 96:0.043 97:1 98:0.0122 99:0.0046 100:0.0077 
0.5 0.5 0.5 0 0 6:11 7:0.1341 8:82 9:12 14:1 15:1 17:16.4 18:5 19:2 20:16 21:16 22:5 24:0.5 25:4 26:4 27:1.25 29:3 31:7 32:0.2593 33:27 34:9 39:1 41:1 42:9 43:3 45:6 46:9 47:2 50:1 51:1.5 52:0.3333 54:4 58:1 60:1 69:1 89:4 90:0.0488 91:0.1481 92:0.1625 93:2 94:0.0244 95:0.0741 96:0.0476 97:2 98:0.0244 99:0.0741 100:0.0488 
0.5 0.5 0 0 0 6:11 7:0.1341 8:82 9:12 14:1 15:1 17:16.4 18:5 19:2 20:16 21:16 22:5 24:0.5 25:4 26:4 27:1.25 29:3 31:7 32:0.875 33:8 34:3 41:1 42:8 43:1 45:2 46:3 50:2 51:3 54:2 60:1 69:1 89:2 90:0.0244 91:0.25 92:0.0676 
0.5 0.5 0.3470181427759447 0 0 6:11 7:0.1341 8:82 9:12 14:1 15:1 17:16.4 18:5 19:2 20:16 21:16 22:5 24:0.5 25:4 26:4 27:1.25 29:3 31:9 32:0.1429 33:63 34:7 35:2 37:1 38:1 39:1 41:1 42:31.5 43:2 44:2 45:12 46:13 47:8 49:0.6667 50:4 51:4.3333 52:2.6667 54:3 60:1 69:1 89:17 90:0.2073 91:0.2698 92:0.2841 93:1 94:0.0122 95:0.0159 96:0.0139 97:1 98:0.0122 99:0.0159 100:0.0144 
0.5 0 0 0 0 6:11 7:0.1341 8:82 9:12 14:1 15:1 17:16.4 18:5 19:2 20:16 21:16 22:5 24:0.5 25:4 26:4 27:1.25 29:3 31:9 32:0.18 33:50 34:1 37:1 40:6 41:3 42:5.5556 43:9 45:9 46:8 47:3 50:9 51:8 52:3 59:1 60:1 69:1 89:7 90:0.0854 91:0.14 92:0.0834 
0.5 0 0 0 0 6:11 7:0.1341 8:82 9:12 14:1 15:1 17:16.4 18:5 19:2 20:16 21:16 22:5 24:0.5 25:4 26:4 27:1.25 29:3 31:4 32:1 33:4 34:1 42:4 43:1 46:1 51:1 54:1 57:1 60:1 69:1 
0.5 0.5 0.5 0 0 6:11 7:0.1341 8:82 9:12 14:1 15:1 17:16.4 18:5 19:2 20:16 21:16 22:5 24:0.5 25:4 26:4 27:1.25 29:3 31:14 32:0.094 33:149 34:27 35:1 37:1 38:1 42:16.5556 43:9 45:17 46:48 47:9 50:17 51:48 52:9 54:11 60:1 69:1 89:11 90:0.1341 91:0.0738 92:0.31 93:1 94:0.0122 95:0.0067 96:0.0081 97:1 98:0.0122 99:0.0067 100:0.0083 
0.5 0.5 0.5 0 0 6:11 7:0.1341 8:82 9:12 14:1 15:1 17:16.4 18:5 19:2 20:16 21:16 22:5 24:0.5 25:4 26:4 27:1.25 29:3 31:11 32:0.4231 33:26 34:2 42:26 43:1 44:1 45:4 46:4 49:1 50:4 51:4 54:2 60:1 69:1 89:9 90:0.1098 91:0.3462 92:0.389 
0.5 0.5 0.5 0 0 6:11 7:0.1341 8:82 9:12 14:1 15:1 17:16.4 18:5 19:2 20:16 21:16 22:5 24:0.5 25:4 26:4 27:1.25 29:3 31:9 32:0.2 33:45 34:6 35:1 42:7.5 43:6 45:7 46:5 47:3 50:7 51:5 52:3 54:1 60:1 69:1 89:9 90:0.1098 91:0.2 92:0.2692 93:1 94:0.0122 95:0.0222 96:0.0177 
0.5 0.5 0 0 0 6:11 7:0.1341 8:82 9:12 14:1 15:1 17:16.4 18:5 19:2 20:16 21:16 22:5 24:0.5 25:4 26:4 27:1.25 29:3 30:3 31:48 32:0.6857 33:70 34:6 41:6 42:10 43:7 45:4 46:27 47:4 50:4 51:27 52:4 54:3 60:1 69:1 89:8 90:0.0976 91:0.1143 92:0.1254 93:1 94:0.0122 95:0.0143 96:0.0146 
0.5 0.5 0 0 0 6:11 7:0.1341 8:82 9:12 14:1 15:1 17:16.4 18:5 19:2 20:16 21:16 22:5 24:0.5 25:4 26:4 27:1.25 29:3 31:9 32:3 33:3 34:2 41:1 42:3 43:1 46:2 51:2 54:2 60:1 69:1 
0.5 0.5 0 0 0 6:11 7:0.1341 8:82 9:12 14:1 15:1 17:16.4 18:5 19:2 20:16 21:16 22:5 24:0.5 25:4 26:4 27:1.25 29:3 31:9 32:3 33:3 34:1 40:1 42:3 43:1 46:2 51:2 60:1 69:1 89:1 90:0.0122 91:0.3333 92:0.117 
0.5 0.5 0.5 0 0 6:11 7:0.1341 8:82 9:12 14:1 15:1 17:16.4 18:5 19:2 20:16 21:16 22:5 24:0.5 25:4 26:4 27:1.25 29:3 31:7 32:0.5 33:14 34:1 40:1 42:7 43:2 44:1 45:1 46:2 47:1 49:1 50:1 51:2 52:1 60:1 69:1 89:5 90:0.061 91:0.3571 92:0.215 93:1 94:0.0122 95:0.0714 96:0.0315 
0.5 0.5 0 0 0 6:11 7:0.1341 8:82 9:12 14:1 15:1 17:16.4 18:5 19:2 20:16 21:16 22:5 24:0.5 25:4 26:4 27:1.25 29:3 31:5 32:1 33:5 34:1 42:5 43:1 45:1 46:1 47:1 50:1 51:1 52:1 60:1 69:1 89:2 90:0.0244 91:0.4 92:0.1655 93:1 94:0.0122 95:0.2 96:0.0546 97:1 98:0.0122 99:0.2 100:0.0559 
0.5 0.5 0.5 0 0 6:11 7:0.1803 8:61 9:11 15:1 17:12.2 18:5 19:1 20:12 21:15 22:7 24:1 25:12 26:15 27:7 29:3 31:6 32:0.2857 33:21 34:4 35:1 39:1 40:1 42:7 43:3 44:1 45:3 46:5 47:3 49:0.1667 50:0.5 51:0.8333 52:0.5 54:1 57:1 60:1 72:1 88:1 89:6 90:0.0984 91:0.2857 92:0.2982 93:2 94:0.0328 95:0.0952 96:0.086 97:1 98:0.0164 99:0.0476 100:0.0592 
0.5 0.5 0.5 0.1204221338522544 0 6:11 7:0.55 8:20 9:1 17:20 18:1 20:4 21:5 22:2 25:0.3636 26:0.4545 27:0.1818 29:1 31:9 32:0.6923 33:13 42:13 43:1 45:2 46:7 47:1 50:0.6667 51:2.3333 52:0.3333 55:1 60:1 70:1 88:1 89:1 90:0.05 91:0.0769 92:0.0605 
0.5 0.5 0.5 0 0 6:12 7:0.3158 8:38 9:5 14:1 15:3 17:12.6667 18:3 19:1 20:6 21:11 22:2 24:1 25:6 26:11 27:2 31:10 32:0.2632 33:38 34:4 42:19 43:2 45:4 46:8 47:2 50:2 51:4 52:1 59:1 60:1 73:1 89:3 90:0.0789 91:0.0789 92:0.0955 
0.431658261802942 0.5 0 0 0 6:10 7:0.1389 8:72 9:7 15:2 17:14.4 18:5 19:2 20:17 21:11 22:6 24:2 25:17 26:11 27:6 31:7 32:1 33:7 42:7 43:1 45:2 46:1 47:1 50:0.3333 51:0.1667 52:0.1667 60:1 67:1 89:1 90:0.0139 91:0.1429 92:0.1157 
0.5 0.5 0.5 0 0 6:10 7:0.1389 8:72 9:7 15:2 17:14.4 18:5 19:2 20:17 21:11 22:6 24:2 25:17 26:11 27:6 31:8 32:0.8 33:10 42:10 43:1 45:4 46:3 47:1 50:2 51:1.5 52:0.5 60:1 67:1 89:2 90:0.0278 91:0.2 92:0.0968 
0.5 0 0 0 0 6:10 7:0.1389 8:72 9:7 15:2 17:14.4 18:5 19:2 20:17 21:11 22:6 24:2 25:17 26:11 27:6 31:7 32:0.6364 33:11 34:3 40:1 42:5.5 43:2 45:2 46:2 47:2 50:2 51:2 52:2 54:1 57:1 60:1 67:1 89:1 90:0.0139 91:0.0909 92:0.0722 
0.5 0.5 0.5 0 0 6:10 7:0.1389 8:72 9:7 15:2 17:14.4 18:5 19:2 20:17 21:11 22:6 24:2 25:17 26:11 27:6 31:11 32:0.4231 33:26 34:3 42:26 43:1 45:6 46:4 47:2 50:2 51:1.3333 52:0.6667 58:1 60:1 67:1 89:7 90:0.0972 91:0.2692 92:0.27 
0.5 0.5 0.5 0 0 6:10 7:0.1389 8:72 9:7 15:2 17:14.4 18:5 19:2 20:17 21:11 22:6 24:2 25:17 26:11 27:6 31:8 32:0.6667 33:12 34:2 39:2 42:12 43:1 45:2 46:3 47:2 50:2 51:3 52:2 54:2 60:1 67:1 89:2 90:0.0278 91:0.1667 92:0.0884 
0.5 0.5 0.5 0 0 6:11 7:0.3793 8:29 9:7 12:1 14:1 16:3 17:9.6667 18:3 20:4 21:12 25:4 26:12 29:2 31:9 32:0.2903 33:31 34:8 42:31 43:1 44:1 45:6 46:8 48:1 49:1 50:6 51:8 53:1 54:5 60:1 62:1 88:1 89:1 90:0.0345 91:0.0323 92:0.0299 
0.5 0.5 0.5 0 0 6:11 7:0.3793 8:29 9:7 12:1 14:1 16:3 17:9.6667 18:3 20:4 21:12 25:4 26:12 29:2 31:5 32:0.7143 33:7 42:7 43:1 45:1 46:2 47:1 50:0.5 51:1 52:0.5 56:1 60:1 62:1 88:1 
0.5 0.5 0.5 0 0 6:9 7:0.6429 8:14 9:3 14:1 15:1 17:7 18:2 20:2 21:7 25:0.4 26:1.4 29:2 31:17 32:0.2429 33:70 34:8 39:2 42:35 43:2 45:12 46:18 47:7 50:12 51:18 52:7 54:5 56:1 60:1 64:1 88:1 89:4 90:0.2857 91:0.0571 92:0.1731 
0.5 0 0.3254745842447526 0 0 6:11 7:0.4074 8:27 9:5 12:1 14:1 15:1 16:2 17:9 18:3 20:1 21:9 22:2 25:1 26:9 27:2 29:2 31:9 32:0.45 33:20 34:1 40:10 42:2 43:10 44:1 45:2 46:2 47:2 49:1 50:2 51:2 52:2 55:1 60:1 68:1 89:1 90:0.037 91:0.05 92:0.0645 
0.5 0.5 0 0 0 6:11 7:0.2444 8:45 9:2 12:1 14:2 15:1 17:15 18:3 20:6 21:15 22:5 25:2 26:5 27:1.6667 29:1 31:9 32:0.15 33:60 34:2 39:2 42:30 43:2 44:1 45:12 46:10 47:6 49:0.25 50:3 51:2.5 52:1.5 54:1 55:1 59:1 62:1 89:10 90:0.2222 91:0.1667 92:0.2875 93:1 94:0.0222 95:0.0167 96:0.0203 97:1 98:0.0222 99:0.0167 100:0.0203 
0.5 0.5 0 0 0 6:9 7:0.1698 8:53 9:11 13:1 14:2 15:4 17:7.5714 18:7 19:2 20:9 21:7 22:2 24:2 25:9 26:7 27:2 29:2 31:8 32:0.8889 33:9 34:2 40:1 42:9 43:1 45:1 46:2 50:1 51:2 54:1 56:1 60:1 80:1 89:4 90:0.0755 91:0.4444 92:0.3347 93:1 94:0.0189 95:0.1111 96:0.1201 
0.5 0.5 0.5 0 0 6:12 7:0.3429 8:35 9:4 15:1 17:8.75 18:4 20:6 21:12 22:1 25:0.5 26:1 27:0.0833 29:3 31:8 32:0.381 33:21 34:2 42:21 43:1 44:1 45:4 46:8 49:0.3333 50:1.3333 51:2.6667 54:2 55:1 59:1 60:1 77:1 88:1 89:5 90:0.1429 91:0.2381 92:0.2229 93:1 94:0.0286 95:0.0476 96:0.0369 
0.5 0.5 0 0 0 6:5 7:0.5 8:10 15:1 17:10 18:1 19:1 20:1 21:2 22:1 24:1 25:1 26:2 27:1 30:2 31:6 32:0.3333 33:18 34:1 42:9 43:2 44:1 45:1 46:10 47:1 49:1 50:1 51:10 52:1 55:1 60:1 69:1 89:1 90:0.1 91:0.0556 92:0.1179 
0.5 0.5 0 0 0 6:5 7:0.5 8:10 15:1 17:10 18:1 19:1 20:1 21:2 22:1 24:1 25:1 26:2 27:1 31:6 32:0.4286 33:14 34:1 42:14 43:1 45:2 46:2 47:3 50:2 51:2 52:3 60:1 69:1 
0.5 0.5 0 0 0 6:5 7:0.5 8:10 15:1 17:10 18:1 19:1 20:1 21:2 22:1 24:1 25:1 26:2 27:1 30:2 31:9 32:0.4286 33:21 34:2 41:1 42:10.5 43:2 45:2 46:10 47:1 50:2 51:10 52:1 60:1 69:1 89:1 90:0.1 91:0.0476 92:0.1021 
0.5 0.5 0 0 0 6:5 7:0.5 8:10 15:1 17:10 18:1 19:1 20:1 21:2 22:1 24:1 25:1 26:2 27:1 31:7 32:1.75 33:4 42:4 43:1 46:2 47:1 51:0.2857 52:0.1429 60:1 69:1 
0.5 0 0 0 0.007282742227550513 6:10 7:1.4286 8:7 9:2 17:3.5 18:2 20:1 21:3 22:1 25:1 26:3 27:1 29:1 31:5 32:0.8333 33:6 34:1 40:1 42:6 43:1 44:1 45:2 49:1 50:2 55:1 56:1 57:1 60:1 80:1 
0.5 0.5 0.5 0 0 6:8 7:0.125 8:64 9:12 12:1 14:2 15:2 16:1 17:16 18:4 20:10 21:14 22:10 25:10 26:14 27:10 29:3 31:8 32:0.381 33:21 34:2 41:3 42:7 43:3 45:4 46:1 47:4 50:4 51:1 52:4 58:1 60:1 65:1 89:2 90:0.0312 91:0.0952 92:0.1091 
0.5 0.5 0.5 0.498094131044428 0 6:8 7:0.125 8:64 9:12 12:1 14:2 15:2 16:1 17:16 18:4 20:10 21:14 22:10 25:10 26:14 27:10 29:3 31:3 32:1.5 33:2 42:2 43:1 45:1 46:1 50:0.3333 51:0.3333 60:1 65:1 
0.5 0.5 0 0 0 6:8 7:0.125 8:64 9:12 12:1 14:2 15:2 16:1 17:16 18:4 20:10 21:14 22:10 25:10 26:14 27:10 29:3 31:8 32:0.32 33:25 34:3 35:1 41:3 42:8.3333 43:3 45:4 46:3 47:4 50:4 51:3 52:4 59:1 60:1 65:1 89:3 90:0.0469 91:0.12 92:0.1464 
0.5 0.5 0.5 0 0 6:8 7:0.125 8:64 9:12 12:1 14:2 15:2 16:1 17:16 18:4 20:10 21:14 22:10 25:10 26:14 27:10 29:3 31:8 32:0.4 33:20 34:4 41:3 42:6.6667 43:3 45:3 46:1 47:4 50:3 51:1 52:4 59:1 60:1 65:1 89:3 90:0.0469 91:0.15 92:0.1323 
0.5 0.5 0 0 0 6:8 7:0.125 8:64 9:12 12:1 14:2 15:2 16:1 17:16 18:4 20:10 21:14 22:10 25:10 26:14 27:10 29:3 31:8 32:0.2581 33:31 34:4 41:6 42:5.1667 43:6 44:1 45:5 46:2 47:4 49:1 50:5 51:2 52:4 60:1 65:1 89:2 90:0.0312 91:0.0645 92:0.093 
0.5 0.5 0.5 0 0 6:8 7:0.125 8:64 9:12 12:1 14:2 15:2 16:1 17:16 18:4 20:10 21:14 22:10 25:10 26:14 27:10 29:3 31:6 32:0.25 33:24 34:4 42:12 43:2 45:2 46:5 47:1 50:2 51:5 52:1 54:3 60:1 65:1 89:5 90:0.0781 91:0.2083 92:0.1712 
0.5 0.5 0.5 0 0 6:10 7:0.099 8:101 9:17 13:1 14:1 15:2 17:12.625 18:8 19:2 20:15 21:22 22:11 24:1 25:7.5 26:11 27:5.5 29:4 31:10 32:0.3448 33:29 34:9 39:1 42:9.6667 43:3 45:2 46:9 47:1 50:0.5 51:2.25 52:0.25 54:2 55:1 59:1 60:1 71:1 89:7 90:0.0693 91:0.2414 92:0.1341 93:1 94:0.0099 95:0.0345 96:0.0192 97:1 98:0.0099 99:0.0345 100:0.0196 
0.5 0.5 0.5 0 0 6:10 7:0.099 8:101 9:17 13:1 14:1 15:2 17:12.625 18:8 19:2 20:15 21:22 22:11 24:1 25:7.5 26:11 27:5.5 29:4 31:11 32:0.1 33:110 34:20 39:5 40:4 42:15.7143 43:7 44:2 45:23 46:25 47:11 49:2 50:23 51:25 52:11 54:8 58:1 60:1 71:1 89:17 90:0.1683 91:0.1545 92:0.4816 93:3 94:0.0297 95:0.0273 96:0.1315 97:1 98:0.0099 99:0.0091 100:0.1159 
0.5 0.5 0.5 0 0 2:1 6:10 7:0.099 8:101 9:17 13:1 14:1 15:2 17:12.625 18:8 19:2 20:15 21:22 22:11 24:1 25:7.5 26:11 27:5.5 29:4 31:13 32:0.3023 33:43 34:12 42:21.5 43:2 44:1 45:5 46:18 49:1 50:5 51:18 54:5 60:1 71:1 89:8 90:0.0792 91:0.186 92:0.212 
0.5 0.5 0.5 0 0 6:10 7:0.099 8:101 9:17 13:1 14:1 15:2 17:12.625 18:8 19:2 20:15 21:22 22:11 24:1 25:7.5 26:11 27:5.5 29:4 31:48 32:1.1163 33:43 34:2 42:21.5 43:2 45:4 46:18 47:1 50:0.0833 51:0.375 52:0.0208 60:1 71:1 89:2 90:0.0198 91:0.0465 92:0.0243 
0.5 0.5 0.5 0 0 2:1 6:10 7:0.099 8:101 9:17 13:1 14:1 15:2 17:12.625 18:8 19:2 20:15 21:22 22:11 24:1 25:7.5 26:11 27:5.5 29:4 31:13 32:0.3023 33:43 34:12 42:21.5 43:2 44:1 45:5 46:18 49:1 50:5 51:18 54:5 60:1 71:1 89:8 90:0.0792 91:0.186 92:0.212 
0.5 0.5 0.5 0 0 6:10 7:0.099 8:101 9:17 13:1 14:1 15:2 17:12.625 18:8 19:2 20:15 21:22 22:11 24:1 25:7.5 26:11 27:5.5 29:4 31:8 32:0.4211 33:19 34:4 42:19 43:1 45:4 46:4 47:3 50:0.6667 51:0.6667 52:0.5 54:1 60:1 71:1 89:4 90:0.0396 91:0.2105 92:0.0779 
0.5 0.5 0.5 0 0 2:1 6:10 7:0.099 8:101 9:17 13:1 14:1 15:2 17:12.625 18:8 19:2 20:15 21:22 22:11 24:1 25:7.5 26:11 27:5.5 29:4 31:13 32:0.3023 33:43 34:12 42:21.5 43:2 44:1 45:5 46:18 49:1 50:5 51:18 54:5 60:1 71:1 89:8 90:0.0792 91:0.186 92:0.212 
0.5 0.5 0.5 0 0 6:10 7:0.099 8:101 9:17 13:1 14:1 15:2 17:12.625 18:8 19:2 20:15 21:22 22:11 24:1 25:7.5 26:11 27:5.5 29:4 31:48 32:1.1163 33:43 34:2 42:21.5 43:2 45:4 46:18 47:1 50:0.0833 51:0.375 52:0.0208 60:1 71:1 89:2 90:0.0198 91:0.0465 92:0.0243 
0.5 0.5 0.5 0 0 2:1 6:10 7:0.099 8:101 9:17 13:1 14:1 15:2 17:12.625 18:8 19:2 20:15 21:22 22:11 24:1 25:7.5 26:11 27:5.5 29:4 31:13 32:0.3023 33:43 34:12 42:21.5 43:2 44:1 45:5 46:18 49:1 50:5 51:18 54:5 60:1 71:1 89:8 90:0.0792 91:0.186 92:0.212 
0.5 0.5 0.5 0 0 6:10 7:0.099 8:101 9:17 13:1 14:1 15:2 17:12.625 18:8 19:2 20:15 21:22 22:11 24:1 25:7.5 26:11 27:5.5 29:4 31:48 32:1.1163 33:43 34:2 42:21.5 43:2 45:4 46:18 47:1 50:0.0833 51:0.375 52:0.0208 60:1 71:1 89:2 90:0.0198 91:0.0465 92:0.0243 
0.5 0.5 0.5 0 0 2:1 6:10 7:0.099 8:101 9:17 13:1 14:1 15:2 17:12.625 18:8 19:2 20:15 21:22 22:11 24:1 25:7.5 26:11 27:5.5 29:4 31:13 32:0.3023 33:43 34:12 42:21.5 43:2 44:1 45:5 46:18 49:1 50:5 51:18 54:5 60:1 71:1 89:8 90:0.0792 91:0.186 92:0.212 
0.5 0.5 0.5 0 0 6:10 7:0.099 8:101 9:17 13:1 14:1 15:2 17:12.625 18:8 19:2 20:15 21:22 22:11 24:1 25:7.5 26:11 27:5.5 29:4 31:48 32:1.1163 33:43 34:2 42:21.5 43:2 45:4 46:18 47:1 50:0.0833 51:0.375 52:0.0208 60:1 71:1 89:2 90:0.0198 91:0.0465 92:0.0243 
0.5 0.5 0.5 0 0 2:1 6:10 7:0.099 8:101 9:17 13:1 14:1 15:2 17:12.625 18:8 19:2 20:15 21:22 22:11 24:1 25:7.5 26:11 27:5.5 29:4 31:13 32:0.3023 33:43 34:12 42:21.5 43:2 44:1 45:5 46:18 49:1 50:5 51:18 54:5 60:1 71:1 89:8 90:0.0792 91:0.186 92:0.212 
0.5 0.5 0.5 0 0 6:10 7:0.099 8:101 9:17 13:1 14:1 15:2 17:12.625 18:8 19:2 20:15 21:22 22:11 24:1 25:7.5 26:11 27:5.5 29:4 31:48 32:1.1163 33:43 34:2 42:21.5 43:2 45:4 46:18 47:1 50:0.0833 51:0.375 52:0.0208 60:1 71:1 89:2 90:0.0198 91:0.0465 92:0.0243 
0.5 0.5 0.5 0 0 2:1 6:10 7:0.099 8:101 9:17 13:1 14:1 15:2 17:12.625 18:8 19:2 20:15 21:22 22:11 24:1 25:7.5 26:11 27:5.5 29:4 31:13 32:0.3023 33:43 34:12 42:21.5 43:2 44:1 45:5 46:18 49:1 50:5 51:18 54:5 60:1 71:1 89:8 90:0.0792 91:0.186 92:0.212 
0.5 0.5 0.5 0 0 6:10 7:0.099 8:101 9:17 13:1 14:1 15:2 17:12.625 18:8 19:2 20:15 21:22 22:11 24:1 25:7.5 26:11 27:5.5 29:4 31:48 32:1.1163 33:43 34:2 42:21.5 43:2 45:4 46:18 47:1 50:0.0833 51:0.375 52:0.0208 56:1 60:1 71:1 89:2 90:0.0198 91:0.0465 92:0.0243 
0.5 0.5 0.5 0 0 6:10 7:0.1408 8:71 9:13 12:1 14:1 15:2 16:2 17:14.2 18:5 19:1 20:9 21:19 22:5 24:0.25 25:2.25 26:4.75 27:1.25 29:3 31:54 32:2 33:27 34:3 42:13.5 43:2 45:1 46:10 50:0.1667 51:1.6667 54:1 60:1 74:1 89:3 90:0.0423 91:0.1111 92:0.1085 93:1 94:0.0141 95:0.037 96:0.0255 97:1 98:0.0141 99:0.037 100:0.0264 
