svm_type c_svc
kernel_type linear
nr_class 3
total_sv 10754
rho -0.715582 -1.95985 -2.00099
label 1 0 2
nr_sv 4293 4803 1658
SV
0.5 0.5 6:7 7:0.7778 8:9 9:2 14:1 15:1 17:9 18:1 19:1 20:1 21:2 22:1 24:1 25:1 26:2 27:1 31:7 32:0.4667 33:15 34:5 42:15 43:1 45:3 46:3 47:3 50:0.6 51:0.6 52:0.6 54:2 55:1 59:1 60:1 61:1 88:1 89:1 90:0.1111 91:0.0667 92:0.0945 
0.5 0.006204629964566131 6:7 7:0.7778 8:9 9:2 14:1 15:1 17:9 18:1 19:1 20:1 21:2 22:1 24:1 25:1 26:2 27:1 31:11 32:0.1528 33:72 34:10 38:1 39:1 41:8 42:8 43:9 44:1 45:12 46:20 47:3 49:1 50:12 51:20 52:3 54:2 57:1 59:1 60:1 61:1 88:1 89:5 90:0.5556 91:0.0694 92:0.4685 93:2 94:0.2222 95:0.0278 96:0.0928 
0.5 0.3078645581021571 6:7 7:0.7778 8:9 9:2 14:1 15:1 17:9 18:1 19:1 20:1 21:2 22:1 24:1 25:1 26:2 27:1 31:10 32:0.2439 33:41 34:4 41:8 42:3.7273 43:11 45:5 46:11 47:7 50:5 51:11 52:7 54:1 60:1 61:1 88:1 89:2 90:0.2222 91:0.0488 92:0.1043 
0.5 0 6:7 7:0.7778 8:9 9:2 14:1 15:1 17:9 18:1 19:1 20:1 21:2 22:1 24:1 25:1 26:2 27:1 31:8 32:0.4 33:20 34:7 40:2 42:5 43:4 44:1 45:2 46:5 47:2 49:0.3333 50:0.6667 51:1.6667 52:0.6667 54:3 56:1 60:1 61:1 88:1 
0.5 0.5 6:10 7:0.4167 8:24 9:1 12:1 17:8 18:3 19:2 20:3 21:8 24:0.6667 25:1 26:2.6667 31:7 32:0.4667 33:15 42:7.5 43:2 45:3 46:3 47:1 50:3 51:3 52:1 55:1 56:1 60:1 62:1 89:3 90:0.125 91:0.2 92:0.1427 
0.5 0 6:18 7:0.2368 8:76 9:6 14:6 15:4 17:15.2 18:5 19:3 20:10 21:16 22:10 24:0.4286 25:1.4286 26:2.2857 27:1.4286 29:1 31:10 32:0.2632 33:38 34:4 39:1 40:1 42:19 43:2 45:10 46:6 47:8 50:2 51:1.2 52:1.6 54:2 57:1 60:1 64:1 89:15 90:0.1974 91:0.3947 92:0.5563 93:7 94:0.0921 95:0.1842 96:0.1684 97:3 98:0.0395 99:0.0789 100:0.0551 
0.5 0.5 6:11 7:0.1719 8:64 9:4 14:2 15:1 17:16 18:4 19:1 20:9 21:12 22:7 24:1 25:9 26:12 27:7 31:9 32:0.1047 33:86 34:9 39:4 42:17.2 43:5 44:1 45:19 46:8 47:12 49:1 50:19 51:8 52:12 54:1 56:1 60:1 67:1 89:12 90:0.1875 91:0.1395 92:0.202 93:2 94:0.0312 95:0.0233 96:0.0396 97:1 98:0.0156 99:0.0116 100:0.0287 
0.5 0 6:7 7:0.3889 8:18 9:1 17:9 18:2 20:2 21:6 25:1 26:3 29:1 31:13 32:0.0963 33:135 34:3 39:1 42:67.5 43:2 45:28 46:32 47:6 50:4.6667 51:5.3333 52:1 54:3 68:1 88:1 89:3 90:0.1667 91:0.0222 92:0.1478 
0.5 0 6:7 7:0.3889 8:18 9:1 17:9 18:2 20:2 21:6 25:1 26:3 29:1 31:19 32:0.2676 33:71 34:3 41:1 42:35.5 43:2 44:1 45:16 46:17 47:3 49:0.3333 50:5.3333 51:5.6667 52:1 54:2 56:1 68:1 88:1 89:5 90:0.2778 91:0.0704 92:0.1619 93:2 94:0.1111 95:0.0282 96:0.0538 
0.5 0.5 6:8 7:0.7273 8:11 15:1 17:5.5 18:2 20:2 21:4 25:2 26:4 31:7 32:0.875 33:8 34:2 42:8 43:1 46:3 51:1 54:2 60:1 67:1 
0.5 0.02520829376816086 6:8 7:0.7273 8:11 15:1 17:5.5 18:2 20:2 21:4 25:2 26:4 31:32 32:0.8205 33:39 40:1 42:19.5 43:2 46:20 51:2.5 56:1 60:1 67:1 
0.5 0 1:1 2:2 6:9 7:0.5625 8:16 9:2 15:1 17:16 18:1 20:4 21:4 22:2 25:4 26:4 27:2 29:1 30:10 31:7 32:0.1373 33:51 34:1 42:51 43:1 45:3 46:31 50:0.4286 51:4.4286 55:1 56:1 60:1 69:1 
0.5 0.5 6:10 7:0.1887 8:53 9:2 12:1 14:1 15:1 16:1 17:26.5 18:2 19:4 20:12 21:12 22:6 24:4 25:12 26:12 27:6 31:7 32:0.7778 33:9 42:9 43:1 45:2 46:3 50:0.6667 51:1 60:1 65:1 88:1 
0.5 0.5 6:10 7:0.1887 8:53 9:2 12:1 14:1 15:1 16:1 17:26.5 18:2 19:4 20:12 21:12 22:6 24:4 25:12 26:12 27:6 31:9 32:0.1169 33:77 34:1 39:1 42:77 43:1 44:2 45:16 46:12 47:10 49:1 50:8 51:6 52:5 60:1 65:1 88:1 89:8 90:0.1509 91:0.1039 92:0.4644 93:2 94:0.0377 95:0.026 96:0.0441 
0.5 0.5 2:1 6:10 7:0.1887 8:53 9:2 12:1 14:1 15:1 16:1 17:26.5 18:2 19:4 20:12 21:12 22:6 24:4 25:12 26:12 27:6 30:2 31:8 32:0.3077 33:26 34:3 42:26 43:1 45:1 46:11 47:1 50:1 51:11 52:1 56:1 60:1 65:1 88:1 89:3 90:0.0566 91:0.1154 92:0.1001 93:1 94:0.0189 95:0.0385 96:0.0318 97:1 98:0.0189 99:0.0385 100:0.0331 
0.5 0.5 6:7 7:0.175 8:40 12:1 14:3 15:1 17:13.3333 18:3 19:3 20:7 21:9 22:3 24:0.5 25:1.1667 26:1.5 27:0.5 30:6 31:71 32:1.0758 33:66 34:15 39:1 42:66 43:1 44:1 45:7 46:38 47:1 49:1 50:7 51:38 52:1 54:4 60:1 67:1 89:3 90:0.075 91:0.0455 92:0.0696 
0.5 0.5 6:7 7:0.175 8:40 12:1 14:3 15:1 17:13.3333 18:3 19:3 20:7 21:9 22:3 24:0.5 25:1.1667 26:1.5 27:0.5 31:4 32:0.8 33:5 42:5 43:1 45:1 50:1 60:1 67:1 89:2 90:0.05 91:0.4 92:0.2121 
0.5 0 6:7 7:0.175 8:40 12:1 14:3 15:1 17:13.3333 18:3 19:3 20:7 21:9 22:3 24:0.5 25:1.1667 26:1.5 27:0.5 31:12 32:0.2143 33:56 34:3 39:1 42:18.6667 43:3 45:8 46:7 47:3 50:8 51:7 52:3 60:1 67:1 89:4 90:0.1 91:0.0714 92:0.1794 93:2 94:0.05 95:0.0357 96:0.0422 97:2 98:0.05 99:0.0357 100:0.0458 
0.5 0 6:7 7:0.175 8:40 12:1 14:3 15:1 17:13.3333 18:3 19:3 20:7 21:9 22:3 24:0.5 25:1.1667 26:1.5 27:0.5 31:8 32:0.2162 33:37 34:1 41:3 42:9.25 43:4 44:1 45:9 46:6 47:1 49:1 50:9 51:6 52:1 60:1 67:1 89:8 90:0.2 91:0.2162 92:0.3976 93:2 94:0.05 95:0.0541 96:0.0847 
0.5 0.3026604541094203 6:7 7:0.175 8:40 12:1 14:3 15:1 17:13.3333 18:3 19:3 20:7 21:9 22:3 24:0.5 25:1.1667 26:1.5 27:0.5 31:23 32:0.7419 33:31 34:9 40:2 42:7.75 43:4 45:3 46:12 47:2 50:0.2308 51:0.9231 52:0.1538 54:1 56:1 60:1 67:1 89:5 90:0.125 91:0.1613 92:0.1905 
0.5 0.5 6:9 7:0.2727 8:33 9:10 10:1 11:1 13:1 14:1 15:1 17:11 18:3 20:1 21:9 22:1 25:1 26:9 27:1 29:3 30:2 31:13 32:0.13 33:100 34:19 39:2 42:9.0909 43:11 45:11 46:27 47:4 50:11 51:27 52:4 54:6 55:1 60:1 71:1 89:6 90:0.1818 91:0.06 92:0.2118 
0.5 0 6:9 7:0.2727 8:33 9:10 10:1 11:1 13:1 14:1 15:1 17:11 18:3 20:1 21:9 22:1 25:1 26:9 27:1 29:3 31:8 32:1 33:8 34:3 42:8 43:1 45:1 47:1 50:1 52:1 60:1 71:1 
0.5 0.269685121854463 6:9 7:0.2727 8:33 9:10 10:1 11:1 13:1 14:1 15:1 17:11 18:3 20:1 21:9 22:1 25:1 26:9 27:1 29:3 31:6 32:0.6 33:10 39:1 41:1 42:10 43:1 45:1 46:1 50:1 51:1 58:1 59:1 60:1 71:1 
0.5 0 6:9 7:0.2727 8:33 9:10 10:1 11:1 13:1 14:1 15:1 17:11 18:3 20:1 21:9 22:1 25:1 26:9 27:1 29:3 31:8 32:0.1778 33:45 34:7 39:2 40:1 41:1 42:11.25 43:4 44:3 45:13 46:6 47:5 49:3 50:13 51:6 52:5 54:2 60:1 71:1 89:5 90:0.1515 91:0.1111 92:0.1935 93:3 94:0.0909 95:0.0667 96:0.1132 97:2 98:0.0606 99:0.0444 100:0.0585 
0.5 0.5 6:9 7:0.2727 8:33 9:10 10:1 11:1 13:1 14:1 15:1 17:11 18:3 20:1 21:9 22:1 25:1 26:9 27:1 29:3 31:13 32:0.134 33:97 34:15 39:1 40:1 41:1 42:12.125 43:8 44:1 45:15 46:29 47:7 49:1 50:15 51:29 52:7 54:5 56:1 60:1 71:1 89:9 90:0.2727 91:0.0928 92:0.3685 93:1 94:0.0303 95:0.0103 96:0.0375 
0.5 0.5 6:13 7:0.4643 8:28 9:1 12:1 14:3 15:1 16:2 17:9.3333 18:3 19:1 20:6 21:9 22:4 24:1 25:6 26:9 27:4 31:7 32:0.2059 33:34 34:6 40:1 42:8.5 43:4 45:6 46:12 47:2 50:6 51:12 52:2 54:3 55:1 60:1 71:1 89:2 90:0.0714 91:0.0588 92:0.0658 
0.5 0.5 1:2 2:2 6:13 7:0.4643 8:28 9:1 12:1 14:3 15:1 16:2 17:9.3333 18:3 19:1 20:6 21:9 22:4 24:1 25:6 26:9 27:4 30:3 31:17 32:0.2125 33:80 34:2 42:80 43:1 44:2 45:8 46:27 47:2 49:0.25 50:1 51:3.375 52:0.25 60:1 71:1 89:4 90:0.1429 91:0.05 92:0.0791 
0.5 0.1294368138012888 6:13 7:0.4643 8:28 9:1 12:1 14:3 15:1 16:2 17:9.3333 18:3 19:1 20:6 21:9 22:4 24:1 25:6 26:9 27:4 31:7 32:0.1591 33:44 34:5 41:1 42:11 43:4 45:9 46:7 47:6 50:3 51:2.3333 52:2 54:1 60:1 71:1 89:4 90:0.1429 91:0.0909 92:0.2216 
0.5 0.5 1:2 2:2 6:13 7:0.4643 8:28 9:1 12:1 14:3 15:1 16:2 17:9.3333 18:3 19:1 20:6 21:9 22:4 24:1 25:6 26:9 27:4 30:3 31:12 32:0.1224 33:98 34:18 39:1 42:32.6667 43:3 45:9 46:46 47:1 50:1.125 51:5.75 52:0.125 54:8 60:1 71:1 89:1 90:0.0357 91:0.0102 92:0.0421 
0.5 0.5 6:13 7:0.4643 8:28 9:1 12:1 14:3 15:1 16:2 17:9.3333 18:3 19:1 20:6 21:9 22:4 24:1 25:6 26:9 27:4 31:9 32:0.3103 33:29 39:1 40:3 42:5.8 43:5 44:1 45:4 46:6 47:2 49:1 50:4 51:6 52:2 60:1 71:1 89:6 90:0.2143 91:0.2069 92:0.3385 93:2 94:0.0714 95:0.069 96:0.1179 
0.5 0.3676314241504887 6:13 7:0.4643 8:28 9:1 12:1 14:3 15:1 16:2 17:9.3333 18:3 19:1 20:6 21:9 22:4 24:1 25:6 26:9 27:4 31:7 32:0.5833 33:12 34:2 41:2 42:6 43:2 46:8 51:8 54:1 59:1 60:1 71:1 
0.5 0 1:2 2:4 6:13 7:0.4643 8:28 9:1 12:1 14:3 15:1 16:2 17:9.3333 18:3 19:1 20:6 21:9 22:4 24:1 25:6 26:9 27:4 30:7 31:14 32:0.2979 33:47 42:23.5 43:2 45:3 46:30 50:3 51:30 59:1 60:1 71:1 
0 0.5 6:13 7:0.4643 8:28 9:1 12:1 14:3 15:1 16:2 17:9.3333 18:3 19:1 20:6 21:9 22:4 24:1 25:6 26:9 27:4 31:11 32:0.0611 33:180 34:11 37:2 39:3 40:1 41:4 42:9.4737 43:19 44:2 45:35 46:36 47:19 49:0.6667 50:11.6667 51:12 52:6.3333 54:2 57:1 60:1 71:1 89:9 90:0.3214 91:0.05 92:0.2858 93:3 94:0.1071 95:0.0167 96:0.1021 97:1 98:0.0357 99:0.0056 100:0.031 
0.5 0.5 6:8 7:0.7273 8:11 9:1 15:1 17:11 18:1 19:1 20:1 21:5 24:1 25:1 26:5 31:8 32:1.1429 33:7 34:2 42:7 43:1 44:1 45:1 46:2 49:0.3333 50:0.3333 51:0.6667 54:1 59:1 60:1 72:1 88:1 
0.5 0.1582291076637456 6:8 7:0.7273 8:11 9:1 15:1 17:11 18:1 19:1 20:1 21:5 24:1 25:1 26:5 31:8 32:0.3478 33:23 42:11.5 43:2 45:4 46:8 47:2 50:0.5714 51:1.1429 52:0.2857 57:1 60:1 72:1 88:1 89:5 90:0.4545 91:0.2174 92:0.3297 93:3 94:0.2727 95:0.1304 96:0.1978 97:1 98:0.0909 99:0.0435 100:0.0659 
0.5 0.5 6:12 7:0.6 8:20 9:2 14:1 17:10 18:2 20:3 21:5 22:1 25:0.4286 26:0.7143 27:0.1429 29:1 31:6 32:0.8571 33:7 42:7 43:1 45:1 46:1 47:1 50:1 51:1 52:1 58:1 60:1 67:1 89:1 90:0.05 91:0.1429 92:0.1026 
0.5 0.5 6:12 7:0.6 8:20 9:2 14:1 17:10 18:2 20:3 21:5 22:1 25:0.4286 26:0.7143 27:0.1429 29:1 31:10 32:0.3448 33:29 34:5 35:1 39:1 42:14.5 43:2 45:3 46:8 47:2 50:3 51:8 52:2 54:1 60:1 67:1 89:4 90:0.2 91:0.1379 92:0.2094 
0.5 0 6:11 7:0.3793 8:29 9:3 15:3 17:7.25 18:4 20:4 21:5 25:4 26:5 31:11 32:3.6667 33:3 42:3 43:1 46:1 51:0.0909 60:1 69:1 89:1 90:0.0345 91:0.3333 92:0.1091 
0.5 0.5 6:11 7:0.3793 8:29 9:3 15:3 17:7.25 18:4 20:4 21:5 25:4 26:5 31:5 32:1.25 33:4 42:4 43:1 45:1 46:1 50:0.5 51:0.5 60:1 69:1 
0.5 0.08809765612942239 6:11 7:0.3793 8:29 9:3 15:3 17:7.25 18:4 20:4 21:5 25:4 26:5 31:6 32:0.75 33:8 34:1 42:8 43:1 45:1 46:2 47:1 50:1 51:2 52:1 60:1 69:1 89:1 90:0.0345 91:0.125 92:0.1429 
0.5 0 6:11 7:0.3793 8:29 9:3 15:3 17:7.25 18:4 20:4 21:5 25:4 26:5 31:12 32:0.3333 33:36 34:6 40:1 42:12 43:3 44:2 45:4 46:10 47:1 49:2 50:4 51:10 52:1 54:4 60:1 69:1 89:2 90:0.069 91:0.0556 92:0.0987 
0.5 0 6:11 7:0.3793 8:29 9:3 15:3 17:7.25 18:4 20:4 21:5 25:4 26:5 31:10 32:2.5 33:4 34:1 36:1 42:4 43:1 45:1 46:1 47:1 50:0.1 51:0.1 52:0.1 56:1 60:1 69:1 89:1 90:0.0345 91:0.25 92:0.0945 
0.5 0.5 6:10 7:0.1111 8:90 9:10 14:2 15:3 17:15 18:6 19:4 20:18 21:16 22:12 23:1 24:4 25:18 26:16 27:12 28:1 31:11 32:0.193 33:57 34:10 39:1 42:19 43:3 45:12 46:13 47:5 50:3 51:3.25 52:1.25 54:2 60:1 65:1 88:1 89:11 90:0.1222 91:0.193 92:0.3376 93:2 94:0.0222 95:0.0351 96:0.069 97:1 98:0.0111 99:0.0175 100:0.0582 
0.5 0.5 6:10 7:0.1111 8:90 9:10 14:2 15:3 17:15 18:6 19:4 20:18 21:16 22:12 23:1 24:4 25:18 26:16 27:12 28:1 31:12 32:0.5 33:24 34:7 35:1 39:1 42:8 43:3 45:4 46:7 47:1 50:0.5714 51:1 52:0.1429 54:3 56:1 60:1 65:1 88:1 89:5 90:0.0556 91:0.2083 92:0.2073 93:1 94:0.0111 95:0.0417 96:0.0222 97:1 98:0.0111 99:0.0417 100:0.023 
0.5 0.5 6:11 7:0.22 8:50 9:5 10:2 13:1 14:1 17:25 18:2 19:1 20:10 21:9 22:3 24:0.3333 25:3.3333 26:3 27:1 29:3 31:14 32:0.7368 33:19 34:1 42:19 43:1 45:3 46:3 47:1 50:3 51:3 52:1 55:1 60:1 65:1 89:4 90:0.08 91:0.2105 92:0.5246 93:2 94:0.04 95:0.1053 96:0.1326 
0.5 0 1:1 2:1 6:11 7:0.22 8:50 9:5 10:2 13:1 14:1 17:25 18:2 19:1 20:10 21:9 22:3 24:0.3333 25:3.3333 26:3 27:1 29:3 30:5 31:9 32:0.1139 33:79 34:6 41:3 42:15.8 43:5 44:1 45:9 46:36 47:5 49:0.3333 50:3 51:12 52:1.6667 54:3 60:1 65:1 89:6 90:0.12 91:0.0759 92:0.2299 
0.5 0 1:1 2:2 6:11 7:0.22 8:50 9:5 10:2 13:1 14:1 17:25 18:2 19:1 20:10 21:9 22:3 24:0.3333 25:3.3333 26:3 27:1 29:3 30:3 31:13 32:0.3333 33:39 34:5 40:1 42:19.5 43:2 45:4 46:19 47:1 50:4 51:19 52:1 54:4 60:1 65:1 89:2 90:0.04 91:0.0513 92:0.0855 
0.5 0 6:11 7:0.22 8:50 9:5 10:2 13:1 14:1 17:25 18:2 19:1 20:10 21:9 22:3 24:0.3333 25:3.3333 26:3 27:1 29:3 31:5 32:0.2273 33:22 34:2 39:2 42:22 43:1 45:6 46:2 47:4 50:1.2 51:0.4 52:0.8 60:1 65:1 89:1 90:0.02 91:0.0455 92:0.0195 
0.06376939805454872 0 1:1 2:1 6:11 7:0.22 8:50 9:5 10:2 13:1 14:1 17:25 18:2 19:1 20:10 21:9 22:3 24:0.3333 25:3.3333 26:3 27:1 29:3 30:5 31:10 32:0.1064 33:94 34:6 41:2 42:31.3333 43:3 44:4 45:17 46:37 47:7 49:1.3333 50:5.6667 51:12.3333 52:2.3333 54:1 60:1 65:1 89:8 90:0.16 91:0.0851 92:0.2094 
0.5 0 1:1 2:2 6:11 7:0.22 8:50 9:5 10:2 13:1 14:1 17:25 18:2 19:1 20:10 21:9 22:3 24:0.3333 25:3.3333 26:3 27:1 29:3 30:6 31:7 32:0.14 33:50 34:2 41:1 42:8.3333 43:6 45:4 46:21 47:2 50:4 51:21 52:2 60:1 65:1 89:4 90:0.08 91:0.08 92:0.0811 
0.5 0 1:1 2:2 6:11 7:0.22 8:50 9:5 10:2 13:1 14:1 17:25 18:2 19:1 20:10 21:9 22:3 24:0.3333 25:3.3333 26:3 27:1 29:3 30:6 31:8 32:0.1404 33:57 34:3 41:2 42:8.1429 43:7 45:5 46:24 47:2 50:5 51:24 52:2 54:1 60:1 65:1 89:5 90:0.1 91:0.0877 92:0.1001 
0.5 0 6:11 7:0.22 8:50 9:5 10:2 13:1 14:1 17:25 18:2 19:1 20:10 21:9 22:3 24:0.3333 25:3.3333 26:3 27:1 29:3 31:7 32:0.2917 33:24 34:2 38:1 39:1 41:2 42:8 43:3 44:1 45:3 46:5 47:2 49:1 50:3 51:5 52:2 58:1 60:1 65:1 89:4 90:0.08 91:0.1667 92:0.1901 
0.5 0 6:11 7:0.22 8:50 9:5 10:2 13:1 14:1 17:25 18:2 19:1 20:10 21:9 22:3 24:0.3333 25:3.3333 26:3 27:1 29:3 31:7 32:0.28 33:25 34:2 39:1 41:2 42:12.5 43:2 44:1 45:4 46:2 47:3 49:1 50:4 51:2 52:3 60:1 65:1 89:4 90:0.08 91:0.16 92:0.1569 
0.5 0 1:1 2:2 6:11 7:0.22 8:50 9:5 10:2 13:1 14:1 17:25 18:2 19:1 20:10 21:9 22:3 24:0.3333 25:3.3333 26:3 27:1 29:3 30:6 31:7 32:0.1077 33:65 34:1 40:1 41:1 42:9.2857 43:7 45:5 46:24 47:3 50:5 51:24 52:3 59:1 60:1 65:1 89:5 90:0.1 91:0.0769 92:0.188 
0.5 0.006019711678559862 6:11 7:0.22 8:50 9:5 10:2 13:1 14:1 17:25 18:2 19:1 20:10 21:9 22:3 24:0.3333 25:3.3333 26:3 27:1 29:3 31:11 32:3.6667 33:3 42:3 43:1 46:1 51:1 56:1 58:1 60:1 65:1 89:1 90:0.02 91:0.3333 92:0.0806 
0.5 0 6:9 7:0.2045 8:44 9:5 12:1 17:14.6667 18:3 20:7 21:10 22:3 25:7 26:10 27:3 29:2 31:7 32:0.3182 33:22 34:10 42:22 43:1 45:4 46:6 47:2 50:2 51:3 52:1 60:1 67:1 89:1 90:0.0227 91:0.0455 92:0.0295 
0.5 0 6:9 7:0.6923 8:13 9:4 15:1 17:13 18:1 19:1 20:3 21:4 24:1 25:3 26:4 29:2 31:6 32:0.8571 33:7 34:1 41:3 42:2.3333 43:3 45:2 46:1 50:2 51:1 54:1 60:1 73:1 
0.5 0.5 6:8 7:0.2162 8:37 9:7 12:1 14:2 17:12.3333 18:3 19:1 20:6 21:8 22:4 24:1 25:6 26:8 27:4 29:1 31:10 32:1 33:10 34:3 40:1 42:10 43:1 45:1 46:4 50:1 51:4 54:3 60:1 64:1 88:1 89:1 90:0.027 91:0.1 92:0.1698 
0.5 0.5 6:10 7:0.1351 8:74 9:5 15:1 17:24.6667 18:3 19:1 20:13 21:18 22:6 23:1 24:1 25:13 26:18 27:6 28:1 29:2 31:9 32:1.125 33:8 34:1 42:8 43:1 45:1 46:4 50:0.1111 51:0.4444 54:1 55:1 60:1 71:1 89:1 90:0.0135 91:0.125 92:0.0792 
0.5 0 6:16 7:0.4 8:40 10:1 14:4 17:40 18:1 20:9 21:11 22:2 25:4.5 26:5.5 27:1 31:9 32:0.2093 33:43 34:5 38:1 39:2 40:3 42:8.6 43:5 44:2 45:7 46:9 47:6 49:2 50:7 51:9 52:6 60:1 66:1 88:1 89:7 90:0.175 91:0.1628 92:0.1482 93:5 94:0.125 95:0.1163 96:0.1282 97:3 98:0.075 99:0.0698 100:0.0811 
0.5 0 6:16 7:0.4 8:40 10:1 14:4 17:40 18:1 20:9 21:11 22:2 25:4.5 26:5.5 27:1 31:11 32:0.1028 33:107 34:14 40:1 41:8 42:9.7273 43:11 44:2 45:16 46:24 47:5 49:2 50:16 51:24 52:5 54:5 60:1 66:1 88:1 89:5 90:0.125 91:0.0467 92:0.1084 93:1 94:0.025 95:0.0093 96:0.0171 97:1 98:0.025 99:0.0093 100:0.0176 
0.5 0 6:7 7:0.2414 8:29 14:1 17:29 18:1 20:8 21:6 22:2 25:1.3333 26:1 27:0.3333 31:9 32:0.6429 33:14 38:1 40:1 42:4.6667 43:3 44:1 45:3 46:4 49:1 50:3 51:4 55:1 74:1 89:2 90:0.069 91:0.1429 92:0.1019 
0.5 0 6:8 7:0.2162 8:37 9:2 12:1 15:1 17:12.3333 18:3 19:1 20:6 21:9 22:2 24:1 25:6 26:9 27:2 31:8 32:4 33:2 42:2 43:1 46:1 51:0.3333 56:1 57:1 60:1 63:1 88:1 
0.5 0 6:8 7:0.4 8:20 9:3 15:1 17:10 18:2 19:1 20:4 21:5 22:1 24:1 25:4 26:5 27:1 29:1 31:14 32:0.6087 33:23 34:3 42:23 43:1 45:7 46:3 47:3 50:0.5 51:0.2143 52:0.2143 55:1 60:1 67:1 89:1 90:0.05 91:0.0435 92:0.0464 
0.5 0 6:8 7:0.4 8:20 9:3 15:1 17:10 18:2 19:1 20:4 21:5 22:1 24:1 25:4 26:5 27:1 29:1 31:8 32:0.7273 33:11 34:1 42:11 43:1 45:1 46:3 47:1 50:0.3333 51:1 52:0.3333 54:1 60:1 67:1 89:1 90:0.05 91:0.0909 92:0.0791 
0.5 0 6:8 7:0.4 8:20 9:3 15:1 17:10 18:2 19:1 20:4 21:5 22:1 24:1 25:4 26:5 27:1 29:1 31:9 32:0.5294 33:17 34:1 42:17 43:1 45:1 46:4 47:1 50:1 51:4 52:1 56:1 60:1 67:1 
0.5 0 6:7 7:0.1029 8:68 9:11 12:1 14:3 15:3 17:11.3333 18:6 19:1 20:12 21:12 22:6 24:0.1667 25:2 26:2 27:1 29:6 31:7 32:0.2188 33:32 34:4 39:1 40:1 41:3 42:8 43:4 44:1 45:8 46:5 47:3 49:1 50:8 51:5 52:3 54:2 56:1 60:1 64:1 88:1 89:4 90:0.0588 91:0.125 92:0.0955 93:1 94:0.0147 95:0.0312 96:0.0241 
0.5 0 6:14 7:0.3889 8:36 9:2 14:1 15:1 17:36 18:1 19:1 20:6 21:7 22:2 24:1 25:6 26:7 27:2 31:9 32:0.75 33:12 39:1 40:1 42:12 43:1 45:1 46:3 47:2 50:1 51:3 52:2 60:1 70:1 89:3 90:0.0833 91:0.25 92:0.1396 93:2 94:0.0556 95:0.1667 96:0.1066 97:2 98:0.0556 99:0.1667 100:0.1066 
0.5 0.5 6:11 7:0.1642 8:67 14:2 15:6 16:2 17:8.375 18:8 19:1 20:13 21:17 22:4 24:1 25:13 26:17 27:4 31:11 32:0.11 33:100 34:1 39:2 42:50 43:2 44:1 45:25 46:25 47:9 49:1 50:25 51:25 52:9 54:1 56:1 57:1 60:1 62:1 88:1 89:23 90:0.3433 91:0.23 92:0.6094 93:9 94:0.1343 95:0.09 96:0.1302 97:5 98:0.0746 99:0.05 100:0.0669 
0.5 0 6:12 7:0.3077 8:39 12:1 13:1 14:1 15:2 17:9.75 18:4 19:2 20:7 21:7 22:1 24:2 25:7 26:7 27:1 31:5 32:0.625 33:8 39:1 40:1 42:8 43:1 44:1 45:1 47:1 49:1 50:1 52:1 55:1 60:1 71:1 88:1 89:2 90:0.0513 91:0.25 92:0.1081 93:1 94:0.0256 95:0.125 96:0.0648 97:1 98:0.0256 99:0.125 100:0.0648 
0.5 0 1:1 2:2 6:5 7:0.7143 8:7 9:2 17:7 18:1 20:2 21:2 25:2 26:2 29:1 30:3 31:9 32:0.2143 33:42 34:5 41:2 42:14 43:3 45:5 46:16 47:1 50:5 51:16 52:1 54:4 55:1 56:1 60:1 73:1 
0.5 0 1:2 2:4 6:11 7:3.6667 8:3 17:3 18:1 21:2 26:0.1818 30:5 31:7 32:0.1667 33:42 34:1 41:1 42:14 43:3 45:4 46:18 50:2 51:9 55:1 56:1 60:1 75:1 
0.5 0 1:1 2:2 6:8 7:0.2353 8:34 9:6 13:1 14:1 15:1 17:11.3333 18:3 19:1 20:3 21:10 22:3 24:1 25:3 26:10 27:3 29:1 30:3 31:8 32:0.2667 33:30 34:2 40:1 42:15 43:2 45:4 46:14 47:1 50:4 51:14 52:1 54:1 55:1 60:1 73:1 89:3 90:0.0882 91:0.1 92:0.2882 93:1 94:0.0294 95:0.0333 96:0.0375 
0.5 0 6:8 7:0.2353 8:34 9:6 13:1 14:1 15:1 17:11.3333 18:3 19:1 20:3 21:10 22:3 24:1 25:3 26:10 27:3 29:1 31:9 32:0.5 33:18 34:2 39:1 41:2 42:6 43:3 44:1 45:4 46:2 47:2 49:1 50:4 51:2 52:2 56:1 60:1 73:1 89:2 90:0.0588 91:0.1111 92:0.0849 93:1 94:0.0294 95:0.0556 96:0.0464 97:1 98:0.0294 99:0.0556 100:0.0464 
0.5 0 6:9 7:0.5625 8:16 9:1 17:8 18:2 20:4 21:4 22:1 25:4 26:4 27:1 31:10 32:0.5 33:20 39:1 41:3 42:6.6667 43:3 45:3 46:2 50:3 51:2 55:1 60:1 70:1 89:1 90:0.0625 91:0.05 92:0.0471 
0.5 0 6:9 7:0.5625 8:16 9:1 17:8 18:2 20:4 21:4 22:1 25:4 26:4 27:1 31:10 32:0.3125 33:32 34:3 38:1 42:10.6667 43:3 45:3 46:9 47:3 50:3 51:9 52:3 54:2 60:1 70:1 
0.5 0 6:9 7:0.2812 8:32 9:5 14:1 15:1 17:32 18:1 20:5 21:11 22:5 25:5 26:11 27:5 29:3 31:9 32:0.4737 33:19 34:7 40:1 42:19 43:1 44:1 45:3 46:6 47:1 49:1 50:3 51:6 52:1 54:2 55:1 71:1 88:1 89:5 90:0.1562 91:0.2632 92:0.2642 93:1 94:0.0312 95:0.0526 96:0.0464 
0.5 0.3723464546019182 2:1 6:13 7:0.2063 8:63 9:6 13:1 14:2 15:2 17:9 18:7 19:1 20:9 21:15 22:11 24:1 25:9 26:15 27:11 29:2 31:9 32:2.25 33:4 34:1 41:2 42:2 43:2 46:1 51:1 54:1 55:1 59:1 60:1 62:1 
0.5 0.5 6:13 7:0.2063 8:63 9:6 13:1 14:2 15:2 17:9 18:7 19:1 20:9 21:15 22:11 24:1 25:9 26:15 27:11 29:2 31:14 32:0.1359 33:103 34:3 37:2 39:2 40:2 42:6.4375 43:16 45:14 46:23 47:15 50:2.8 51:4.6 52:3 54:2 57:1 58:1 60:1 62:1 89:17 90:0.2698 91:0.165 92:0.4568 93:2 94:0.0317 95:0.0194 96:0.0277 97:1 98:0.0159 99:0.0097 100:0.0145 
0 0.04833721402704278 6:13 7:0.2063 8:63 9:6 13:1 14:2 15:2 17:9 18:7 19:1 20:9 21:15 22:11 24:1 25:9 26:15 27:11 29:2 31:11 32:0.3333 33:33 37:2 38:1 42:3 43:11 45:5 46:8 47:2 50:5 51:8 52:2 56:1 57:1 60:1 62:1 89:5 90:0.0794 91:0.1515 92:0.1618 
0.5 0.5 6:9 7:0.5625 8:16 9:2 14:1 15:3 17:5.3333 18:3 20:2 21:4 22:2 25:2 26:4 27:2 31:46 32:3.5385 33:13 34:4 42:13 43:1 45:1 46:2 50:1 51:2 54:3 55:1 56:1 60:1 67:1 89:2 90:0.125 91:0.1538 92:0.1672 
0.5 0.5 6:5 7:0.7143 8:7 9:2 17:7 18:1 20:1 21:2 22:1 25:1 26:2 27:1 31:4 32:1.3333 33:3 41:1 42:3 43:1 46:1 51:1 55:1 56:1 60:1 67:1 
0.5 0 6:10 7:0.3571 8:28 9:3 14:3 15:1 17:28 18:1 19:2 20:4 21:4 22:4 24:2 25:4 26:4 27:4 29:1 31:8 32:0.2667 33:30 34:1 40:1 41:1 42:15 43:2 44:1 45:2 46:5 47:3 49:1 50:2 51:5 52:3 60:1 71:1 89:3 90:0.1071 91:0.1 92:0.1035 
0.5 0.5 6:9 7:0.75 8:12 15:1 17:12 18:1 20:3 21:4 25:3 26:4 31:8 32:2 33:4 34:2 42:4 43:1 45:1 50:1 60:1 64:1 88:1 
0.5 0.5 6:9 7:0.75 8:12 15:1 17:12 18:1 20:3 21:4 25:3 26:4 31:8 32:1 33:8 41:3 42:2.6667 43:3 45:1 46:2 50:1 51:2 60:1 64:1 88:1 
0.5 0 6:9 7:0.75 8:12 15:1 17:12 18:1 20:3 21:4 25:3 26:4 31:9 32:1 33:9 34:1 41:1 42:9 43:1 45:1 46:1 50:1 51:1 54:1 60:1 64:1 88:1 
0.5 0.5 6:7 7:0.7 8:10 9:3 15:1 17:10 18:1 19:1 20:2 21:3 24:1 25:2 26:3 29:2 31:7 32:0.7778 33:9 34:1 39:1 40:1 42:9 43:1 44:1 45:2 46:1 47:1 49:1 50:2 51:1 52:1 56:1 60:1 71:1 88:1 89:1 90:0.1 91:0.1111 92:0.125 
0.5 0.291494975435463 6:11 7:0.1507 8:73 9:8 14:2 15:3 16:1 17:12.1667 18:6 19:2 20:15 21:12 22:9 24:2 25:15 26:12 27:9 29:1 31:14 32:0.1261 33:111 34:8 35:1 42:18.5 43:6 44:2 45:25 46:15 47:15 49:2 50:25 51:15 52:15 55:1 60:1 67:1 89:17 90:0.2329 91:0.1532 92:0.4252 93:6 94:0.0822 95:0.0541 96:0.2164 97:2 98:0.0274 99:0.018 100:0.1667 
0.5 0.5 6:11 7:0.1507 8:73 9:8 14:2 15:3 16:1 17:12.1667 18:6 19:2 20:15 21:12 22:9 24:2 25:15 26:12 27:9 29:1 31:7 32:0.7 33:10 34:2 42:10 43:1 45:1 46:4 50:1 51:4 54:1 60:1 67:1 89:1 90:0.0137 91:0.1 92:0.0357 
0.5 0.5 6:11 7:0.1507 8:73 9:8 14:2 15:3 16:1 17:12.1667 18:6 19:2 20:15 21:12 22:9 24:2 25:15 26:12 27:9 29:1 31:11 32:0.2558 33:43 34:2 42:43 43:1 45:8 46:11 47:3 50:1.3333 51:1.8333 52:0.5 60:1 67:1 89:8 90:0.1096 91:0.186 92:0.3191 93:1 94:0.0137 95:0.0233 96:0.0525 97:1 98:0.0137 99:0.0233 100:0.0552 
0.5 0.5 6:11 7:0.1507 8:73 9:8 14:2 15:3 16:1 17:12.1667 18:6 19:2 20:15 21:12 22:9 24:2 25:15 26:12 27:9 29:1 31:12 32:0.1935 33:62 34:3 36:1 42:62 43:1 45:13 46:12 47:5 50:13 51:12 52:5 60:1 67:1 89:10 90:0.137 91:0.1613 92:0.3347 93:2 94:0.0274 95:0.0323 96:0.04 
0.5 0.5 6:11 7:0.1507 8:73 9:8 14:2 15:3 16:1 17:12.1667 18:6 19:2 20:15 21:12 22:9 24:2 25:15 26:12 27:9 29:1 31:14 32:0.7368 33:19 34:2 39:1 42:9.5 43:2 45:1 46:5 47:1 50:1 51:5 52:1 60:1 67:1 89:3 90:0.0411 91:0.1579 92:0.1715 
0.5 0.5 6:11 7:0.1507 8:73 9:8 14:2 15:3 16:1 17:12.1667 18:6 19:2 20:15 21:12 22:9 24:2 25:15 26:12 27:9 29:1 31:15 32:0.6522 33:23 34:1 41:1 42:11.5 43:2 45:5 46:5 47:1 50:2.5 51:2.5 52:0.5 54:1 59:1 60:1 67:1 89:5 90:0.0685 91:0.2174 92:0.2317 
0.5 0 6:11 7:0.1507 8:73 9:8 14:2 15:3 16:1 17:12.1667 18:6 19:2 20:15 21:12 22:9 24:2 25:15 26:12 27:9 29:1 31:6 32:0.6 33:10 34:2 41:2 42:5 43:2 46:4 51:4 58:1 60:1 67:1 89:2 90:0.0274 91:0.2 92:0.1071 
0.5 0.5 6:11 7:0.1507 8:73 9:8 14:2 15:3 16:1 17:12.1667 18:6 19:2 20:15 21:12 22:9 24:2 25:15 26:12 27:9 29:1 31:10 32:0.9091 33:11 34:1 42:11 43:1 45:1 46:2 47:2 50:0.3333 51:0.6667 52:0.6667 60:1 67:1 89:3 90:0.0411 91:0.2727 92:0.2132 
0.5 0 6:11 7:0.1507 8:73 9:8 14:2 15:3 16:1 17:12.1667 18:6 19:2 20:15 21:12 22:9 24:2 25:15 26:12 27:9 29:1 31:10 32:0.6667 33:15 34:2 42:15 43:1 45:1 46:3 47:2 50:1 51:3 52:2 60:1 67:1 89:4 90:0.0548 91:0.2667 92:0.1961 
0.5 0 6:11 7:0.1507 8:73 9:8 14:2 15:3 16:1 17:12.1667 18:6 19:2 20:15 21:12 22:9 24:2 25:15 26:12 27:9 29:1 31:8 32:0.5333 33:15 34:1 42:15 43:1 45:4 46:3 50:4 51:3 60:1 67:1 89:2 90:0.0274 91:0.1333 92:0.0952 
0.5 0 6:11 7:0.1507 8:73 9:8 14:2 15:3 16:1 17:12.1667 18:6 19:2 20:15 21:12 22:9 24:2 25:15 26:12 27:9 29:1 31:11 32:0.2444 33:45 34:2 36:1 42:15 43:3 45:9 46:10 47:5 50:9 51:10 52:5 60:1 67:1 89:6 90:0.0822 91:0.1333 92:0.1143 93:2 94:0.0274 95:0.0444 96:0.0725 97:2 98:0.0274 99:0.0444 100:0.0745 
0.5 0.0004701434058503776 6:11 7:0.1507 8:73 9:8 14:2 15:3 16:1 17:12.1667 18:6 19:2 20:15 21:12 22:9 24:2 25:15 26:12 27:9 29:1 31:10 32:0.4545 33:22 34:4 42:11 43:2 45:7 46:2 47:2 50:7 51:2 52:2 60:1 67:1 89:4 90:0.0548 91:0.1818 92:0.2474 
0.5 0.005094651398286637 6:11 7:0.1507 8:73 9:8 14:2 15:3 16:1 17:12.1667 18:6 19:2 20:15 21:12 22:9 24:2 25:15 26:12 27:9 29:1 31:7 32:0.875 33:8 34:1 42:8 43:1 45:2 47:2 50:2 52:2 60:1 67:1 
0.5 0.000479385029420121 6:11 7:0.1507 8:73 9:8 14:2 15:3 16:1 17:12.1667 18:6 19:2 20:15 21:12 22:9 24:2 25:15 26:12 27:9 29:1 31:7 32:0.4118 33:17 34:3 42:8.5 43:2 44:1 45:4 46:1 47:3 49:1 50:4 51:1 52:3 54:2 60:1 67:1 89:5 90:0.0685 91:0.2941 92:0.243 93:3 94:0.0411 95:0.1765 96:0.1533 97:2 98:0.0274 99:0.1176 100:0.126 
0.5 0 6:11 7:0.1507 8:73 9:8 14:2 15:3 16:1 17:12.1667 18:6 19:2 20:15 21:12 22:9 24:2 25:15 26:12 27:9 29:1 31:8 32:0.7273 33:11 34:2 42:11 43:1 45:1 46:3 47:1 50:1 51:3 52:1 54:1 60:1 67:1 89:2 90:0.0274 91:0.1818 92:0.1278 
0.5 5.98100064550795e-05 6:11 7:0.1507 8:73 9:8 14:2 15:3 16:1 17:12.1667 18:6 19:2 20:15 21:12 22:9 24:2 25:15 26:12 27:9 29:1 31:9 32:0.6429 33:14 34:3 42:7 43:2 45:2 46:4 47:1 50:2 51:4 52:1 54:1 60:1 67:1 89:1 90:0.0137 91:0.0714 92:0.0958 93:1 94:0.0137 95:0.0714 96:0.1088 97:1 98:0.0137 99:0.0714 100:0.1118 
0.5 0.5 6:11 7:0.1507 8:73 9:8 14:2 15:3 16:1 17:12.1667 18:6 19:2 20:15 21:12 22:9 24:2 25:15 26:12 27:9 29:1 31:8 32:2 33:4 34:2 42:4 43:1 46:1 51:1 54:2 60:1 67:1 
0.5 0.5 6:11 7:0.1507 8:73 9:8 14:2 15:3 16:1 17:12.1667 18:6 19:2 20:15 21:12 22:9 24:2 25:15 26:12 27:9 29:1 31:5 32:0.3125 33:16 34:2 42:8 43:2 45:5 46:2 47:2 50:5 51:2 52:2 60:1 67:1 89:3 90:0.0411 91:0.1875 92:0.162 
0.5 0 6:11 7:0.1507 8:73 9:8 14:2 15:3 16:1 17:12.1667 18:6 19:2 20:15 21:12 22:9 24:2 25:15 26:12 27:9 29:1 31:6 32:0.5455 33:11 34:2 42:5.5 43:2 45:2 46:3 50:2 51:3 54:2 60:1 67:1 89:1 90:0.0137 91:0.0909 92:0.0714 
0.5 0 6:11 7:0.1507 8:73 9:8 14:2 15:3 16:1 17:12.1667 18:6 19:2 20:15 21:12 22:9 24:2 25:15 26:12 27:9 29:1 31:8 32:0.5714 33:14 34:2 42:7 43:2 44:1 45:2 46:3 47:3 49:1 50:2 51:3 52:3 60:1 67:1 89:2 90:0.0274 91:0.1429 92:0.1401 
0.5 0.5 6:11 7:0.1507 8:73 9:8 14:2 15:3 16:1 17:12.1667 18:6 19:2 20:15 21:12 22:9 24:2 25:15 26:12 27:9 29:1 31:12 32:1.2 33:10 34:1 42:10 43:1 45:2 46:2 47:2 50:2 51:2 52:2 54:1 56:1 60:1 67:1 89:3 90:0.0411 91:0.3 92:0.1786 
0.5 0 6:10 7:0.6667 8:15 9:2 15:1 17:15 18:1 19:1 20:2 21:4 24:1 25:2 26:4 29:1 31:7 32:0.28 33:25 34:2 41:1 42:12.5 43:2 45:5 46:4 47:2 50:5 51:4 52:2 54:1 60:1 67:1 89:1 90:0.0667 91:0.04 92:0.1369 
0.5 0 6:10 7:0.6667 8:15 9:2 15:1 17:15 18:1 19:1 20:2 21:4 24:1 25:2 26:4 29:1 31:11 32:1.2222 33:9 42:9 43:1 45:2 46:4 50:0.3333 51:0.6667 60:1 67:1 89:1 90:0.0667 91:0.1111 92:0.1667 
0.5 0 6:10 7:0.6667 8:15 9:2 15:1 17:15 18:1 19:1 20:2 21:4 24:1 25:2 26:4 29:1 31:10 32:0.4348 33:23 34:2 39:1 40:1 42:11.5 43:2 44:1 45:2 46:7 47:2 49:1 50:2 51:7 52:2 60:1 67:1 89:2 90:0.1333 91:0.087 92:0.1677 93:1 94:0.0667 95:0.0435 96:0.063 
0.5 0 6:10 7:0.6667 8:15 9:2 15:1 17:15 18:1 19:1 20:2 21:4 24:1 25:2 26:4 29:1 31:9 32:1.2857 33:7 34:3 35:1 42:7 43:1 45:1 46:3 47:1 50:0.1111 51:0.3333 52:0.1111 60:1 67:1 
0.5 0 6:15 7:0.7143 8:21 9:7 15:1 17:21 18:1 20:2 21:10 25:2 26:10 29:4 31:10 32:0.073 33:137 34:5 39:3 42:68.5 43:2 44:4 45:24 46:27 47:8 49:4 50:24 51:27 52:8 54:3 55:1 57:1 73:1 89:6 90:0.2857 91:0.0438 92:0.177 93:1 94:0.0476 95:0.0073 96:0.0189 
0.5 0 6:15 7:0.7143 8:21 9:7 15:1 17:21 18:1 20:2 21:10 25:2 26:10 29:4 31:8 32:0.3333 33:24 34:3 42:8 43:3 45:4 46:4 47:2 50:4 51:4 52:2 54:1 58:1 59:1 73:1 
0.5 0 6:15 7:0.7143 8:21 9:7 15:1 17:21 18:1 20:2 21:10 25:2 26:10 29:4 31:10 32:0.2 33:50 34:3 39:1 42:16.6667 43:3 45:9 46:7 47:7 50:9 51:7 52:7 54:1 58:1 59:1 73:1 89:2 90:0.0952 91:0.04 92:0.0908 93:1 94:0.0476 95:0.02 96:0.0346 
0.5 0 6:15 7:0.7143 8:21 9:7 15:1 17:21 18:1 20:2 21:10 25:2 26:10 29:4 31:9 32:0.1579 33:57 34:6 42:28.5 43:2 45:11 46:11 47:7 50:2.75 51:2.75 52:1.75 54:3 58:1 73:1 89:4 90:0.1905 91:0.0702 92:0.1343 
0.5 0 6:15 7:0.7143 8:21 9:7 15:1 17:21 18:1 20:2 21:10 25:2 26:10 29:4 31:10 32:0.5 33:20 34:2 39:1 42:20 43:1 45:2 46:2 47:1 50:2 51:2 52:1 56:1 73:1 89:1 90:0.0476 91:0.05 92:0.0514 
0.5 0 6:12 7:0.3333 8:36 9:8 12:1 15:2 16:1 17:7.2 18:5 20:6 21:11 22:1 25:2 26:3.6667 27:0.3333 29:3 31:12 32:1.2 33:10 34:2 40:1 42:10 43:1 45:2 46:4 47:1 50:2 51:4 52:1 54:1 55:1 56:1 60:1 67:1 89:2 90:0.0556 91:0.2 92:0.1127 
0.5 0.5 6:9 7:0.3333 8:27 9:2 12:1 14:1 15:2 17:6.75 18:4 19:1 20:3 21:9 22:1 24:0.1111 25:0.3333 26:1 27:0.1111 29:2 31:8 32:0.6667 33:12 34:2 42:12 43:1 44:1 45:2 46:4 49:1 50:2 51:4 54:1 56:1 58:1 60:1 65:1 88:1 89:1 90:0.037 91:0.0833 92:0.0645 
0.5 0 6:7 7:0.35 8:20 9:6 15:1 17:10 18:2 19:1 20:2 21:7 22:2 24:1 25:2 26:7 27:2 29:2 31:13 32:0.52 33:25 34:2 40:2 41:4 42:4.1667 43:6 45:2 46:7 47:1 50:2 51:7 52:1 54:2 60:1 68:1 88:1 
0.5 0.5 6:7 7:0.35 8:20 9:6 15:1 17:10 18:2 19:1 20:2 21:7 22:2 24:1 25:2 26:7 27:2 29:2 31:7 32:0.875 33:8 41:3 42:2.6667 43:3 45:1 46:1 50:1 51:1 60:1 68:1 88:1 
0.5 0.5 6:7 7:0.35 8:20 9:6 15:1 17:10 18:2 19:1 20:2 21:7 22:2 24:1 25:2 26:7 27:2 29:2 31:10 32:0.2273 33:44 42:22 43:2 45:6 46:17 47:2 50:6 51:17 52:2 56:1 60:1 68:1 88:1 89:5 90:0.25 91:0.1136 92:0.252 
0.5 0.5 6:10 7:0.2564 8:39 9:10 12:1 14:1 15:1 16:2 17:7.8 18:5 19:1 20:5 21:13 22:2 24:1 25:5 26:13 27:2 29:4 31:4 32:1.3333 33:3 42:3 43:1 46:1 51:0.3333 55:1 60:1 67:1 
0.5 0 6:10 7:0.2564 8:39 9:10 12:1 14:1 15:1 16:2 17:7.8 18:5 19:1 20:5 21:13 22:2 24:1 25:5 26:13 27:2 29:4 31:7 32:0.875 33:8 42:8 43:1 46:2 47:1 51:0.2857 52:0.1429 60:1 67:1 89:1 90:0.0256 91:0.125 92:0.0606 
0.5 0.03615716695653159 6:10 7:0.2564 8:39 9:10 12:1 14:1 15:1 16:2 17:7.8 18:5 19:1 20:5 21:13 22:2 24:1 25:5 26:13 27:2 29:4 31:5 32:0.4167 33:12 34:2 42:12 43:1 45:4 47:1 50:4 52:1 54:1 60:1 67:1 89:4 90:0.1026 91:0.3333 92:0.2068 
0.5 0.05380923738356486 6:10 7:0.2564 8:39 9:10 12:1 14:1 15:1 16:2 17:7.8 18:5 19:1 20:5 21:13 22:2 24:1 25:5 26:13 27:2 29:4 31:6 32:0.3333 33:18 34:2 42:18 43:1 44:1 45:2 46:4 47:2 49:1 50:2 51:4 52:2 54:1 60:1 67:1 89:3 90:0.0769 91:0.1667 92:0.1286 
0.5 0.5 6:10 7:0.2564 8:39 9:10 12:1 14:1 15:1 16:2 17:7.8 18:5 19:1 20:5 21:13 22:2 24:1 25:5 26:13 27:2 29:4 31:8 32:1 33:8 42:4 43:2 46:3 51:1.5 60:1 67:1 
0.5 0.5 6:10 7:0.2564 8:39 9:10 12:1 14:1 15:1 16:2 17:7.8 18:5 19:1 20:5 21:13 22:2 24:1 25:5 26:13 27:2 29:4 31:46 32:1.0222 33:45 34:5 42:22.5 43:2 45:4 46:11 50:0.087 51:0.2391 54:3 60:1 67:1 89:3 90:0.0769 91:0.0667 92:0.177 
0.5 0.5 6:10 7:0.2564 8:39 9:10 12:1 14:1 15:1 16:2 17:7.8 18:5 19:1 20:5 21:13 22:2 24:1 25:5 26:13 27:2 29:4 31:10 32:2 33:5 42:5 43:1 45:1 46:1 50:0.5 51:0.5 60:1 67:1 
0.5 0 6:10 7:0.2564 8:39 9:10 12:1 14:1 15:1 16:2 17:7.8 18:5 19:1 20:5 21:13 22:2 24:1 25:5 26:13 27:2 29:4 31:5 32:0.7143 33:7 42:7 43:1 45:2 46:2 47:1 50:0.6667 51:0.6667 52:0.3333 60:1 67:1 89:1 90:0.0256 91:0.1429 92:0.0648 
0.5 0.3358532752251568 6:10 7:0.2564 8:39 9:10 12:1 14:1 15:1 16:2 17:7.8 18:5 19:1 20:5 21:13 22:2 24:1 25:5 26:13 27:2 29:4 31:9 32:0.25 33:36 34:1 39:1 42:18 43:2 45:5 46:8 50:2.5 51:4 60:1 67:1 89:3 90:0.0769 91:0.0833 92:0.1213 
0.5 0 6:10 7:0.1389 8:72 9:15 14:2 16:2 17:18 18:4 19:1 20:10 21:26 22:2 24:0.3333 25:3.3333 26:8.6667 27:0.6667 29:7 31:13 32:0.52 33:25 34:4 39:1 42:25 43:1 45:3 46:7 47:1 50:3 51:7 52:1 54:2 57:1 59:1 65:1 89:7 90:0.0972 91:0.28 92:0.1886 93:2 94:0.0278 95:0.08 96:0.0503 
0.5 0 6:10 7:0.1389 8:72 9:15 14:2 16:2 17:18 18:4 19:1 20:10 21:26 22:2 24:0.3333 25:3.3333 26:8.6667 27:0.6667 29:7 31:7 32:0.7 33:10 40:1 42:10 43:1 44:1 45:1 46:3 49:1 50:1 51:3 56:1 65:1 89:3 90:0.0417 91:0.3 92:0.1777 93:1 94:0.0139 95:0.1 96:0.0821 
0.5 0 6:15 7:0.2239 8:67 9:8 12:1 14:2 15:1 17:22.3333 18:3 19:2 20:10 21:17 22:5 24:0.5 25:2.5 26:4.25 27:1.25 29:3 31:8 32:0.1509 33:53 34:5 41:1 42:13.25 43:4 45:9 46:11 47:5 50:2.25 51:2.75 52:1.25 54:1 57:1 59:1 60:1 65:1 89:13 90:0.194 91:0.2453 92:0.3845 93:5 94:0.0746 95:0.0943 96:0.0898 97:2 98:0.0299 99:0.0377 100:0.0359 
0.5 0 6:15 7:0.2239 8:67 9:8 12:1 14:2 15:1 17:22.3333 18:3 19:2 20:10 21:17 22:5 24:0.5 25:2.5 26:4.25 27:1.25 29:3 31:8 32:0.2353 33:34 34:2 39:1 41:1 42:8.5 43:4 45:7 46:4 47:4 50:7 51:4 52:4 57:1 58:1 60:1 65:1 89:3 90:0.0448 91:0.0882 92:0.0755 
0.5 0.07376270034243246 6:15 7:0.2239 8:67 9:8 12:1 14:2 15:1 17:22.3333 18:3 19:2 20:10 21:17 22:5 24:0.5 25:2.5 26:4.25 27:1.25 29:3 31:11 32:0.141 33:78 34:11 37:1 42:13 43:6 44:4 45:14 46:17 47:10 49:0.6667 50:2.3333 51:2.8333 52:1.6667 54:3 58:1 59:1 60:1 65:1 89:11 90:0.1642 91:0.141 92:0.2253 
0.5 0.5 6:15 7:0.2239 8:67 9:8 12:1 14:2 15:1 17:22.3333 18:3 19:2 20:10 21:17 22:5 24:0.5 25:2.5 26:4.25 27:1.25 29:3 31:6 32:0.8571 33:7 34:6 42:7 43:1 46:6 51:2 54:3 58:1 60:1 65:1 
0.5 0.009979846929209909 6:10 7:0.3226 8:31 9:5 12:1 15:1 17:10.3333 18:3 19:1 20:5 21:10 22:2 24:0.1667 25:0.8333 26:1.6667 27:0.3333 29:1 31:8 32:2 33:4 42:4 43:1 46:1 51:1 59:1 60:1 67:1 
0.5 0 6:10 7:0.3226 8:31 9:5 12:1 15:1 17:10.3333 18:3 19:1 20:5 21:10 22:2 24:0.1667 25:0.8333 26:1.6667 27:0.3333 29:1 31:7 32:0.3043 33:23 34:9 42:23 43:1 45:2 46:8 47:1 50:0.2857 51:1.1429 52:0.1429 54:1 58:1 60:1 67:1 
0.5 0 6:10 7:0.3226 8:31 9:5 12:1 15:1 17:10.3333 18:3 19:1 20:5 21:10 22:2 24:0.1667 25:0.8333 26:1.6667 27:0.3333 29:1 31:9 32:0.4737 33:19 34:4 42:19 43:1 45:3 46:7 50:3 51:7 54:4 60:1 67:1 
0.5 0 6:10 7:0.3226 8:31 9:5 12:1 15:1 17:10.3333 18:3 19:1 20:5 21:10 22:2 24:0.1667 25:0.8333 26:1.6667 27:0.3333 29:1 31:6 32:3 33:2 42:2 43:1 46:1 51:0.1667 60:1 67:1 
0.5 0.5 6:9 7:0.1023 8:88 9:3 16:2 17:29.3333 18:3 20:18 21:19 22:8 25:18 26:19 27:8 29:2 31:7 32:1.1667 33:6 34:2 38:1 42:6 43:1 46:5 51:5 54:1 58:1 60:1 65:1 
0.5 0 6:9 7:0.1023 8:88 9:3 16:2 17:29.3333 18:3 20:18 21:19 22:8 25:18 26:19 27:8 29:2 31:17 32:0.3542 33:48 34:1 41:3 42:16 43:3 45:4 46:10 47:2 50:4 51:10 52:2 56:1 60:1 65:1 89:10 90:0.1136 91:0.2083 92:0.2186 93:1 94:0.0114 95:0.0208 96:0.0153 
0.5 0 6:9 7:0.2045 8:44 9:4 14:3 15:1 17:44 18:1 20:10 21:6 22:6 25:10 26:6 27:6 29:1 31:8 32:0.2353 33:34 34:5 39:1 42:17 43:2 45:6 46:7 47:5 50:1 51:1.1667 52:0.8333 54:1 57:1 60:1 70:1 89:7 90:0.1591 91:0.2059 92:0.4308 93:3 94:0.0682 95:0.0882 96:0.0824 97:1 98:0.0227 99:0.0294 100:0.0283 
0.5 0 6:9 7:0.2045 8:44 9:4 14:3 15:1 17:44 18:1 20:10 21:6 22:6 25:10 26:6 27:6 29:1 31:10 32:0.9091 33:11 34:1 42:11 43:1 44:1 45:2 46:1 47:1 49:1 50:2 51:1 52:1 54:1 60:1 70:1 
0.5 0 6:9 7:0.2045 8:44 9:4 14:3 15:1 17:44 18:1 20:10 21:6 22:6 25:10 26:6 27:6 29:1 31:8 32:0.1569 33:51 34:5 42:25.5 43:2 45:12 46:9 47:8 50:12 51:9 52:8 56:1 57:1 60:1 70:1 89:12 90:0.2727 91:0.2353 92:0.3592 93:4 94:0.0909 95:0.0784 96:0.108 97:3 98:0.0682 99:0.0588 100:0.0897 
0.5 0.3924482997407812 6:10 7:0.2273 8:44 9:6 14:2 15:3 17:8.8 18:5 19:1 20:8 21:11 22:3 24:1 25:8 26:11 27:3 29:1 31:13 32:0.2955 33:44 34:12 38:1 42:44 43:1 45:4 46:15 47:4 50:0.3333 51:1.25 52:0.3333 54:2 60:1 73:1 89:3 90:0.0682 91:0.0682 92:0.069 
0.5 0 6:10 7:0.2273 8:44 9:6 14:2 15:3 17:8.8 18:5 19:1 20:8 21:11 22:3 24:1 25:8 26:11 27:3 29:1 31:10 32:0.7692 33:13 34:1 38:1 42:13 43:1 45:1 46:3 47:2 50:0.5 51:1.5 52:1 60:1 73:1 89:4 90:0.0909 91:0.3077 92:0.2091 
0.5 0 6:9 7:0.5625 8:16 14:1 15:1 17:16 18:1 19:1 20:2 21:5 22:1 24:1 25:2 26:5 27:1 31:7 32:1 33:7 40:1 42:7 43:1 45:3 46:1 47:1 50:3 51:1 52:1 55:1 77:1 88:1 
0.5 0.5 6:11 7:0.4074 8:27 9:3 15:1 17:27 18:1 20:2 21:11 25:2 26:11 29:2 31:10 32:0.5556 33:18 34:2 42:18 43:1 45:4 46:4 47:2 50:4 51:4 52:2 57:1 60:1 76:1 89:5 90:0.1852 91:0.2778 92:0.2208 93:1 94:0.037 95:0.0556 96:0.0485 
0.5 0 6:11 7:0.4074 8:27 9:3 15:1 17:27 18:1 20:2 21:11 25:2 26:11 29:2 30:2 31:30 32:0.3226 33:93 34:8 40:2 42:23.25 43:4 44:1 45:17 46:26 47:7 49:1 50:17 51:26 52:7 54:3 56:1 60:1 76:1 89:4 90:0.1481 91:0.043 92:0.1549 
0.5 0.5 6:28 7:1.75 8:16 15:1 17:16 18:1 19:1 20:2 21:4 24:1 25:2 26:4 31:7 32:0.6364 33:11 34:4 38:1 42:11 43:1 45:3 46:4 47:1 50:0.6 51:0.8 52:0.2 54:2 55:1 60:1 68:1 88:1 89:1 90:0.0625 91:0.0909 92:0.0778 
0.5 0.5 6:28 7:1.75 8:16 15:1 17:16 18:1 19:1 20:2 21:4 24:1 25:2 26:4 31:10 32:0.1961 33:51 34:47 42:17 43:3 45:2 46:43 47:1 50:0.5 51:10.75 52:0.25 54:7 56:1 60:1 68:1 88:1 
0.5 0 6:10 7:0.2564 8:39 9:13 17:19.5 18:2 19:2 20:6 21:15 22:3 24:2 25:6 26:15 27:3 29:6 31:6 32:0.4 33:15 34:1 42:15 43:1 44:1 45:3 46:5 49:0.5 50:1.5 51:2.5 60:1 73:1 
0.5 0.5 6:10 7:0.2564 8:39 9:13 17:19.5 18:2 19:2 20:6 21:15 22:3 24:2 25:6 26:15 27:3 29:6 31:11 32:0.3667 33:30 34:1 42:30 43:1 45:7 46:6 50:7 51:6 59:1 60:1 73:1 89:2 90:0.0513 91:0.0667 92:0.1091 
0 0.2340970058131749 6:11 7:0.1864 8:59 9:16 12:1 14:1 15:1 17:19.6667 18:3 20:7 21:18 22:3 25:7 26:18 27:3 29:6 31:6 32:0.6 33:10 40:1 42:10 43:1 44:1 45:2 46:3 47:1 49:1 50:2 51:3 52:1 55:1 56:1 60:1 75:1 
0.5 0 6:9 7:0.1579 8:57 14:2 17:28.5 18:2 20:8 21:10 22:4 25:2 26:2.5 27:1 31:11 32:0.5789 33:19 42:19 43:1 44:1 45:3 46:4 47:4 49:1 50:3 51:4 52:4 68:1 88:1 89:5 90:0.0877 91:0.2632 92:0.0968 
0.5 0 6:9 7:0.1579 8:57 14:2 17:28.5 18:2 20:8 21:10 22:4 25:2 26:2.5 27:1 31:5 32:5 33:1 42:1 43:1 46:1 51:0.2 56:1 57:1 68:1 88:1 
0.5 0.2614107263983898 6:11 7:0.3438 8:32 9:5 15:3 17:8 18:4 19:2 20:4 21:9 22:4 24:0.4 25:0.8 26:1.8 27:0.8 31:6 32:3 33:2 34:2 42:2 43:1 46:2 51:0.3333 54:2 55:1 59:1 60:1 67:1 
0.5 0 6:11 7:0.3438 8:32 9:5 15:3 17:8 18:4 19:2 20:4 21:9 22:4 24:0.4 25:0.8 26:1.8 27:0.8 31:11 32:0.6471 33:17 34:3 41:3 42:4.25 43:4 45:1 46:6 50:0.5 51:3 54:2 58:1 59:1 60:1 67:1 
0.5 0 6:11 7:0.3438 8:32 9:5 15:3 17:8 18:4 19:2 20:4 21:9 22:4 24:0.4 25:0.8 26:1.8 27:0.8 31:10 32:0.6667 33:15 34:2 42:7.5 43:2 45:3 46:2 47:2 50:3 51:2 52:2 54:1 60:1 67:1 89:4 90:0.125 91:0.2667 92:0.2491 93:1 94:0.0312 95:0.0667 96:0.0534 97:1 98:0.0312 99:0.0667 100:0.0534 
0.5 0 6:11 7:0.3438 8:32 9:5 15:3 17:8 18:4 19:2 20:4 21:9 22:4 24:0.4 25:0.8 26:1.8 27:0.8 31:8 32:0.8889 33:9 34:2 42:9 43:1 45:1 46:2 47:1 50:1 51:2 52:1 60:1 67:1 
0.5 0 6:11 7:0.3438 8:32 9:5 15:3 17:8 18:4 19:2 20:4 21:9 22:4 24:0.4 25:0.8 26:1.8 27:0.8 31:13 32:0.3095 33:42 34:7 39:1 41:1 42:21 43:2 44:1 45:9 46:9 47:3 49:1 50:9 51:9 52:3 54:1 60:1 67:1 89:5 90:0.1562 91:0.119 92:0.1494 93:2 94:0.0625 95:0.0476 96:0.0624 97:2 98:0.0625 99:0.0476 100:0.0624 
0.5 0 6:11 7:0.3438 8:32 9:5 15:3 17:8 18:4 19:2 20:4 21:9 22:4 24:0.4 25:0.8 26:1.8 27:0.8 31:9 32:0.8182 33:11 34:1 42:11 43:1 44:1 45:3 46:1 47:1 49:1 50:3 51:1 52:1 59:1 60:1 67:1 89:2 90:0.0625 91:0.1818 92:0.1136 93:1 94:0.0312 95:0.0909 96:0.068 97:1 98:0.0312 99:0.0909 100:0.068 
0.5 0 6:11 7:0.2619 8:42 9:1 17:21 18:2 20:5 21:13 22:1 23:1 25:1.6667 26:4.3333 27:0.3333 28:0.3333 31:7 32:0.4118 33:17 34:9 39:1 42:17 43:1 45:1 46:8 47:1 50:0.5 51:4 52:0.5 54:3 76:1 89:1 90:0.0238 91:0.0588 92:0.039 
0.5 0 6:11 7:0.2619 8:42 9:1 17:21 18:2 20:5 21:13 22:1 23:1 25:1.6667 26:4.3333 27:0.3333 28:0.3333 31:11 32:0.2973 33:37 34:8 39:1 42:18.5 43:2 44:1 45:4 46:10 47:3 49:0.5 50:2 51:5 52:1.5 54:2 76:1 89:4 90:0.0952 91:0.1081 92:0.1702 
0.5 0 6:11 7:0.2619 8:42 9:1 17:21 18:2 20:5 21:13 22:1 23:1 25:1.6667 26:4.3333 27:0.3333 28:0.3333 31:55 32:0.7432 33:74 34:6 39:2 42:37 43:2 44:1 45:17 46:18 47:5 49:0.5 50:8.5 51:9 52:2.5 54:3 56:1 76:1 89:9 90:0.2143 91:0.1216 92:0.2917 
0.5 0.5 6:7 7:0.4667 8:15 9:1 15:2 17:7.5 18:2 19:1 20:4 21:2 22:2 24:1 25:4 26:2 27:2 31:6 32:0.8571 33:7 34:1 42:7 43:1 46:2 51:2 54:1 58:1 60:1 67:1 89:1 90:0.0667 91:0.1429 92:0.124 
0.5 0 6:11 7:0.2245 8:49 9:11 10:1 12:1 13:1 14:2 17:24.5 18:2 19:1 20:8 21:20 22:4 24:0.1667 25:1.3333 26:3.3333 27:0.6667 29:5 31:7 32:0.5385 33:13 34:3 42:13 43:1 45:3 46:4 47:2 50:1 51:1.3333 52:0.6667 54:1 58:1 60:1 68:1 88:1 
0.5 0 6:11 7:0.2245 8:49 9:11 10:1 12:1 13:1 14:2 17:24.5 18:2 19:1 20:8 21:20 22:4 24:0.1667 25:1.3333 26:3.3333 27:0.6667 29:5 31:6 32:0.2143 33:28 34:4 36:1 42:14 43:2 45:4 46:5 47:1 50:4 51:5 52:1 59:1 60:1 68:1 88:1 89:4 90:0.0816 91:0.1429 92:0.0962 
0.5 0 6:7 7:0.1556 8:45 9:4 12:1 14:2 15:1 16:2 17:11.25 18:4 19:1 20:7 21:12 22:2 24:0.3333 25:2.3333 26:4 27:0.6667 29:2 31:8 32:0.1159 33:69 34:8 39:2 41:4 42:13.8 43:5 45:12 46:11 47:8 50:4 51:3.6667 52:2.6667 54:3 57:1 60:1 65:1 89:11 90:0.2444 91:0.1594 92:0.3365 93:1 94:0.0222 95:0.0145 96:0.0207 97:1 98:0.0222 99:0.0145 100:0.0207 
0.5 0 6:7 7:0.1556 8:45 9:4 12:1 14:2 15:1 16:2 17:11.25 18:4 19:1 20:7 21:12 22:2 24:0.3333 25:2.3333 26:4 27:0.6667 29:2 31:8 32:2.6667 33:3 41:1 42:3 43:1 46:2 51:2 56:1 58:1 60:1 65:1 
0.5 0.5 1:1 2:2 6:5 7:0.3125 8:16 9:9 14:1 15:4 17:4 18:4 19:1 20:3 21:3 22:1 24:1 25:3 26:3 27:1 29:2 30:1 31:13 32:0.2203 33:59 34:11 42:59 43:1 45:5 46:22 47:2 50:2.5 51:11 52:1 54:5 60:1 67:1 
0.5 0 1:1 2:2 6:5 7:0.3125 8:16 9:9 14:1 15:4 17:4 18:4 19:1 20:3 21:3 22:1 24:1 25:3 26:3 27:1 29:2 30:3 31:10 32:0.1639 33:61 34:7 42:30.5 43:2 45:10 46:22 47:3 50:10 51:22 52:3 54:5 60:1 67:1 89:1 90:0.0625 91:0.0164 92:0.0612 
0.5 0.5 6:5 7:0.3125 8:16 9:9 14:1 15:4 17:4 18:4 19:1 20:3 21:3 22:1 24:1 25:3 26:3 27:1 29:2 31:12 32:0.5217 33:23 34:5 39:1 42:23 43:1 45:5 46:3 47:1 50:5 51:3 52:1 54:4 59:1 60:1 67:1 89:2 90:0.125 91:0.087 92:0.1361 
0.5 0 6:7 7:0.5 8:14 9:2 15:1 17:7 18:2 20:2 21:2 22:2 25:2 26:2 27:2 31:6 32:0.4286 33:14 42:4.6667 43:3 45:3 46:4 50:0.5 51:0.6667 55:1 68:1 88:1 
0.5 0 6:9 7:0.1579 8:57 9:6 14:2 15:1 17:57 18:1 19:1 20:11 21:19 22:3 24:1 25:11 26:19 27:3 29:3 31:6 32:0.8571 33:7 42:7 43:1 45:1 46:2 47:1 50:0.2 51:0.4 52:0.2 57:1 60:1 68:1 88:1 89:5 90:0.0877 91:0.7143 92:0.308 93:2 94:0.0351 95:0.2857 96:0.0867 
0.5 0 1:1 2:2 6:11 7:0.1618 8:68 9:4 12:1 14:1 17:34 18:2 20:11 21:17 22:4 25:5.5 26:8.5 27:2 29:2 30:3 31:8 32:0.2424 33:33 34:5 42:33 43:1 45:2 46:17 50:2 51:17 54:4 55:1 56:1 60:1 69:1 89:2 90:0.0294 91:0.0606 92:0.1918 
0.5 0.5 6:6 7:0.4286 8:14 12:1 17:14 18:1 20:3 21:6 22:1 25:1 26:2 27:0.3333 31:7 32:0.3889 33:18 34:2 37:1 42:18 43:1 45:4 46:5 50:0.6667 51:0.8333 54:1 60:1 68:1 88:1 89:3 90:0.2143 91:0.1667 92:0.2545 
0.5 0.5 6:6 7:0.4286 8:14 12:1 17:14 18:1 20:3 21:6 22:1 25:1 26:2 27:0.3333 31:6 32:0.4 33:15 34:4 39:1 42:15 43:1 45:3 46:5 47:1 50:3 51:5 52:1 54:2 56:1 60:1 68:1 88:1 89:3 90:0.2143 91:0.2 92:0.2224 
0.5 0.3355419326249533 6:10 7:0.1639 8:61 9:7 10:2 12:1 15:1 16:1 17:12.2 18:5 19:1 20:14 21:13 22:9 24:1 25:14 26:13 27:9 29:2 31:7 32:0.4667 33:15 42:15 43:1 44:1 45:4 46:4 49:1 50:4 51:4 60:1 67:1 89:2 90:0.0328 91:0.1333 92:0.0942 
0.5 0 6:10 7:0.1639 8:61 9:7 10:2 12:1 15:1 16:1 17:12.2 18:5 19:1 20:14 21:13 22:9 24:1 25:14 26:13 27:9 29:2 31:7 32:0.4667 33:15 42:15 43:1 45:3 46:2 47:2 50:0.75 51:0.5 52:0.5 59:1 60:1 67:1 89:5 90:0.082 91:0.3333 92:0.1816 
0.5 0 6:9 7:0.45 8:20 9:3 15:1 17:10 18:2 20:3 21:5 22:1 25:3 26:5 27:1 29:2 31:8 32:0.2963 33:27 34:2 39:1 40:1 42:13.5 43:2 44:1 45:3 46:9 47:1 49:0.1429 50:0.4286 51:1.2857 52:0.1429 54:1 60:1 70:1 89:3 90:0.15 91:0.1111 92:0.125 
0.5 0 6:9 7:0.45 8:20 9:3 15:1 17:10 18:2 20:3 21:5 22:1 25:3 26:5 27:1 29:2 31:10 32:0.8333 33:12 34:4 40:1 42:12 43:1 45:2 46:5 47:1 50:2 51:5 52:1 54:3 60:1 70:1 89:2 90:0.1 91:0.1667 92:0.1491 
0.5 0 6:9 7:0.45 8:20 9:3 15:1 17:10 18:2 20:3 21:5 22:1 25:3 26:5 27:1 29:2 31:8 32:0.3636 33:22 34:2 42:22 43:1 44:1 45:3 46:5 47:1 49:1 50:3 51:5 52:1 54:1 60:1 70:1 
0.5 0 6:9 7:0.45 8:20 9:3 15:1 17:10 18:2 20:3 21:5 22:1 25:3 26:5 27:1 29:2 31:7 32:0.35 33:20 34:4 40:1 42:10 43:2 45:5 46:4 47:3 50:0.8333 51:0.6667 52:0.5 54:1 60:1 70:1 89:1 90:0.05 91:0.05 92:0.0589 
0.5 0.5 6:9 7:0.45 8:20 9:3 15:1 17:10 18:2 20:3 21:5 22:1 25:3 26:5 27:1 29:2 31:10 32:0.0529 33:189 34:19 35:1 39:3 40:1 42:18.9 43:10 44:3 45:31 46:44 47:11 49:3 50:31 51:44 52:11 54:4 60:1 70:1 89:4 90:0.2 91:0.0212 92:0.137 
0.5 0.07358303091923341 6:9 7:0.45 8:20 9:3 15:1 17:10 18:2 20:3 21:5 22:1 25:3 26:5 27:1 29:2 31:12 32:0.1412 33:85 34:5 42:14.1667 43:6 44:1 45:18 46:17 47:7 49:1 50:18 51:17 52:7 54:1 60:1 70:1 89:3 90:0.15 91:0.0353 92:0.1226 93:1 94:0.05 95:0.0118 96:0.0253 
0.5 0.5 6:9 7:0.45 8:20 9:3 15:1 17:10 18:2 20:3 21:5 22:1 25:3 26:5 27:1 29:2 31:6 32:0.75 33:8 42:8 43:1 45:1 46:3 47:2 50:0.1667 51:0.5 52:0.3333 60:1 70:1 89:1 90:0.05 91:0.125 92:0.0833 
0.5 0.5 6:9 7:0.45 8:20 9:3 15:1 17:10 18:2 20:3 21:5 22:1 25:3 26:5 27:1 29:2 31:7 32:1.1667 33:6 34:1 42:6 43:1 45:1 46:3 50:0.1429 51:0.4286 60:1 70:1 
0.5 0 6:9 7:0.45 8:20 9:3 15:1 17:10 18:2 20:3 21:5 22:1 25:3 26:5 27:1 29:2 31:7 32:7 33:1 34:1 42:1 43:1 45:1 50:0.1429 56:1 60:1 70:1 
0.5 0 1:1 2:2 6:14 7:0.8235 8:17 9:5 17:8.5 18:2 19:1 20:3 21:5 24:1 25:3 26:5 29:3 30:3 31:13 32:0.1781 33:73 34:10 40:2 42:14.6 43:5 45:10 46:23 47:2 50:10 51:23 52:2 54:5 55:1 59:1 60:1 69:1 89:4 90:0.2353 91:0.0548 92:0.2428 93:1 94:0.0588 95:0.0137 96:0.0536 
0.5 0 6:14 7:0.8235 8:17 9:5 17:8.5 18:2 19:1 20:3 21:5 24:1 25:3 26:5 29:3 31:11 32:0.275 33:40 34:11 42:13.3333 43:3 44:1 45:7 46:11 49:1 50:7 51:11 54:4 59:1 60:1 69:1 89:1 90:0.0588 91:0.025 92:0.0294 
0.5 0 6:14 7:0.8235 8:17 9:5 17:8.5 18:2 19:1 20:3 21:5 24:1 25:3 26:5 29:3 31:8 32:0.2 33:40 34:8 42:20 43:2 45:6 46:8 47:8 50:6 51:8 52:8 54:2 60:1 69:1 89:2 90:0.1176 91:0.05 92:0.0636 
0 0.002301675881331885 6:14 7:0.8235 8:17 9:5 17:8.5 18:2 19:1 20:3 21:5 24:1 25:3 26:5 29:3 31:8 32:0.3333 33:24 34:2 38:1 42:24 43:1 45:5 46:8 47:4 50:1.6667 51:2.6667 52:1.3333 60:1 69:1 89:1 90:0.0588 91:0.0417 92:0.0459 
0.5 0.5 6:14 7:0.8235 8:17 9:5 17:8.5 18:2 19:1 20:3 21:5 24:1 25:3 26:5 29:3 30:2 31:55 32:1.6176 33:34 34:5 42:34 43:1 45:8 46:11 47:3 50:8 51:11 52:3 54:1 60:1 69:1 
0.5 0 1:1 2:1 6:14 7:0.8235 8:17 9:5 17:8.5 18:2 19:1 20:3 21:5 24:1 25:3 26:5 29:3 30:5 31:9 32:0.1139 33:79 34:7 39:1 41:2 42:26.3333 43:3 44:1 45:13 46:36 47:3 49:0.3333 50:4.3333 51:12 52:1 54:1 56:1 60:1 69:1 89:4 90:0.2353 91:0.0506 92:0.2178 
0.5 0.5 6:11 7:0.3793 8:29 9:3 14:1 17:29 18:1 19:1 20:8 21:5 22:2 24:1 25:8 26:5 27:2 31:7 32:1 33:7 34:1 39:1 42:7 43:1 45:1 46:2 47:1 50:1 51:2 52:1 56:1 60:1 68:1 89:2 90:0.069 91:0.2857 92:0.14 
0.5 0.5 6:10 7:0.3448 8:29 9:3 14:1 15:3 17:7.25 18:4 19:2 20:5 21:8 24:2 25:5 26:8 29:1 31:8 32:0.4706 33:17 39:1 40:1 42:8.5 43:2 45:3 46:3 47:1 50:0.6 51:0.6 52:0.2 55:1 60:1 69:1 89:4 90:0.1379 91:0.2353 92:0.2321 
0.5 0 6:8 7:1.3333 8:6 17:6 18:1 20:1 21:2 25:0.2 26:0.4 31:1 32:0.3333 33:3 42:3 43:1 55:1 56:1 60:1 80:1 
0.5 0.1385676233728513 6:11 7:0.234 8:47 9:6 15:1 17:11.75 18:4 19:1 20:13 21:7 22:5 24:1 25:13 26:7 27:5 31:7 32:0.4667 33:15 34:1 42:15 43:1 45:3 46:3 47:1 50:1.5 51:1.5 52:0.5 58:1 60:1 70:1 89:2 90:0.0426 91:0.1333 92:0.0687 
0 0.04953855021081175 6:11 7:0.234 8:47 9:6 15:1 17:11.75 18:4 19:1 20:13 21:7 22:5 24:1 25:13 26:7 27:5 31:7 32:0.875 33:8 34:4 41:1 42:8 43:1 45:1 46:3 47:1 50:1 51:3 52:1 54:2 57:1 60:1 70:1 89:2 90:0.0426 91:0.25 92:0.2077 
0.5 0.5 6:11 7:0.1864 8:59 9:5 14:1 15:1 17:14.75 18:4 19:3 20:14 21:9 22:4 24:3 25:14 26:9 27:4 31:12 32:0.1111 33:108 34:10 35:1 39:1 40:1 41:1 42:10.8 43:10 44:1 45:18 46:28 47:3 49:0.1667 50:3 51:4.6667 52:0.5 54:1 57:1 58:1 59:1 60:1 73:1 89:19 90:0.322 91:0.1759 92:0.4786 93:6 94:0.1017 95:0.0556 96:0.1012 97:2 98:0.0339 99:0.0185 100:0.0393 
0.5 0.370915006184419 6:11 7:0.1864 8:59 9:5 14:1 15:1 17:14.75 18:4 19:3 20:14 21:9 22:4 24:3 25:14 26:9 27:4 31:6 32:1.2 33:5 42:5 43:1 46:3 51:3 59:1 60:1 73:1 
0.5 0 6:11 7:0.1864 8:59 9:5 14:1 15:1 17:14.75 18:4 19:3 20:14 21:9 22:4 24:3 25:14 26:9 27:4 31:5 32:0.4167 33:12 34:5 42:6 43:2 45:1 46:5 47:1 50:1 51:5 52:1 54:2 60:1 73:1 89:2 90:0.0339 91:0.1667 92:0.1111 93:2 94:0.0339 95:0.1667 96:0.1302 97:2 98:0.0339 99:0.1667 100:0.1325 
0 0.4705545333249544 6:6 7:0.375 8:16 9:3 15:2 17:8 18:2 19:1 20:2 21:2 22:1 24:1 25:2 26:2 27:1 29:1 31:9 32:1.5 33:6 34:1 39:1 40:1 42:6 43:1 44:1 45:2 47:1 49:1 50:2 52:1 57:1 60:1 68:1 88:1 89:1 90:0.0625 91:0.1667 92:0.1118 
0.5 0.4997275680875768 6:6 7:0.375 8:16 9:3 15:2 17:8 18:2 19:1 20:2 21:2 22:1 24:1 25:2 26:2 27:1 29:1 31:21 32:0.84 33:25 34:3 39:1 40:2 42:12.5 43:2 44:1 45:2 46:4 47:1 49:1 50:2 51:4 52:1 54:1 60:1 68:1 88:1 89:3 90:0.1875 91:0.12 92:0.2182 93:2 94:0.125 95:0.08 96:0.1166 97:1 98:0.0625 99:0.04 100:0.0583 
0.5 0.5 6:11 7:0.1746 8:63 9:8 14:2 17:15.75 18:4 19:1 20:10 21:22 22:1 24:1 25:10 26:22 27:1 29:1 31:9 32:0.2093 33:43 34:1 42:43 43:1 45:6 46:10 47:1 50:6 51:10 52:1 54:1 55:1 60:1 67:1 89:6 90:0.0952 91:0.1395 92:0.2627 
0.5 0 6:11 7:0.1746 8:63 9:8 14:2 17:15.75 18:4 19:1 20:10 21:22 22:1 24:1 25:10 26:22 27:1 29:1 31:5 32:0.3333 33:15 39:1 42:15 43:1 45:3 46:3 47:1 50:1 51:1 52:0.3333 60:1 67:1 89:5 90:0.0794 91:0.3333 92:0.2072 93:1 94:0.0159 95:0.0667 96:0.0611 
0.5 0.5 6:11 7:0.1746 8:63 9:8 14:2 17:15.75 18:4 19:1 20:10 21:22 22:1 24:1 25:10 26:22 27:1 29:1 31:11 32:0.1486 33:74 34:6 39:2 42:24.6667 43:3 45:10 46:19 47:6 50:10 51:19 52:6 54:1 59:1 60:1 67:1 89:7 90:0.1111 91:0.0946 92:0.1789 
0 0.5 6:11 7:0.1746 8:63 9:8 14:2 17:15.75 18:4 19:1 20:10 21:22 22:1 24:1 25:10 26:22 27:1 29:1 31:5 32:1 33:5 34:1 41:1 42:5 43:1 45:1 46:2 50:1 51:2 54:1 56:1 60:1 67:1 
0.5 0 6:10 7:0.1724 8:58 9:10 12:1 15:2 17:14.5 18:4 20:6 21:19 22:2 23:1 25:6 26:19 27:2 28:1 29:2 31:7 32:0.5 33:14 34:3 41:3 42:4.6667 43:3 45:1 46:5 47:2 50:1 51:5 52:2 54:2 56:1 60:1 71:1 89:4 90:0.069 91:0.2857 92:0.2083 93:1 94:0.0172 95:0.0714 96:0.0443 
0.5 0.5 6:8 7:0.4706 8:17 9:4 13:1 14:1 15:1 17:8.5 18:2 19:1 20:2 21:4 22:2 24:0.3333 25:0.6667 26:1.3333 27:0.6667 29:1 31:9 32:0.2368 33:38 34:1 42:38 43:1 44:1 45:9 46:7 47:1 49:0.2 50:1.8 51:1.4 52:0.2 54:1 55:1 60:1 68:1 89:4 90:0.2353 91:0.1053 92:0.1929 93:1 94:0.0588 95:0.0263 96:0.0417 
0.5 0.5 6:8 7:0.4706 8:17 9:4 13:1 14:1 15:1 17:8.5 18:2 19:1 20:2 21:4 22:2 24:0.3333 25:0.6667 26:1.3333 27:0.6667 29:1 31:12 32:0.1967 33:61 34:1 39:1 41:1 42:30.5 43:2 45:13 46:16 47:1 50:13 51:16 52:1 54:1 60:1 68:1 89:5 90:0.2941 91:0.082 92:0.1656 93:1 94:0.0588 95:0.0164 96:0.0347 
0.5 0.5 6:8 7:0.4706 8:17 9:4 13:1 14:1 15:1 17:8.5 18:2 19:1 20:2 21:4 22:2 24:0.3333 25:0.6667 26:1.3333 27:0.6667 29:1 31:7 32:0.5833 33:12 34:2 42:12 43:1 45:2 46:2 50:0.2857 51:0.2857 54:1 60:1 68:1 89:1 90:0.0588 91:0.0833 92:0.0693 
0.5 0.5 6:8 7:0.4706 8:17 9:4 13:1 14:1 15:1 17:8.5 18:2 19:1 20:2 21:4 22:2 24:0.3333 25:0.6667 26:1.3333 27:0.6667 29:1 31:11 32:0.3056 33:36 34:3 39:2 40:1 42:12 43:3 44:1 45:6 46:6 47:2 49:1 50:6 51:6 52:2 60:1 68:1 89:5 90:0.2941 91:0.1389 92:0.2433 
0.5 0.5 6:8 7:0.4706 8:17 9:4 13:1 14:1 15:1 17:8.5 18:2 19:1 20:2 21:4 22:2 24:0.3333 25:0.6667 26:1.3333 27:0.6667 29:1 31:10 32:0.9091 33:11 34:1 39:1 42:11 43:1 45:1 46:4 50:1 51:4 60:1 68:1 89:1 90:0.0588 91:0.0909 92:0.1508 
0.5 0.5 6:8 7:0.4706 8:17 9:4 13:1 14:1 15:1 17:8.5 18:2 19:1 20:2 21:4 22:2 24:0.3333 25:0.6667 26:1.3333 27:0.6667 29:1 31:10 32:1.4286 33:7 34:1 42:7 43:1 46:2 51:0.4 60:1 68:1 
0.5 0.2344007712546705 6:18 7:0.3273 8:55 9:5 14:1 15:1 17:18.3333 18:3 19:1 20:11 21:13 22:5 24:1 25:11 26:13 27:5 29:2 31:10 32:0.3226 33:31 34:3 38:1 42:31 43:1 44:1 45:10 46:7 47:4 49:0.1 50:1 51:0.7 52:0.4 60:1 62:1 89:5 90:0.0909 91:0.1613 92:0.2325 
0.5 0 6:18 7:0.3273 8:55 9:5 14:1 15:1 17:18.3333 18:3 19:1 20:11 21:13 22:5 24:1 25:11 26:13 27:5 29:2 31:7 32:0.3889 33:18 34:3 42:18 43:1 44:1 45:3 46:5 47:2 49:0.5 50:1.5 51:2.5 52:1 54:1 60:1 62:1 89:2 90:0.0364 91:0.1111 92:0.1111 
0.5 0 6:18 7:0.3273 8:55 9:5 14:1 15:1 17:18.3333 18:3 19:1 20:11 21:13 22:5 24:1 25:11 26:13 27:5 29:2 31:14 32:14 33:1 42:1 43:1 46:1 51:0.0714 60:1 62:1 
0.5 0 6:10 7:0.1786 8:56 9:6 14:3 15:2 17:14 18:4 20:5 21:19 22:1 25:5 26:19 27:1 29:1 31:11 32:0.44 33:25 34:4 39:1 42:25 43:1 45:4 46:7 50:4 51:7 55:1 57:1 59:1 75:1 89:6 90:0.1071 91:0.24 92:0.312 93:1 94:0.0179 95:0.04 96:0.0296 
0.5 0 6:10 7:0.1786 8:56 9:6 14:3 15:2 17:14 18:4 20:5 21:19 22:1 25:5 26:19 27:1 29:1 31:7 32:0.4667 33:15 34:2 39:1 40:1 42:7.5 43:2 45:2 46:4 50:0.4 51:0.8 59:1 75:1 89:2 90:0.0357 91:0.1333 92:0.1018 93:1 94:0.0179 95:0.0667 96:0.0741 97:1 98:0.0179 99:0.0667 100:0.0741 
0.5 0 6:10 7:0.1786 8:56 9:6 14:3 15:2 17:14 18:4 20:5 21:19 22:1 25:5 26:19 27:1 29:1 31:9 32:0.3333 33:27 34:4 39:1 42:13.5 43:2 45:6 46:7 47:2 50:6 51:7 52:2 58:1 75:1 89:3 90:0.0536 91:0.1111 92:0.1016 
0.5 0 6:10 7:0.1786 8:56 9:6 14:3 15:2 17:14 18:4 20:5 21:19 22:1 25:5 26:19 27:1 29:1 31:6 32:0.375 33:16 34:4 42:5.3333 43:3 45:4 46:1 47:3 50:4 51:1 52:3 75:1 
0.5 0 6:10 7:0.1786 8:56 9:6 14:3 15:2 17:14 18:4 20:5 21:19 22:1 25:5 26:19 27:1 29:1 31:7 32:0.4118 33:17 34:2 42:17 43:1 45:3 46:3 47:1 50:3 51:3 52:1 54:1 59:1 75:1 
0.5 0 6:10 7:0.1786 8:56 9:6 14:3 15:2 17:14 18:4 20:5 21:19 22:1 25:5 26:19 27:1 29:1 31:7 32:1.1667 33:6 34:1 42:6 43:1 45:2 46:1 50:2 51:1 54:1 58:1 75:1 89:2 90:0.0357 91:0.3333 92:0.1704 
0.5 0 6:11 7:0.6471 8:17 9:5 15:1 17:17 18:1 20:3 21:6 22:1 25:3 26:6 27:1 29:1 31:7 32:0.3684 33:19 34:3 42:9.5 43:2 45:4 46:2 47:3 50:4 51:2 52:3 55:1 60:1 67:1 
0.5 0 6:11 7:0.6471 8:17 9:5 15:1 17:17 18:1 20:3 21:6 22:1 25:3 26:6 27:1 29:1 31:13 32:0.2708 33:48 34:2 42:16 43:3 45:9 46:8 47:1 50:9 51:8 52:1 58:1 60:1 67:1 89:1 90:0.0588 91:0.0208 92:0.176 
0.5 0 6:11 7:0.6471 8:17 9:5 15:1 17:17 18:1 20:3 21:6 22:1 25:3 26:6 27:1 29:1 31:11 32:0.3667 33:30 34:8 40:1 41:1 42:7.5 43:4 45:5 46:7 47:3 50:1 51:1.4 52:0.6 54:3 59:1 60:1 67:1 89:2 90:0.1176 91:0.0667 92:0.101 
0.5 0 6:11 7:0.6471 8:17 9:5 15:1 17:17 18:1 20:3 21:6 22:1 25:3 26:6 27:1 29:1 31:13 32:0.115 33:113 34:33 36:1 39:1 41:6 42:12.5556 43:9 45:15 46:33 47:13 50:15 51:33 52:13 54:8 58:1 60:1 67:1 89:1 90:0.0588 91:0.0088 92:0.0778 
0.5 0 6:11 7:0.6471 8:17 9:5 15:1 17:17 18:1 20:3 21:6 22:1 25:3 26:6 27:1 29:1 31:11 32:0.3667 33:30 34:13 41:4 42:7.5 43:4 45:2 46:13 47:3 50:2 51:13 52:3 54:3 60:1 67:1 
0.5 0 6:11 7:0.6471 8:17 9:5 15:1 17:17 18:1 20:3 21:6 22:1 25:3 26:6 27:1 29:1 31:11 32:0.3235 33:34 34:11 41:2 42:11.3333 43:3 45:3 46:12 47:3 50:3 51:12 52:3 54:3 56:1 60:1 67:1 89:1 90:0.0588 91:0.0294 92:0.0505 
0.5 0.5 6:9 7:0.3 8:30 9:9 13:1 15:1 17:10 18:3 20:3 21:14 22:1 25:3 26:14 27:1 29:3 31:14 32:0.0881 33:159 34:7 39:2 42:159 43:1 44:2 45:31 46:32 47:12 49:2 50:31 51:32 52:12 54:2 55:1 57:1 60:1 79:1 89:9 90:0.3 91:0.0566 92:0.2757 93:1 94:0.0333 95:0.0063 96:0.0151 
0.5 0 6:9 7:0.3 8:30 9:9 13:1 15:1 17:10 18:3 20:3 21:14 22:1 25:3 26:14 27:1 29:3 31:8 32:0.3077 33:26 34:5 42:13 43:2 45:8 46:5 47:4 50:4 51:2.5 52:2 54:1 58:1 60:1 79:1 89:1 90:0.0333 91:0.0385 92:0.0357 
0.5 0.2318393248539005 6:9 7:0.3 8:30 9:9 13:1 15:1 17:10 18:3 20:3 21:14 22:1 25:3 26:14 27:1 29:3 31:9 32:1 33:9 34:2 42:9 43:1 45:2 46:4 50:0.5 51:1 54:1 59:1 60:1 79:1 89:1 90:0.0333 91:0.1111 92:0.063 
0 0.5 6:9 7:0.3 8:30 9:9 13:1 15:1 17:10 18:3 20:3 21:14 22:1 25:3 26:14 27:1 29:3 31:10 32:0.1149 33:87 34:1 35:1 39:1 42:87 43:1 44:3 45:13 46:16 47:4 49:1 50:4.3333 51:5.3333 52:1.3333 57:1 58:1 60:1 79:1 89:5 90:0.1667 91:0.0575 92:0.206 
0.5 0 6:9 7:0.3 8:30 9:9 13:1 15:1 17:10 18:3 20:3 21:14 22:1 25:3 26:14 27:1 29:3 31:7 32:0.875 33:8 42:8 43:1 45:1 46:4 50:0.1429 51:0.5714 58:1 60:1 79:1 89:2 90:0.0667 91:0.25 92:0.1336 
0.5 0.5 6:9 7:0.3 8:30 9:9 13:1 15:1 17:10 18:3 20:3 21:14 22:1 25:3 26:14 27:1 29:3 31:7 32:0.7 33:10 34:10 42:10 43:1 46:10 51:1.4286 54:1 60:1 79:1 
0.5 0 6:9 7:0.3 8:30 9:9 13:1 15:1 17:10 18:3 20:3 21:14 22:1 25:3 26:14 27:1 29:3 31:7 32:0.4667 33:15 34:1 39:1 42:15 43:1 45:3 46:6 47:1 50:1.5 51:3 52:0.5 56:1 60:1 79:1 89:2 90:0.0667 91:0.1333 92:0.0976 
0.5 0.5 6:13 7:0.1757 8:74 9:27 13:3 14:2 15:2 16:1 17:12.3333 18:6 20:13 21:19 22:11 25:13 26:19 27:11 29:6 31:9 32:3 33:3 34:1 42:3 43:1 45:1 46:1 50:0.1111 51:0.1111 54:1 55:1 56:1 60:1 67:1 
0.5 0.5 6:12 7:0.3529 8:34 9:4 15:1 17:34 18:1 19:1 20:6 21:8 22:1 24:1 25:6 26:8 27:1 29:2 31:5 32:0.3125 33:16 34:1 39:1 40:1 42:16 43:1 44:2 45:2 46:4 49:2 50:2 51:4 54:1 60:1 62:1 88:1 89:5 90:0.1471 91:0.3125 92:0.345 93:1 94:0.0294 95:0.0625 96:0.0886 
0.5 0 6:12 7:0.3529 8:34 9:4 15:1 17:34 18:1 19:1 20:6 21:8 22:1 24:1 25:6 26:8 27:1 29:2 31:4 32:0.4 33:10 34:2 40:1 42:10 43:1 44:1 45:2 46:2 47:1 49:1 50:2 51:2 52:1 60:1 62:1 88:1 89:1 90:0.0294 91:0.1 92:0.1054 
0 0.4293533720797236 6:11 7:0.2115 8:52 9:10 12:1 13:1 17:52 18:1 19:1 20:13 21:12 22:7 24:0.1667 25:2.1667 26:2 27:1.1667 29:2 31:8 32:0.4444 33:18 39:1 42:18 43:1 45:4 46:4 47:1 50:0.5714 51:0.5714 52:0.1429 57:1 60:1 73:1 89:4 90:0.0769 91:0.2222 92:0.1006 
0.5 0 6:10 7:0.4762 8:21 14:1 16:3 17:7 18:3 20:4 21:3 22:3 25:4 26:3 27:3 31:28 32:0.549 33:51 34:5 39:1 40:3 41:3 42:7.2857 43:7 45:9 46:11 47:4 50:9 51:11 52:4 55:1 60:1 74:1 88:1 89:1 90:0.0476 91:0.0196 92:0.0377 
0.5 0.5 6:10 7:0.4762 8:21 14:1 16:3 17:7 18:3 20:4 21:3 22:3 25:4 26:3 27:3 31:6 32:1.2 33:5 34:2 40:1 42:5 43:1 44:1 45:1 46:2 49:1 50:1 51:2 54:1 60:1 74:1 88:1 
0.5 0.4542610559050534 6:10 7:0.3125 8:32 9:2 14:2 15:1 17:16 18:2 20:8 21:9 22:1 25:8 26:9 27:1 29:1 31:11 32:0.3333 33:33 34:1 39:1 42:16.5 43:2 44:2 45:5 46:4 47:5 49:2 50:5 51:4 52:5 55:1 60:1 68:1 88:1 89:3 90:0.0938 91:0.0909 92:0.0818 
0.5 0.5 6:10 7:0.3125 8:32 9:2 14:2 15:1 17:16 18:2 20:8 21:9 22:1 25:8 26:9 27:1 29:1 31:13 32:0.25 33:52 34:1 39:2 42:52 43:1 45:8 46:12 47:5 50:8 51:12 52:5 57:1 58:1 60:1 68:1 88:1 89:7 90:0.2188 91:0.1346 92:0.3168 93:1 94:0.0312 95:0.0192 96:0.0244 
0 0.09824105441004097 6:20 7:0.6897 8:29 9:4 14:1 15:1 17:14.5 18:2 19:1 20:5 21:4 22:4 24:0.3333 25:1.6667 26:1.3333 27:1.3333 31:16 32:0.5 33:32 34:10 41:1 42:8 43:4 45:3 46:14 47:1 50:3 51:14 52:1 54:1 57:1 60:1 67:1 89:2 90:0.069 91:0.0625 92:0.1291 
0.5 0.5 6:16 7:0.2712 8:59 13:1 14:1 17:59 18:1 19:1 20:14 21:19 22:2 24:0.125 25:1.75 26:2.375 27:0.25 31:6 32:1 33:6 42:6 43:1 44:1 46:3 49:0.1667 51:0.5 60:1 68:1 88:1 89:2 90:0.0339 91:0.3333 92:0.088 
0.5 0.5 6:6 7:1 8:6 9:1 14:1 15:1 17:6 18:1 19:1 20:2 21:1 24:1 25:2 26:1 31:5 32:1 33:5 34:1 40:1 42:5 43:1 44:1 46:2 49:1 51:2 59:1 60:1 75:1 89:1 90:0.1667 91:0.2 92:0.2236 
0 0.3978801105934021 6:6 7:1 8:6 9:1 14:1 15:1 17:6 18:1 19:1 20:2 21:1 24:1 25:2 26:1 31:8 32:1 33:8 42:8 43:1 45:1 46:4 50:0.2 51:0.8 57:1 60:1 75:1 89:1 90:0.1667 91:0.125 92:0.1491 
0.5 0 6:10 7:0.1333 8:75 9:3 13:1 14:1 17:18.75 18:4 20:9 21:33 22:1 25:1.5 26:5.5 27:0.1667 29:3 31:10 32:0.2174 33:46 34:9 42:46 43:1 45:2 46:7 50:1 51:3.5 54:2 55:1 56:1 60:1 67:1 
0.5 0.4733129977551959 6:11 7:0.2619 8:42 9:3 14:3 15:1 17:21 18:2 19:1 20:9 21:10 22:2 24:1 25:9 26:10 27:2 31:9 32:0.1268 33:71 34:4 35:2 39:1 42:35.5 43:2 45:7 46:14 47:7 50:7 51:14 52:7 54:2 55:1 60:1 68:1 88:1 89:8 90:0.1905 91:0.1127 92:0.2496 93:1 94:0.0238 95:0.0141 96:0.0198 
0.5 0.4737366597748077 6:1 7:0.0526 8:19 15:19 17:1 18:19 31:7 32:3.5 33:2 34:1 42:2 43:1 46:1 51:1 54:1 55:1 56:1 60:1 69:1 
0.5 0 6:9 7:0.36 8:25 9:7 12:1 15:1 17:12.5 18:2 20:3 21:11 25:3 26:11 29:2 31:7 32:1.75 33:4 34:1 42:4 43:1 46:3 51:3 55:1 67:1 
0.5 0.5 6:9 7:0.5625 8:16 9:1 16:5 17:3.2 18:5 20:2 21:3 25:2 26:3 31:10 32:0.3704 33:27 34:4 42:9 43:3 45:3 46:8 47:2 50:3 51:8 52:2 54:1 60:1 71:1 89:2 90:0.125 91:0.0741 92:0.1183 
0.5 0.3915166333028361 6:9 7:0.3103 8:29 9:3 13:2 14:1 15:1 17:14.5 18:2 19:1 20:4 21:9 22:3 24:1 25:4 26:9 27:3 29:1 31:7 32:0.2258 33:31 34:2 39:1 42:15.5 43:2 45:4 46:7 47:4 50:2 51:3.5 52:2 54:1 55:1 60:1 61:1 88:1 89:2 90:0.069 91:0.0645 92:0.0938 
0.5 0 6:9 7:0.3103 8:29 9:3 13:2 14:1 15:1 17:14.5 18:2 19:1 20:4 21:9 22:3 24:1 25:4 26:9 27:3 29:1 31:8 32:0.5714 33:14 34:1 42:14 43:1 45:4 46:3 47:3 50:4 51:3 52:3 60:1 61:1 88:1 89:1 90:0.0345 91:0.0714 92:0.0799 
0.5 0.0289610765326219 6:12 7:0.3158 8:38 9:2 15:1 17:19 18:2 19:2 20:5 21:7 22:4 24:2 25:5 26:7 27:4 31:10 32:0.1852 33:54 34:8 37:1 42:54 43:1 45:3 46:10 47:1 50:1.5 51:5 52:0.5 54:3 55:1 60:1 75:1 89:3 90:0.0789 91:0.0556 92:0.0363 
0.5 0 6:12 7:0.3158 8:38 9:2 15:1 17:19 18:2 19:2 20:5 21:7 22:4 24:2 25:5 26:7 27:4 31:8 32:0.25 33:32 34:2 39:1 41:1 42:16 43:2 45:10 46:5 47:3 50:1.25 51:0.625 52:0.375 60:1 75:1 89:5 90:0.1316 91:0.1562 92:0.2251 
0.5 0 6:12 7:0.3158 8:38 9:2 15:1 17:19 18:2 19:2 20:5 21:7 22:4 24:2 25:5 26:7 27:4 31:6 32:0.3158 33:19 34:2 39:1 42:19 43:1 44:1 45:3 46:4 47:2 49:1 50:3 51:4 52:2 54:1 60:1 75:1 89:3 90:0.0789 91:0.1579 92:0.1837 
0.5 0 6:12 7:0.3158 8:38 9:2 15:1 17:19 18:2 19:2 20:5 21:7 22:4 24:2 25:5 26:7 27:4 31:6 32:0.6667 33:9 34:2 42:9 43:1 45:2 46:3 50:2 51:3 60:1 75:1 89:2 90:0.0526 91:0.2222 92:0.1132 
0.5 0 6:12 7:0.3158 8:38 9:2 15:1 17:19 18:2 19:2 20:5 21:7 22:4 24:2 25:5 26:7 27:4 31:6 32:0.75 33:8 34:2 42:8 43:1 45:1 46:4 47:3 50:0.1667 51:0.6667 52:0.5 60:1 75:1 
0.5 0.1384350886171962 6:12 7:0.3158 8:38 9:2 15:1 17:19 18:2 19:2 20:5 21:7 22:4 24:2 25:5 26:7 27:4 31:8 32:0.2 33:40 39:1 42:13.3333 43:3 44:3 45:11 46:7 47:5 49:3 50:11 51:7 52:5 60:1 75:1 89:9 90:0.2368 91:0.225 92:0.2965 93:1 94:0.0263 95:0.025 96:0.0282 
0.5 0 1:1 2:1 6:12 7:0.3158 8:38 9:2 15:1 17:19 18:2 19:2 20:5 21:7 22:4 24:2 25:5 26:7 27:4 30:1 31:4 32:0.3636 33:11 42:5.5 43:2 44:1 45:3 46:2 47:1 49:1 50:3 51:2 52:1 60:1 75:1 89:4 90:0.1053 91:0.3636 92:0.3397 93:1 94:0.0263 95:0.0909 96:0.0598 
0.5 0.06164057744099095 1:1 2:1 6:12 7:0.3158 8:38 9:2 15:1 17:19 18:2 19:2 20:5 21:7 22:4 24:2 25:5 26:7 27:4 30:1 31:42 32:6 33:7 34:2 42:7 43:1 46:6 51:6 54:1 60:1 75:1 
0.5 0.5 6:12 7:0.3158 8:38 9:2 15:1 17:19 18:2 19:2 20:5 21:7 22:4 24:2 25:5 26:7 27:4 31:6 32:1 33:6 34:1 42:6 43:1 45:1 46:2 47:1 50:1 51:2 52:1 54:1 58:1 60:1 75:1 
0.5 0.5 6:12 7:0.3158 8:38 9:2 15:1 17:19 18:2 19:2 20:5 21:7 22:4 24:2 25:5 26:7 27:4 31:23 32:1.2778 33:18 34:4 42:18 43:1 45:2 46:6 47:1 48:1 50:0.087 51:0.2609 52:0.0435 53:0.0435 54:1 59:1 60:1 75:1 89:5 90:0.1316 91:0.2778 92:0.2048 
0.5 0.5 6:12 7:0.3158 8:38 9:2 15:1 17:19 18:2 19:2 20:5 21:7 22:4 24:2 25:5 26:7 27:4 31:15 32:0.7143 33:21 42:21 43:1 45:5 46:3 47:3 50:1.6667 51:1 52:1 60:1 75:1 89:5 90:0.1316 91:0.2381 92:0.2251 
0.5 0.1270442622782241 6:12 7:0.3158 8:38 9:2 15:1 17:19 18:2 19:2 20:5 21:7 22:4 24:2 25:5 26:7 27:4 31:15 32:0.5172 33:29 39:1 40:1 42:29 43:1 45:6 46:3 47:3 50:6 51:3 52:3 60:1 75:1 89:5 90:0.1316 91:0.1724 92:0.2013 
0.5 0.06437259371072203 6:12 7:0.3158 8:38 9:2 15:1 17:19 18:2 19:2 20:5 21:7 22:4 24:2 25:5 26:7 27:4 31:7 32:0.3043 33:23 34:3 42:11.5 43:2 45:5 46:2 47:3 50:5 51:2 52:3 60:1 75:1 89:4 90:0.1053 91:0.1739 92:0.1487 
0.5 0 6:12 7:0.3158 8:38 9:2 15:1 17:19 18:2 19:2 20:5 21:7 22:4 24:2 25:5 26:7 27:4 31:10 32:0.3571 33:28 34:4 40:1 42:9.3333 43:3 45:4 46:8 47:2 50:4 51:8 52:2 54:1 56:1 60:1 75:1 89:2 90:0.0526 91:0.0714 92:0.0641 
0.5 0 6:12 7:0.2553 8:47 9:6 17:23.5 18:2 20:7 21:12 22:4 25:7 26:12 27:4 29:1 31:12 32:0.5 33:24 34:1 42:24 43:1 45:6 46:6 47:1 50:6 51:6 52:1 54:1 55:1 57:1 60:1 73:1 89:4 90:0.0851 91:0.1667 92:0.1508 
0.5 0 6:12 7:0.2553 8:47 9:6 17:23.5 18:2 20:7 21:12 22:4 25:7 26:12 27:4 29:1 31:6 32:0.24 33:25 34:3 42:25 43:1 45:3 46:5 47:2 50:1 51:1.6667 52:0.6667 54:1 58:1 60:1 73:1 89:3 90:0.0638 91:0.12 92:0.1633 
0.5 0 6:12 7:0.2553 8:47 9:6 17:23.5 18:2 20:7 21:12 22:4 25:7 26:12 27:4 29:1 31:7 32:1.1667 33:6 34:1 42:6 43:1 45:3 46:1 50:3 51:1 58:1 60:1 73:1 89:2 90:0.0426 91:0.3333 92:0.1265 93:1 94:0.0213 95:0.1667 96:0.0674 
0.5 0 6:12 7:0.2553 8:47 9:6 17:23.5 18:2 20:7 21:12 22:4 25:7 26:12 27:4 29:1 31:8 32:0.32 33:25 42:25 43:1 44:1 45:4 46:3 47:5 49:1 50:4 51:3 52:5 59:1 60:1 73:1 89:4 90:0.0851 91:0.16 92:0.118 
0.5 0.5 6:12 7:0.2553 8:47 9:6 17:23.5 18:2 20:7 21:12 22:4 25:7 26:12 27:4 29:1 31:20 32:0.2381 33:84 34:12 41:1 42:28 43:3 45:12 46:25 47:4 50:12 51:25 52:4 54:4 58:1 60:1 73:1 89:7 90:0.1489 91:0.0833 92:0.1633 
0.5 0 6:12 7:0.2553 8:47 9:6 17:23.5 18:2 20:7 21:12 22:4 25:7 26:12 27:4 29:1 31:7 32:0.5833 33:12 41:1 42:6 43:2 44:1 45:1 47:1 49:1 50:1 52:1 60:1 73:1 
0.5 0.5 6:12 7:0.2553 8:47 9:6 17:23.5 18:2 20:7 21:12 22:4 25:7 26:12 27:4 29:1 31:12 32:0.3158 33:38 39:1 42:38 43:1 44:1 45:5 46:12 47:3 49:1 50:5 51:12 52:3 60:1 73:1 89:4 90:0.0851 91:0.1053 92:0.1444 
0.5 0.5 2:1 6:12 7:0.2553 8:47 9:6 17:23.5 18:2 20:7 21:12 22:4 25:7 26:12 27:4 29:1 31:11 32:1.2222 33:9 42:9 43:1 46:5 47:1 51:1.25 52:0.25 60:1 73:1 
0.5 0.00241280700574379 6:12 7:0.2553 8:47 9:6 17:23.5 18:2 20:7 21:12 22:4 25:7 26:12 27:4 29:1 31:7 32:0.875 33:8 34:3 39:1 40:1 42:8 43:1 46:4 51:4 54:1 58:1 59:1 60:1 73:1 89:1 90:0.0213 91:0.125 92:0.0535 
0.5 0 6:12 7:0.2553 8:47 9:6 17:23.5 18:2 20:7 21:12 22:4 25:7 26:12 27:4 29:1 31:7 32:0.4667 33:15 34:1 35:1 39:1 40:1 42:15 43:1 45:1 46:5 47:2 50:1 51:5 52:2 60:1 73:1 89:1 90:0.0213 91:0.0667 92:0.0784 
0.5 0 6:12 7:0.2553 8:47 9:6 17:23.5 18:2 20:7 21:12 22:4 25:7 26:12 27:4 29:1 31:7 32:0.7 33:10 39:1 42:10 43:1 45:2 46:1 47:1 50:2 51:1 52:1 59:1 60:1 73:1 
0.5 0.5 6:8 7:0.3077 8:26 9:5 14:1 15:3 16:2 17:5.2 18:5 20:5 21:9 22:1 25:5 26:9 27:1 29:2 31:6 32:1.2 33:5 42:5 43:1 46:2 51:2 55:1 60:1 73:1 
0.5 0.5 6:7 7:0.5 8:14 9:1 17:14 18:1 19:2 20:4 21:2 22:2 24:2 25:4 26:2 27:2 31:7 32:0.875 33:8 34:7 39:1 40:1 42:8 43:1 44:1 46:6 49:1 51:6 54:1 60:1 70:1 88:1 
0.5 0.5 6:11 7:0.125 8:88 9:8 10:1 13:1 15:1 17:22 18:4 19:1 20:14 21:20 22:4 24:0.1667 25:2.3333 26:3.3333 27:0.6667 29:2 31:13 32:0.1182 33:110 34:12 35:1 39:1 40:1 42:15.7143 43:7 44:1 45:16 46:28 47:6 49:1 50:16 51:28 52:6 54:3 60:1 67:1 89:18 90:0.2045 91:0.1636 92:0.4716 93:7 94:0.0795 95:0.0636 96:0.0886 97:3 98:0.0341 99:0.0273 100:0.0315 
0.5 0 6:11 7:0.125 8:88 9:8 10:1 13:1 15:1 17:22 18:4 19:1 20:14 21:20 22:4 24:0.1667 25:2.3333 26:3.3333 27:0.6667 29:2 31:10 32:0.1695 33:59 34:3 39:1 42:19.6667 43:3 44:1 45:9 46:14 47:1 49:1 50:9 51:14 52:1 60:1 67:1 89:6 90:0.0682 91:0.1017 92:0.2594 
0.5 0.5 6:11 7:0.125 8:88 9:8 10:1 13:1 15:1 17:22 18:4 19:1 20:14 21:20 22:4 24:0.1667 25:2.3333 26:3.3333 27:0.6667 29:2 31:7 32:0.2059 33:34 34:8 42:8.5 43:4 45:5 46:10 47:1 50:2.5 51:5 52:0.5 54:4 60:1 67:1 89:9 90:0.1023 91:0.2647 92:0.3496 93:3 94:0.0341 95:0.0882 96:0.083 97:1 98:0.0114 99:0.0294 100:0.0347 
0.5 0.5 6:11 7:0.125 8:88 9:8 10:1 13:1 15:1 17:22 18:4 19:1 20:14 21:20 22:4 24:0.1667 25:2.3333 26:3.3333 27:0.6667 29:2 31:8 32:0.1739 33:46 34:3 42:15.3333 43:3 44:1 45:12 46:4 47:9 49:1 50:12 51:4 52:9 59:1 60:1 67:1 89:9 90:0.1023 91:0.1957 92:0.2736 93:1 94:0.0114 95:0.0217 96:0.015 
0.5 0.5 6:11 7:0.125 8:88 9:8 10:1 13:1 15:1 17:22 18:4 19:1 20:14 21:20 22:4 24:0.1667 25:2.3333 26:3.3333 27:0.6667 29:2 31:12 32:0.4 33:30 34:1 35:1 42:15 43:2 44:1 45:5 46:8 47:2 49:1 50:5 51:8 52:2 59:1 60:1 67:1 89:7 90:0.0795 91:0.2333 92:0.2216 
0.3965607991672451 0 1:1 2:1 6:11 7:0.125 8:88 9:8 10:1 13:1 15:1 17:22 18:4 19:1 20:14 21:20 22:4 24:0.1667 25:2.3333 26:3.3333 27:0.6667 29:2 30:1 31:8 32:0.3636 33:22 42:22 43:1 44:1 45:2 46:10 49:1 50:2 51:10 58:1 60:1 67:1 89:4 90:0.0455 91:0.1818 92:0.24 93:1 94:0.0114 95:0.0455 96:0.0232 
0.5 0.5 6:11 7:0.125 8:88 9:8 10:1 13:1 15:1 17:22 18:4 19:1 20:14 21:20 22:4 24:0.1667 25:2.3333 26:3.3333 27:0.6667 29:2 30:2 31:57 32:1.5 33:38 34:2 42:19 43:2 44:1 45:8 46:13 47:1 49:1 50:8 51:13 52:1 60:1 67:1 89:4 90:0.0455 91:0.1053 92:0.1939 
0.5 0 1:1 2:2 6:11 7:0.125 8:88 9:8 10:1 13:1 15:1 17:22 18:4 19:1 20:14 21:20 22:4 24:0.1667 25:2.3333 26:3.3333 27:0.6667 29:2 30:3 31:10 32:0.1493 33:67 34:7 39:1 42:33.5 43:2 44:1 45:10 46:24 47:3 49:1 50:10 51:24 52:3 54:4 60:1 67:1 89:14 90:0.1591 91:0.209 92:0.395 93:3 94:0.0341 95:0.0448 96:0.0476 
0.5 0.5 6:11 7:0.125 8:88 9:8 10:1 13:1 15:1 17:22 18:4 19:1 20:14 21:20 22:4 24:0.1667 25:2.3333 26:3.3333 27:0.6667 29:2 31:10 32:0.5882 33:17 42:17 43:1 45:2 46:7 50:0.3333 51:1.1667 60:1 67:1 89:5 90:0.0568 91:0.2941 92:0.2753 93:1 94:0.0114 95:0.0588 96:0.0238 
0.5 0.5 6:11 7:0.125 8:88 9:8 10:1 13:1 15:1 17:22 18:4 19:1 20:14 21:20 22:4 24:0.1667 25:2.3333 26:3.3333 27:0.6667 29:2 31:6 32:1 33:6 35:1 42:6 43:1 46:4 51:1 60:1 67:1 89:2 90:0.0227 91:0.3333 92:0.1561 
0.5 0.5 6:11 7:0.125 8:88 9:8 10:1 13:1 15:1 17:22 18:4 19:1 20:14 21:20 22:4 24:0.1667 25:2.3333 26:3.3333 27:0.6667 29:2 31:10 32:0.0699 33:143 34:11 35:1 42:15.8889 43:9 44:1 45:20 46:32 47:8 49:1 50:20 51:32 52:8 54:3 60:1 67:1 89:21 90:0.2386 91:0.1469 92:0.4327 93:3 94:0.0341 95:0.021 96:0.0364 97:1 98:0.0114 99:0.007 100:0.0096 
0.5 0.5 6:11 7:0.125 8:88 9:8 10:1 13:1 15:1 17:22 18:4 19:1 20:14 21:20 22:4 24:0.1667 25:2.3333 26:3.3333 27:0.6667 29:2 31:8 32:0.1633 33:49 34:5 42:16.3333 43:3 44:1 45:10 46:12 47:4 49:1 50:10 51:12 52:4 54:1 60:1 67:1 89:6 90:0.0682 91:0.1224 92:0.3524 93:1 94:0.0114 95:0.0204 96:0.0306 
0.5 0 6:11 7:0.125 8:88 9:8 10:1 13:1 15:1 17:22 18:4 19:1 20:14 21:20 22:4 24:0.1667 25:2.3333 26:3.3333 27:0.6667 29:2 31:6 32:0.2609 33:23 34:3 42:11.5 43:2 45:2 46:4 47:5 50:2 51:4 52:5 60:1 67:1 89:2 90:0.0227 91:0.087 92:0.0698 
0.5 0.5 6:11 7:0.125 8:88 9:8 10:1 13:1 15:1 17:22 18:4 19:1 20:14 21:20 22:4 24:0.1667 25:2.3333 26:3.3333 27:0.6667 29:2 30:1 31:10 32:0.1075 33:93 34:11 35:1 41:3 42:13.2857 43:7 45:12 46:27 47:1 48:1 50:2.4 51:5.4 52:0.2 53:0.2 54:9 60:1 67:1 89:9 90:0.1023 91:0.0968 92:0.265 93:2 94:0.0227 95:0.0215 96:0.0362 
0.5 0.4802496504381003 6:11 7:0.125 8:88 9:8 10:1 13:1 15:1 17:22 18:4 19:1 20:14 21:20 22:4 24:0.1667 25:2.3333 26:3.3333 27:0.6667 29:2 31:6 32:1 33:6 34:1 39:1 42:6 43:1 45:2 50:2 60:1 67:1 89:2 90:0.0227 91:0.3333 92:0.0684 
0.5 0.4998282085859166 6:13 7:0.2241 8:58 9:15 13:1 14:1 15:1 17:29 18:2 20:12 21:15 22:3 25:12 26:15 27:3 29:5 31:3 32:3 33:1 42:1 43:1 46:1 51:0.3333 55:1 56:1 60:1 62:1 
0.5 0.5 6:12 7:0.3077 8:39 9:9 14:1 17:13 18:3 19:1 20:4 21:13 22:3 24:1 25:4 26:13 27:3 29:4 31:7 32:1.4 33:5 34:1 40:1 42:5 43:1 46:2 51:2 54:1 55:1 60:1 78:1 88:1 
0.5 0.06121619766207959 6:9 7:1.125 8:8 9:5 15:1 17:8 18:1 19:1 20:1 21:4 24:1 25:1 26:4 29:2 31:10 32:0.1961 33:51 34:8 39:1 42:17 43:3 44:2 45:10 46:11 47:4 49:0.4 50:2 51:2.2 52:0.8 54:5 57:1 60:1 68:1 88:1 89:3 90:0.375 91:0.0588 92:0.2958 
0.5 0.5 6:6 7:0.2857 8:21 9:1 15:3 17:5.25 18:4 20:2 21:8 25:2 26:8 31:9 32:0.4091 33:22 34:1 39:1 42:22 43:1 45:3 46:7 47:2 50:0.3333 51:0.7778 52:0.2222 54:1 55:1 60:1 65:1 89:7 90:0.3333 91:0.3182 92:0.3796 93:2 94:0.0952 95:0.0909 96:0.1085 97:1 98:0.0476 99:0.0455 100:0.0542 
0.5 0.1155522505650405 6:6 7:0.2857 8:21 9:1 15:3 17:5.25 18:4 20:2 21:8 25:2 26:8 31:5 32:2.5 33:2 40:1 42:2 43:1 46:1 51:1 60:1 65:1 89:1 90:0.0476 91:0.5 92:0.2425 
0.5 0.477573720216409 6:6 7:0.2857 8:21 9:1 15:3 17:5.25 18:4 20:2 21:8 25:2 26:8 31:6 32:0.6667 33:9 34:1 38:1 42:9 43:1 44:1 45:3 46:2 47:1 49:0.3333 50:1 51:0.6667 52:0.3333 56:1 60:1 65:1 89:1 90:0.0476 91:0.1111 92:0.0808 
0.5 0.4217810505847125 6:9 7:0.12 8:75 9:13 16:4 17:12.5 18:6 19:1 20:11 21:20 22:7 24:0.3333 25:3.6667 26:6.6667 27:2.3333 29:3 31:8 32:4 33:2 34:2 42:2 43:1 46:1 51:0.25 54:2 55:1 60:1 70:1 
0.5 0 6:9 7:0.12 8:75 9:13 16:4 17:12.5 18:6 19:1 20:11 21:20 22:7 24:0.3333 25:3.6667 26:6.6667 27:2.3333 29:3 31:10 32:0.1408 33:71 34:4 38:1 42:17.75 43:4 45:12 46:18 47:7 50:1.5 51:2.25 52:0.875 54:1 60:1 70:1 89:18 90:0.24 91:0.2535 92:0.4186 93:6 94:0.08 95:0.0845 96:0.0889 97:1 98:0.0133 99:0.0141 100:0.0148 
0.5 0 6:12 7:0.1818 8:66 9:5 14:1 17:22 18:3 19:1 20:14 21:17 22:7 24:1 25:14 26:17 27:7 29:2 31:12 32:0.2857 33:42 34:3 35:1 39:2 42:14 43:3 45:9 46:10 47:1 50:9 51:10 52:1 54:1 57:1 60:1 62:1 89:15 90:0.2273 91:0.3571 92:0.4437 93:6 94:0.0909 95:0.1429 96:0.1153 97:4 98:0.0606 99:0.0952 100:0.0801 
0.5 0.5 6:12 7:0.1818 8:66 9:5 14:1 17:22 18:3 19:1 20:14 21:17 22:7 24:1 25:14 26:17 27:7 29:2 31:12 32:0.1667 33:72 34:4 39:3 42:36 43:2 44:1 45:20 46:17 47:8 49:1 50:20 51:17 52:8 57:1 60:1 62:1 89:14 90:0.2121 91:0.1944 92:0.2686 
0.5 0.2112370657383171 6:12 7:0.1818 8:66 9:5 14:1 17:22 18:3 19:1 20:14 21:17 22:7 24:1 25:14 26:17 27:7 29:2 31:10 32:0.303 33:33 34:2 42:16.5 43:2 45:7 46:8 47:5 50:7 51:8 52:5 54:1 58:1 59:1 60:1 62:1 89:2 90:0.0303 91:0.0606 92:0.0679 
0.5 0 6:12 7:0.1818 8:66 9:5 14:1 17:22 18:3 19:1 20:14 21:17 22:7 24:1 25:14 26:17 27:7 29:2 31:12 32:0.2449 33:49 34:2 39:2 42:24.5 43:2 45:10 46:9 47:7 50:10 51:9 52:7 57:1 60:1 62:1 89:11 90:0.1667 91:0.2245 92:0.3842 93:4 94:0.0606 95:0.0816 96:0.0726 97:1 98:0.0152 99:0.0204 100:0.0184 
0.5 0.5 6:12 7:0.1667 8:72 9:19 12:1 13:1 15:2 17:18 18:4 19:3 20:11 21:24 22:1 24:3 25:11 26:24 27:1 29:8 31:7 32:0.7 33:10 34:2 39:1 42:5 43:2 44:1 45:2 46:1 47:1 49:0.2 50:0.4 51:0.2 52:0.2 58:1 60:1 76:1 89:2 90:0.0278 91:0.2 92:0.0968 
0.5 0.5 6:12 7:0.1667 8:72 9:19 12:1 13:1 15:2 17:18 18:4 19:3 20:11 21:24 22:1 24:3 25:11 26:24 27:1 29:8 31:9 32:0.3913 33:23 34:1 42:11.5 43:2 44:1 45:3 46:6 47:2 49:0.2 50:0.6 51:1.2 52:0.4 56:1 60:1 76:1 89:3 90:0.0417 91:0.1304 92:0.1557 93:1 94:0.0139 95:0.0435 96:0.0646 
0.5 0.5 6:13 7:0.4333 8:30 9:8 14:2 17:10 18:3 19:1 20:6 21:9 22:1 24:1 25:6 26:9 27:1 29:3 31:8 32:0.5 33:16 34:1 39:2 42:16 43:1 45:3 46:3 47:2 50:3 51:3 52:2 60:1 78:1 88:1 
0.5 0.5 6:9 7:0.375 8:24 9:4 12:1 14:1 15:1 17:12 18:2 19:1 20:1 21:9 22:2 24:1 25:1 26:9 27:2 29:1 31:8 32:0.8 33:10 34:2 37:1 41:1 42:3.3333 43:3 45:1 46:2 50:1 51:2 60:1 82:1 88:1 89:1 90:0.0417 91:0.1 92:0.087 
0.132676667932041 0.158872132402545 6:9 7:0.375 8:24 9:4 12:1 14:1 15:1 17:12 18:2 19:1 20:1 21:9 22:2 24:1 25:1 26:9 27:2 29:1 31:8 32:1.3333 33:6 37:1 42:6 43:1 45:2 46:1 47:1 50:0.5 51:0.25 52:0.25 60:1 82:1 88:1 
0.5 0.5 6:9 7:0.375 8:24 9:4 12:1 14:1 15:1 17:12 18:2 19:1 20:1 21:9 22:2 24:1 25:1 26:9 27:2 29:1 31:10 32:0.3846 33:26 34:5 37:1 42:13 43:2 45:6 46:3 47:3 50:6 51:3 52:3 60:1 82:1 88:1 89:2 90:0.0833 91:0.0769 92:0.1672 
0.5 0.5 6:10 7:0.4167 8:24 9:8 17:24 18:1 20:4 21:9 22:3 25:4 26:9 27:3 29:3 31:13 32:0.2708 33:48 39:1 42:24 43:2 45:9 46:17 47:2 50:9 51:17 52:2 59:1 60:1 77:1 88:1 89:2 90:0.0833 91:0.0417 92:0.0515 
0.5 0.5 6:10 7:0.4167 8:24 9:8 17:24 18:1 20:4 21:9 22:3 25:4 26:9 27:3 29:3 31:11 32:0.193 33:57 34:17 40:3 42:14.25 43:4 45:5 46:25 47:2 50:5 51:25 52:2 54:10 57:1 60:1 77:1 88:1 89:7 90:0.2917 91:0.1228 92:0.3354 93:1 94:0.0417 95:0.0175 96:0.0305 
0.5 0.5 6:10 7:0.4167 8:24 9:8 17:24 18:1 20:4 21:9 22:3 25:4 26:9 27:3 29:3 31:10 32:0.3125 33:32 34:3 39:1 42:16 43:2 45:6 46:11 47:3 50:6 51:11 52:3 56:1 58:1 60:1 77:1 88:1 89:5 90:0.2083 91:0.1562 92:0.1733 93:1 94:0.0417 95:0.0312 96:0.0389 97:1 98:0.0417 99:0.0312 100:0.0389 
0.5 0 6:8 7:0.7273 8:11 14:1 15:1 17:11 18:1 20:2 21:4 25:2 26:4 31:7 32:0.7778 33:9 34:1 42:9 43:1 45:2 46:2 47:2 50:2 51:2 52:2 54:1 55:1 71:1 88:1 
0.5 0 6:8 7:0.7273 8:11 14:1 15:1 17:11 18:1 20:2 21:4 25:2 26:4 31:7 32:0.25 33:28 39:1 40:1 42:28 43:1 45:4 46:9 47:1 50:4 51:9 52:1 56:1 57:1 71:1 88:1 89:4 90:0.3636 91:0.1429 92:0.4842 93:3 94:0.2727 95:0.1071 96:0.2349 97:2 98:0.1818 99:0.0714 100:0.1217 
0.5 0.4991020350016588 6:11 7:0.3929 8:28 9:3 15:2 17:9.3333 18:3 20:6 21:3 22:3 25:6 26:3 27:3 31:5 32:1.25 33:4 34:1 41:1 42:4 43:1 45:1 47:1 50:1 52:1 60:1 68:1 
0.5 0 6:11 7:0.3929 8:28 9:3 15:2 17:9.3333 18:3 20:6 21:3 22:3 25:6 26:3 27:3 31:9 32:0.5625 33:16 34:4 40:2 42:8 43:2 45:1 46:4 50:1 51:4 54:1 59:1 60:1 68:1 89:1 90:0.0357 91:0.0625 92:0.0806 
0.5 0.5 6:11 7:0.3929 8:28 9:3 15:2 17:9.3333 18:3 20:6 21:3 22:3 25:6 26:3 27:3 31:11 32:0.44 33:25 34:1 42:25 43:1 45:5 46:5 47:4 50:2.5 51:2.5 52:2 58:1 60:1 68:1 89:4 90:0.1429 91:0.16 92:0.1818 
0.5 0.5 6:11 7:0.3929 8:28 9:3 15:2 17:9.3333 18:3 20:6 21:3 22:3 25:6 26:3 27:3 31:9 32:0.3214 33:28 34:1 39:1 42:28 43:1 45:7 46:6 47:3 50:7 51:6 52:3 60:1 68:1 89:3 90:0.1071 91:0.1071 92:0.1358 
0.5 0 6:11 7:0.3929 8:28 9:3 15:2 17:9.3333 18:3 20:6 21:3 22:3 25:6 26:3 27:3 31:10 32:0.4167 33:24 34:1 40:1 42:24 43:1 44:1 45:4 46:5 47:2 49:1 50:4 51:5 52:2 56:1 60:1 68:1 89:3 90:0.1071 91:0.125 92:0.1543 93:1 94:0.0357 95:0.0417 96:0.0435 97:1 98:0.0357 99:0.0417 100:0.0435 
0.5 0 6:14 7:0.2917 8:48 9:9 14:2 15:1 17:12 18:4 19:1 20:8 21:12 22:4 24:0.1667 25:1.3333 26:2 27:0.6667 29:3 31:8 32:1 33:8 34:1 40:1 42:8 43:1 44:1 45:2 46:1 47:2 49:1 50:2 51:1 52:2 55:1 59:1 60:1 62:1 89:2 90:0.0417 91:0.25 92:0.0976 
0.5 0 6:14 7:0.2917 8:48 9:9 14:2 15:1 17:12 18:4 19:1 20:8 21:12 22:4 24:0.1667 25:1.3333 26:2 27:0.6667 29:3 31:11 32:0.3143 33:35 34:5 39:1 42:17.5 43:2 45:8 46:10 47:3 50:8 51:10 52:3 54:3 57:1 60:1 62:1 89:10 90:0.2083 91:0.2857 92:0.3135 93:4 94:0.0833 95:0.1143 96:0.1661 97:2 98:0.0417 99:0.0571 100:0.1246 
0.5 0 6:14 7:0.2917 8:48 9:9 14:2 15:1 17:12 18:4 19:1 20:8 21:12 22:4 24:0.1667 25:1.3333 26:2 27:0.6667 29:3 31:7 32:0.3043 33:23 42:23 43:1 44:1 45:3 47:1 49:0.3333 50:1 52:0.3333 59:1 60:1 62:1 89:3 90:0.0625 91:0.1304 92:0.0271 
0.5 0.5 6:14 7:0.2917 8:48 9:9 14:2 15:1 17:12 18:4 19:1 20:8 21:12 22:4 24:0.1667 25:1.3333 26:2 27:0.6667 29:3 31:14 32:0.1609 33:87 34:5 39:2 42:21.75 43:4 44:1 45:19 46:18 47:5 49:1 50:19 51:18 52:5 54:1 57:1 60:1 62:1 89:20 90:0.4167 91:0.2299 92:0.5312 93:8 94:0.1667 95:0.092 96:0.1604 97:2 98:0.0417 99:0.023 100:0.0332 
0.5 0.3797947130857247 6:16 7:0.2857 8:56 9:8 14:1 15:6 17:8 18:7 19:1 20:11 21:12 22:1 24:1 25:11 26:12 27:1 29:3 31:5 32:1.25 33:4 34:3 42:4 43:1 46:2 51:2 54:2 60:1 69:1 
0.5 0.4350633866277353 6:16 7:0.2857 8:56 9:8 14:1 15:6 17:8 18:7 19:1 20:11 21:12 22:1 24:1 25:11 26:12 27:1 29:3 31:8 32:1 33:8 34:3 42:4 43:2 45:2 46:2 50:0.25 51:0.25 60:1 69:1 89:2 90:0.0357 91:0.25 92:0.101 
0.5 0.02750209389783674 6:16 7:0.2857 8:56 9:8 14:1 15:6 17:8 18:7 19:1 20:11 21:12 22:1 24:1 25:11 26:12 27:1 29:3 31:11 32:5.5 33:2 34:2 42:2 43:1 46:1 51:0.0909 54:1 60:1 69:1 
0.5 0.5 6:16 7:0.2857 8:56 9:8 14:1 15:6 17:8 18:7 19:1 20:11 21:12 22:1 24:1 25:11 26:12 27:1 29:3 31:11 32:0.6111 33:18 34:6 42:6 43:3 45:3 46:5 50:0.3333 51:0.5556 54:4 59:1 60:1 69:1 89:4 90:0.0714 91:0.2222 92:0.2205 
0 0.2478502678794995 6:16 7:0.2857 8:56 9:8 14:1 15:6 17:8 18:7 19:1 20:11 21:12 22:1 24:1 25:11 26:12 27:1 29:3 31:11 32:0.2157 33:51 34:9 37:1 42:51 43:1 44:1 45:9 46:19 47:2 49:0.0909 50:0.8182 51:1.7273 52:0.1818 54:5 57:1 60:1 69:1 89:8 90:0.1429 91:0.1569 92:0.2124 
0.5 0 6:16 7:0.2857 8:56 9:8 14:1 15:6 17:8 18:7 19:1 20:11 21:12 22:1 24:1 25:11 26:12 27:1 29:3 31:11 32:1.1 33:10 34:1 38:1 39:1 42:10 43:1 45:2 46:3 47:2 50:2 51:3 52:2 58:1 60:1 69:1 89:2 90:0.0357 91:0.2 92:0.0891 
0.5 0 6:16 7:0.2857 8:56 9:8 14:1 15:6 17:8 18:7 19:1 20:11 21:12 22:1 24:1 25:11 26:12 27:1 29:3 31:9 32:0.2308 33:39 34:6 39:2 41:1 42:13 43:3 45:7 46:4 47:5 50:7 51:4 52:5 54:1 60:1 69:1 89:7 90:0.125 91:0.1795 92:0.2015 
0.5 0 6:16 7:0.2857 8:56 9:8 14:1 15:6 17:8 18:7 19:1 20:11 21:12 22:1 24:1 25:11 26:12 27:1 29:3 31:9 32:0.9 33:10 34:1 42:10 43:1 45:2 46:3 47:2 50:2 51:3 52:2 60:1 69:1 89:2 90:0.0357 91:0.2 92:0.1336 
0.5 0 6:16 7:0.2857 8:56 9:8 14:1 15:6 17:8 18:7 19:1 20:11 21:12 22:1 24:1 25:11 26:12 27:1 29:3 31:11 32:0.2895 33:38 34:5 41:1 42:12.6667 43:3 44:1 45:8 46:8 47:7 49:1 50:8 51:8 52:7 54:1 60:1 69:1 89:4 90:0.0714 91:0.1053 92:0.1223 
0.5 0 6:16 7:0.2857 8:56 9:8 14:1 15:6 17:8 18:7 19:1 20:11 21:12 22:1 24:1 25:11 26:12 27:1 29:3 31:9 32:0.2368 33:38 34:3 39:1 42:19 43:2 45:6 46:12 47:1 50:6 51:12 52:1 60:1 69:1 89:2 90:0.0357 91:0.0526 92:0.0591 
0.5 0.1339596480967178 6:16 7:0.2857 8:56 9:8 14:1 15:6 17:8 18:7 19:1 20:11 21:12 22:1 24:1 25:11 26:12 27:1 29:3 31:6 32:0.4286 33:14 39:1 42:14 43:1 45:5 46:1 47:1 50:1.25 51:0.25 52:0.25 59:1 60:1 69:1 89:1 90:0.0179 91:0.0714 92:0.0315 
0.5 0.5 6:16 7:0.2857 8:56 9:8 14:1 15:6 17:8 18:7 19:1 20:11 21:12 22:1 24:1 25:11 26:12 27:1 29:3 31:6 32:0.2857 33:21 34:1 39:1 42:21 43:1 45:3 46:6 47:3 50:3 51:6 52:3 60:1 69:1 89:3 90:0.0536 91:0.1429 92:0.1909 
0.5 0.3835503548397299 6:16 7:0.2857 8:56 9:8 14:1 15:6 17:8 18:7 19:1 20:11 21:12 22:1 24:1 25:11 26:12 27:1 29:3 31:12 32:0.5 33:24 34:1 39:1 42:24 43:1 45:4 46:5 47:2 50:4 51:5 52:2 60:1 69:1 89:4 90:0.0714 91:0.1667 92:0.1533 
0.5 0 6:16 7:0.2857 8:56 9:8 14:1 15:6 17:8 18:7 19:1 20:11 21:12 22:1 24:1 25:11 26:12 27:1 29:3 31:8 32:0.2667 33:30 34:4 36:1 42:30 43:1 45:4 46:7 47:3 50:4 51:7 52:3 54:1 60:1 69:1 89:3 90:0.0536 91:0.1 92:0.0993 
0.5 0.5 6:16 7:0.2857 8:56 9:8 14:1 15:6 17:8 18:7 19:1 20:11 21:12 22:1 24:1 25:11 26:12 27:1 29:3 31:4 32:0.5714 33:7 34:2 42:7 43:1 45:1 46:1 47:1 50:1 51:1 52:1 54:1 60:1 69:1 89:1 90:0.0179 91:0.1429 92:0.0598 93:1 94:0.0179 95:0.1429 96:0.0659 97:1 98:0.0179 99:0.1429 100:0.0659 
0.5 0 6:16 7:0.2857 8:56 9:8 14:1 15:6 17:8 18:7 19:1 20:11 21:12 22:1 24:1 25:11 26:12 27:1 29:3 31:10 32:0.5 33:20 34:2 35:1 42:20 43:1 45:4 46:3 47:2 50:4 51:3 52:2 60:1 69:1 89:4 90:0.0714 91:0.2 92:0.189 
0.5 0 6:16 7:0.2857 8:56 9:8 14:1 15:6 17:8 18:7 19:1 20:11 21:12 22:1 24:1 25:11 26:12 27:1 29:3 31:10 32:0.7143 33:14 34:1 42:7 43:2 45:3 46:4 47:1 50:0.4286 51:0.5714 52:0.1429 60:1 69:1 89:1 90:0.0179 91:0.0714 92:0.0371 
0.5 0 6:16 7:0.2857 8:56 9:8 14:1 15:6 17:8 18:7 19:1 20:11 21:12 22:1 24:1 25:11 26:12 27:1 29:3 31:8 32:0.2286 33:35 34:1 42:35 43:1 45:6 46:6 47:5 50:6 51:6 52:5 60:1 69:1 89:5 90:0.0893 91:0.1429 92:0.1498 93:1 94:0.0179 95:0.0286 96:0.0257 97:1 98:0.0179 99:0.0286 100:0.0265 
0.5 0.5 6:9 7:0.1731 8:52 9:9 14:1 15:3 17:10.4 18:5 19:2 20:12 21:8 22:7 24:2 25:12 26:8 27:7 29:1 31:9 32:0.4286 33:21 42:7 43:3 45:5 46:6 50:5 51:6 55:1 60:1 62:1 88:1 89:5 90:0.0962 91:0.2381 92:0.2177 93:1 94:0.0192 95:0.0476 96:0.033 
0.5 0.483994772332269 6:9 7:0.1731 8:52 9:9 14:1 15:3 17:10.4 18:5 19:2 20:12 21:8 22:7 24:2 25:12 26:8 27:7 29:1 31:7 32:0.7 33:10 34:3 42:10 43:1 45:1 46:3 47:1 50:1 51:3 52:1 54:1 60:1 62:1 88:1 89:2 90:0.0385 91:0.2 92:0.2182 
0.5 0 6:11 7:0.234 8:47 9:4 13:1 14:1 15:1 16:1 17:15.6667 18:3 19:1 20:10 21:8 22:3 24:1 25:10 26:8 27:3 31:5 32:0.4545 33:11 40:1 42:5.5 43:2 44:2 45:1 46:2 49:2 50:1 51:2 60:1 68:1 88:1 89:2 90:0.0426 91:0.1818 92:0.0943 
0.5 0 6:10 7:0.1887 8:53 9:4 14:1 15:1 17:13.25 18:4 20:14 21:9 22:5 25:14 26:9 27:5 29:1 31:9 32:0.6 33:15 34:2 42:15 43:1 45:3 46:4 47:2 50:1.5 51:2 52:1 54:1 58:1 59:1 60:1 65:1 89:2 90:0.0377 91:0.1333 92:0.112 
0.5 0.5 6:10 7:0.1887 8:53 9:4 14:1 15:1 17:13.25 18:4 20:14 21:9 22:5 25:14 26:9 27:5 29:1 31:11 32:0.1571 33:70 34:3 39:1 42:23.3333 43:3 44:1 45:12 46:10 47:11 49:0.125 50:1.5 51:1.25 52:1.375 58:1 59:1 60:1 65:1 89:9 90:0.1698 91:0.1286 92:0.2374 93:2 94:0.0377 95:0.0286 96:0.0313 
0.5 0 6:10 7:0.1887 8:53 9:4 14:1 15:1 17:13.25 18:4 20:14 21:9 22:5 25:14 26:9 27:5 29:1 31:4 32:0.4 33:10 34:1 39:1 40:1 42:10 43:1 44:1 45:3 47:3 49:1 50:3 52:3 58:1 60:1 65:1 
0.5 0 6:10 7:0.1887 8:53 9:4 14:1 15:1 17:13.25 18:4 20:14 21:9 22:5 25:14 26:9 27:5 29:1 31:9 32:0.1406 33:64 34:6 39:1 41:2 42:16 43:4 44:1 45:14 46:13 47:5 49:0.125 50:1.75 51:1.625 52:0.625 54:2 60:1 65:1 89:8 90:0.1509 91:0.125 92:0.2843 
0.5 0.5 6:10 7:0.1887 8:53 9:4 14:1 15:1 17:13.25 18:4 20:14 21:9 22:5 25:14 26:9 27:5 29:1 31:9 32:0.1765 33:51 34:2 39:2 42:8.5 43:6 45:7 46:9 47:2 50:1 51:1.2857 52:0.2857 54:1 60:1 65:1 89:4 90:0.0755 91:0.0784 92:0.1635 
0.5 0 6:10 7:0.1887 8:53 9:4 14:1 15:1 17:13.25 18:4 20:14 21:9 22:5 25:14 26:9 27:5 29:1 31:14 32:0.1148 33:122 34:15 39:3 42:20.3333 43:6 44:2 45:26 46:26 47:13 49:0.25 50:3.25 51:3.25 52:1.625 54:3 60:1 65:1 89:9 90:0.1698 91:0.0738 92:0.3921 93:3 94:0.0566 95:0.0246 96:0.1297 97:1 98:0.0189 99:0.0082 100:0.1079 
0.5 0 6:10 7:0.1887 8:53 9:4 14:1 15:1 17:13.25 18:4 20:14 21:9 22:5 25:14 26:9 27:5 29:1 31:9 32:0.5294 33:17 34:2 39:1 42:17 43:1 44:1 45:5 46:3 47:2 49:1 50:5 51:3 52:2 58:1 60:1 65:1 89:4 90:0.0755 91:0.2353 92:0.2668 93:2 94:0.0377 95:0.1176 96:0.1302 97:1 98:0.0189 99:0.0588 100:0.0993 
0.5 0 6:8 7:0.2105 8:38 14:1 17:38 18:1 20:10 21:12 22:2 25:3.3333 26:4 27:0.6667 31:9 32:0.1525 33:59 34:13 39:1 41:2 42:9.8333 43:6 45:9 46:19 47:4 50:9 51:19 52:4 54:3 70:1 89:6 90:0.1579 91:0.1017 92:0.2722 93:1 94:0.0263 95:0.0169 96:0.0207 97:1 98:0.0263 99:0.0169 100:0.021 
0.3778469429254521 0 1:1 2:1 6:8 7:0.2105 8:38 14:1 17:38 18:1 20:10 21:12 22:2 25:3.3333 26:4 27:0.6667 30:1 31:9 32:0.6429 33:14 42:14 43:1 45:4 46:4 47:1 50:4 51:4 52:1 70:1 89:1 90:0.0263 91:0.0714 92:0.0421 
0.5 0 6:8 7:0.2105 8:38 14:1 17:38 18:1 20:10 21:12 22:2 25:3.3333 26:4 27:0.6667 30:2 31:72 32:6.5455 33:11 42:11 43:1 46:9 51:9 59:1 70:1 89:1 90:0.0263 91:0.0909 92:0.1305 
0.5 0 1:1 2:1 6:8 7:0.2105 8:38 14:1 17:38 18:1 20:10 21:12 22:2 25:3.3333 26:4 27:0.6667 30:1 31:7 32:0.3182 33:22 34:1 42:11 43:2 44:1 45:2 46:7 49:1 50:2 51:7 70:1 
0.5 0 6:8 7:0.2105 8:38 14:1 17:38 18:1 20:10 21:12 22:2 25:3.3333 26:4 27:0.6667 30:5 31:10 32:0.3125 33:32 34:11 41:3 42:10.6667 43:3 45:4 46:19 47:3 50:4 51:19 52:3 54:3 70:1 89:2 90:0.0526 91:0.0625 92:0.0572 
0.5 0 6:8 7:0.2105 8:38 14:1 17:38 18:1 20:10 21:12 22:2 25:3.3333 26:4 27:0.6667 31:9 32:2.25 33:4 42:4 43:1 45:1 46:2 50:0.2 51:0.4 59:1 70:1 
0.5 0 1:1 2:2 6:8 7:0.2105 8:38 14:1 17:38 18:1 20:10 21:12 22:2 25:3.3333 26:4 27:0.6667 30:1 31:10 32:0.1923 33:52 34:9 36:1 39:1 42:52 43:1 44:2 45:8 46:15 47:3 49:1 50:4 51:7.5 52:1.5 54:3 70:1 89:4 90:0.1053 91:0.0769 92:0.1193 93:2 94:0.0526 95:0.0385 96:0.0654 97:1 98:0.0263 99:0.0192 100:0.0353 
0.5 0 1:2 2:2 6:10 7:1.25 8:8 17:8 18:1 20:1 21:3 25:1 26:3 29:1 30:3 31:33 32:1.0645 33:31 34:1 42:31 43:1 45:3 46:15 50:0.0909 51:0.4545 55:1 56:1 69:1 
0.5 0.5 6:10 7:0.2564 8:39 10:1 15:2 17:7.8 18:5 19:1 20:5 21:13 24:0.1429 25:0.7143 26:1.8571 31:10 32:0.4545 33:22 34:1 39:1 42:22 43:1 45:3 46:3 47:2 50:1 51:1 52:0.6667 54:1 55:1 60:1 68:1 88:1 89:3 90:0.0769 91:0.1364 92:0.1956 
0.5 0 6:10 7:0.2564 8:39 9:3 14:2 15:6 17:6.5 18:6 20:9 21:5 22:4 25:9 26:5 27:4 31:12 32:0.4 33:30 34:3 39:2 42:10 43:3 44:2 45:5 46:5 47:5 49:2 50:5 51:5 52:5 60:1 79:1 89:4 90:0.1026 91:0.1333 92:0.1256 93:1 94:0.0256 95:0.0333 96:0.0348 97:1 98:0.0256 99:0.0333 100:0.0348 
0.5 0.02981070219265788 6:10 7:0.2564 8:39 9:3 14:2 15:6 17:6.5 18:6 20:9 21:5 22:4 25:9 26:5 27:4 31:10 32:0.25 33:40 34:3 35:1 38:1 39:1 42:13.3333 43:3 45:8 46:14 47:3 50:2 51:3.5 52:0.75 54:1 60:1 79:1 89:7 90:0.1795 91:0.175 92:0.2492 93:2 94:0.0513 95:0.05 96:0.0565 97:1 98:0.0256 99:0.025 100:0.0282 
0.5 0.1790063066460492 6:10 7:0.2564 8:39 9:3 14:2 15:6 17:6.5 18:6 20:9 21:5 22:4 25:9 26:5 27:4 31:12 32:0.8 33:15 34:3 42:7.5 43:2 45:2 46:4 50:0.4 51:0.8 54:1 60:1 79:1 89:2 90:0.0513 91:0.1333 92:0.2983 
0.5 0.5 6:10 7:0.2564 8:39 9:3 14:2 15:6 17:6.5 18:6 20:9 21:5 22:4 25:9 26:5 27:4 31:10 32:0.2941 33:34 34:3 39:1 42:11.3333 43:3 44:1 45:8 46:4 47:6 49:1 50:8 51:4 52:6 54:1 59:1 60:1 79:1 89:8 90:0.2051 91:0.2353 92:0.2817 93:2 94:0.0513 95:0.0588 96:0.0896 97:1 98:0.0256 99:0.0294 100:0.0597 
0.5 0 6:10 7:0.2564 8:39 9:3 14:2 15:6 17:6.5 18:6 20:9 21:5 22:4 25:9 26:5 27:4 31:9 32:0.4737 33:19 34:5 39:1 40:1 42:9.5 43:2 45:3 46:5 47:2 50:3 51:5 52:2 54:1 58:1 59:1 60:1 79:1 89:3 90:0.0769 91:0.1579 92:0.1268 93:1 94:0.0256 95:0.0526 96:0.0435 97:1 98:0.0256 99:0.0526 100:0.0435 
0.5 0.5 6:10 7:0.2564 8:39 9:3 14:2 15:6 17:6.5 18:6 20:9 21:5 22:4 25:9 26:5 27:4 31:11 32:0.0991 33:111 34:20 39:3 42:22.2 43:5 45:17 46:33 47:13 50:1.7 51:3.3 52:1.3 54:5 60:1 79:1 89:13 90:0.3333 91:0.1171 92:0.3341 93:3 94:0.0769 95:0.027 96:0.0812 97:1 98:0.0256 99:0.009 100:0.05 
0.5 0.5 6:12 7:0.16 8:75 9:12 14:3 15:2 17:10.7143 18:7 20:14 21:19 22:5 25:2.3333 26:3.1667 27:0.8333 29:5 31:13 32:0.1008 33:129 34:23 39:1 41:1 42:12.9 43:10 45:14 46:35 47:6 50:2.3333 51:5.8333 52:1 54:9 57:1 60:1 73:1 89:25 90:0.3333 91:0.1938 92:0.5648 93:13 94:0.1733 95:0.1008 96:0.1751 97:5 98:0.0667 99:0.0388 100:0.0573 
0.5 0 1:1 2:3 6:9 7:0.2571 8:35 9:5 10:2 17:35 18:1 19:1 20:8 21:5 22:4 24:0.3333 25:2.6667 26:1.6667 27:1.3333 29:2 30:5 31:10 32:0.2632 33:38 42:9.5 43:4 45:3 46:21 50:0.375 51:2.625 55:1 56:1 60:1 73:1 89:2 90:0.0571 91:0.0526 92:0.1265 
0.5 0 6:11 7:0.3548 8:31 9:11 14:2 15:2 17:7.75 18:4 19:1 20:6 21:11 22:2 24:0.1429 25:0.8571 26:1.5714 27:0.2857 29:3 31:9 32:0.3333 33:27 34:1 42:13.5 43:2 44:1 45:7 46:6 47:5 49:0.2 50:1.4 51:1.2 52:1 58:1 60:1 83:1 89:2 90:0.0645 91:0.0741 92:0.0626 
0.5 0.5 6:6 7:0.4615 8:13 9:2 12:1 14:1 15:1 17:6.5 18:2 19:1 20:3 21:4 22:2 24:1 25:3 26:4 27:2 31:6 32:0.375 33:16 39:1 42:16 43:1 45:3 46:4 50:0.75 51:1 58:1 60:1 67:1 89:2 90:0.1538 91:0.125 92:0.1463 
0.5 0.5 1:1 2:2 6:6 7:0.4615 8:13 9:2 12:1 14:1 15:1 17:6.5 18:2 19:1 20:3 21:4 22:2 24:1 25:3 26:4 27:2 30:3 31:10 32:0.1818 33:55 34:3 39:1 42:55 43:1 44:1 45:7 46:19 47:3 49:1 50:7 51:19 52:3 54:2 56:1 60:1 67:1 89:1 90:0.0769 91:0.0182 92:0.0662 
0.5 0 6:8 7:0.3077 8:26 9:5 12:1 14:1 17:26 18:1 20:4 21:7 22:4 25:4 26:7 27:4 29:2 31:7 32:1.4 33:5 34:1 38:1 42:5 43:1 45:1 46:2 50:0.1429 51:0.2857 54:1 60:1 70:1 
0.5 0 6:7 7:0.1129 8:62 9:11 12:1 14:1 15:1 17:15.5 18:4 19:2 20:8 21:15 22:8 24:2 25:8 26:15 27:8 29:3 31:7 32:0.3889 33:18 34:2 42:9 43:2 45:4 46:3 47:1 50:4 51:3 52:1 57:1 60:1 64:1 88:1 89:8 90:0.129 91:0.4444 92:0.3352 93:4 94:0.0645 95:0.2222 96:0.127 97:2 98:0.0323 99:0.1111 100:0.0645 
0.5 0.5 6:7 7:0.1129 8:62 9:11 12:1 14:1 15:1 17:15.5 18:4 19:2 20:8 21:15 22:8 24:2 25:8 26:15 27:8 29:3 31:10 32:0.2439 33:41 39:2 42:20.5 43:2 45:7 46:12 47:1 50:1.4 51:2.4 52:0.2 58:1 59:1 60:1 64:1 88:1 89:6 90:0.0968 91:0.1463 92:0.1866 93:2 94:0.0323 95:0.0488 96:0.0412 97:2 98:0.0323 99:0.0488 100:0.0419 
0.5 0.5 6:11 7:0.3333 8:33 9:7 12:1 15:1 16:1 17:11 18:3 19:1 20:4 21:12 22:3 24:0.1667 25:0.6667 26:2 27:0.5 29:1 31:11 32:0.5789 33:19 34:1 42:19 43:1 44:1 45:2 46:4 47:2 49:0.3333 50:0.6667 51:1.3333 52:0.6667 55:1 60:1 77:1 88:1 
0.5 0 6:9 7:0.1475 8:61 9:7 15:1 17:12.2 18:5 19:1 20:10 21:16 22:5 24:1 25:10 26:16 27:5 29:2 31:9 32:0.5625 33:16 34:1 42:8 43:2 45:2 46:2 47:2 50:1 51:1 52:1 58:1 60:1 73:1 89:13 90:0.2131 91:0.8125 92:0.4679 93:12 94:0.1967 95:0.75 96:0.4068 97:11 98:0.1803 99:0.6875 100:0.3729 
0.5 0.5 6:9 7:0.1475 8:61 9:7 15:1 17:12.2 18:5 19:1 20:10 21:16 22:5 24:1 25:10 26:16 27:5 29:2 31:14 32:0.1414 33:99 34:1 39:3 42:99 43:1 45:18 46:27 47:6 50:2 51:3 52:0.6667 60:1 73:1 89:9 90:0.1475 91:0.0909 92:0.2968 93:1 94:0.0164 95:0.0101 96:0.0133 
0.5 0 6:9 7:0.1475 8:61 9:7 15:1 17:12.2 18:5 19:1 20:10 21:16 22:5 24:1 25:10 26:16 27:5 29:2 31:10 32:0.1639 33:61 34:2 35:1 40:1 42:15.25 43:4 44:2 45:11 46:9 47:5 49:0.6667 50:3.6667 51:3 52:1.6667 56:1 60:1 73:1 89:7 90:0.1148 91:0.1148 92:0.2091 93:1 94:0.0164 95:0.0164 96:0.0162 
0.5 0.3825754144258363 6:10 7:0.2439 8:41 9:4 12:1 15:1 17:10.25 18:4 19:1 20:7 21:10 22:1 24:0.1667 25:1.1667 26:1.6667 27:0.1667 31:7 32:0.5833 33:12 36:1 42:12 43:1 45:3 46:2 47:1 50:1 51:0.6667 52:0.3333 55:1 60:1 65:1 88:1 89:1 90:0.0244 91:0.0833 92:0.1083 
0.5 0 6:15 7:0.3846 8:39 9:6 14:1 15:1 17:19.5 18:2 20:6 21:16 22:5 25:1 26:2.6667 27:0.8333 29:3 31:7 32:2.3333 33:3 42:3 43:1 46:2 51:0.2857 57:1 62:1 88:1 
0.5 0.240118618301101 6:15 7:0.4545 8:33 9:4 15:5 17:6.6 18:5 19:4 20:6 21:2 22:2 24:4 25:6 26:2 27:2 31:9 32:0.36 33:25 34:4 39:1 40:2 41:3 42:5 43:5 45:2 46:5 47:2 50:2 51:5 52:2 54:3 60:1 70:1 88:1 89:2 90:0.0606 91:0.08 92:0.1678 
0.5 0.1286590644580639 6:5 7:1.6667 8:3 9:3 17:3 18:1 21:3 26:0.6 29:1 31:13 32:0.4062 33:32 34:8 42:16 43:2 45:3 46:15 50:3 51:15 54:6 55:1 56:1 60:1 74:1 
0.5 0.5 6:10 7:0.1266 8:79 9:12 14:1 15:1 17:26.3333 18:3 19:1 20:10 21:21 22:4 24:1 25:10 26:21 27:4 29:6 31:13 32:0.0575 33:226 34:25 39:3 40:2 42:75.3333 43:3 44:6 45:46 46:49 47:24 49:3 50:23 51:24.5 52:12 54:10 55:1 56:1 60:1 65:1 88:1 89:20 90:0.2532 91:0.0885 92:0.3303 93:3 94:0.038 95:0.0133 96:0.0223 97:1 98:0.0127 99:0.0044 100:0.0078 
0.5 0.5 6:7 7:1.4 8:5 9:2 11:1 13:1 17:5 18:1 21:3 26:0.75 29:1 31:7 32:0.5833 33:12 34:2 40:1 42:12 43:1 45:2 46:4 50:2 51:4 54:2 55:1 60:1 77:1 
0.5 0.5 6:7 7:1.4 8:5 9:2 11:1 13:1 17:5 18:1 21:3 26:0.75 29:1 31:9 32:0.3913 33:23 34:1 41:2 42:11.5 43:2 44:1 45:7 46:4 47:1 49:1 50:7 51:4 52:1 54:1 60:1 77:1 
0.5 0.5 6:7 7:1.4 8:5 9:2 11:1 13:1 17:5 18:1 21:3 26:0.75 29:1 31:7 32:0.7 33:10 40:1 42:10 43:1 44:1 45:3 47:1 49:1 50:3 52:1 60:1 77:1 
0.5 0.5 6:12 7:0.375 8:32 9:1 13:1 14:1 17:32 18:1 20:7 21:10 22:1 25:7 26:10 27:1 29:1 31:9 32:0.2432 33:37 34:5 39:1 42:37 43:1 45:7 46:7 47:2 50:7 51:7 52:2 54:1 59:1 60:1 79:1 89:6 90:0.1875 91:0.1622 92:0.1898 
0.5 0.07649530077914485 6:10 7:0.1136 8:88 9:11 10:1 12:1 14:1 15:12 17:5.1765 18:17 19:1 20:12 21:25 22:5 24:0.1667 25:2 26:4.1667 27:0.8333 29:5 31:7 32:0.5385 33:13 34:1 40:1 42:13 43:1 45:4 46:2 47:1 50:4 51:2 52:1 54:1 60:1 70:1 89:4 90:0.0455 91:0.3077 92:0.2001 
0.5 0 6:10 7:0.1136 8:88 9:11 10:1 12:1 14:1 15:12 17:5.1765 18:17 19:1 20:12 21:25 22:5 24:0.1667 25:2 26:4.1667 27:0.8333 29:5 31:11 32:0.4231 33:26 34:2 38:1 42:13 43:2 45:8 46:6 47:2 50:2 51:1.5 52:0.5 54:1 60:1 70:1 89:1 90:0.0114 91:0.0385 92:0.0335 
0.5 0.4690198835076353 6:10 7:0.1136 8:88 9:11 10:1 12:1 14:1 15:12 17:5.1765 18:17 19:1 20:12 21:25 22:5 24:0.1667 25:2 26:4.1667 27:0.8333 29:5 31:5 32:0.625 33:8 34:2 40:1 42:4 43:2 44:1 45:1 47:2 49:1 50:1 52:2 59:1 60:1 70:1 89:3 90:0.0341 91:0.375 92:0.2021 93:2 94:0.0227 95:0.25 96:0.0962 97:1 98:0.0114 99:0.125 100:0.0488 
0.5 0.1596547124250303 6:10 7:0.1136 8:88 9:11 10:1 12:1 14:1 15:12 17:5.1765 18:17 19:1 20:12 21:25 22:5 24:0.1667 25:2 26:4.1667 27:0.8333 29:5 31:12 32:0.2264 33:53 34:3 35:1 42:26.5 43:2 45:9 46:13 47:3 50:3 51:4.3333 52:1 58:1 59:1 60:1 70:1 89:9 90:0.1023 91:0.1698 92:0.2579 93:2 94:0.0227 95:0.0377 96:0.0472 97:1 98:0.0114 99:0.0189 100:0.0163 
0.5 0.4037942852048603 6:10 7:0.2439 8:41 9:5 15:2 17:10.25 18:4 20:3 21:10 22:1 25:3 26:10 27:1 29:1 31:10 32:0.3846 33:26 34:2 38:1 39:2 42:26 43:1 45:6 46:3 47:7 50:2 51:1 52:2.3333 54:1 55:1 60:1 63:1 89:3 90:0.0732 91:0.1154 92:0.091 
0.5 0.5 6:10 7:0.2439 8:41 9:5 15:2 17:10.25 18:4 20:3 21:10 22:1 25:3 26:10 27:1 29:1 31:10 32:0.0971 33:103 34:8 35:1 39:4 41:3 42:12.875 43:8 44:3 45:19 46:14 47:17 49:0.4286 50:2.7143 51:2 52:2.4286 54:1 60:1 63:1 89:9 90:0.2195 91:0.0874 92:0.2251 93:3 94:0.0732 95:0.0291 96:0.0673 97:3 98:0.0732 99:0.0291 100:0.0525 
0.5 0.5 6:10 7:0.2439 8:41 9:5 15:2 17:10.25 18:4 20:3 21:10 22:1 25:3 26:10 27:1 29:1 31:8 32:0.2667 33:30 34:29 39:2 42:30 43:1 45:3 46:25 47:1 50:0.4286 51:3.5714 52:0.1429 54:3 56:1 60:1 63:1 89:1 90:0.0244 91:0.0333 92:0.0286 
0.5 0 6:9 7:0.1154 8:78 9:7 13:1 14:1 17:19.5 18:4 19:3 20:17 21:19 22:6 24:3 25:17 26:19 27:6 29:1 31:10 32:0.0943 33:106 34:13 37:1 39:1 41:2 42:15.1429 43:7 44:2 45:12 46:38 47:7 49:2 50:12 51:38 52:7 54:3 56:1 57:1 60:1 65:1 89:17 90:0.2179 91:0.1604 92:0.4712 93:5 94:0.0641 95:0.0472 96:0.0662 97:1 98:0.0128 99:0.0094 100:0.0114 
0.5 0 6:10 7:0.1695 8:59 9:7 15:3 16:1 17:9.8333 18:6 19:2 20:15 21:12 22:6 24:0.2857 25:2.1429 26:1.7143 27:0.8571 29:1 31:5 32:1 33:5 34:2 40:1 42:5 43:1 46:2 47:1 51:2 52:1 54:1 55:1 56:1 60:1 71:1 89:1 90:0.0169 91:0.2 92:0.0556 93:1 94:0.0169 95:0.2 96:0.0674 97:1 98:0.0169 99:0.2 100:0.0674 
0.5 0 6:10 7:0.7143 8:14 9:3 15:1 17:7 18:2 20:3 21:3 22:1 25:3 26:3 27:1 29:1 31:8 32:0.4 33:20 34:3 40:1 42:10 43:2 44:2 45:4 46:5 47:1 49:0.6667 50:1.3333 51:1.6667 52:0.3333 54:1 60:1 68:1 89:2 90:0.1429 91:0.1 92:0.126 
0.5 0.4704917816983955 6:10 7:0.7143 8:14 9:3 15:1 17:7 18:2 20:3 21:3 22:1 25:3 26:3 27:1 29:1 31:4 32:0.3333 33:12 34:1 36:1 42:12 43:1 44:1 45:2 47:2 49:1 50:2 52:2 60:1 68:1 89:1 90:0.0714 91:0.0833 92:0.0913 
0.5 0.5 6:10 7:0.7143 8:14 9:3 15:1 17:7 18:2 20:3 21:3 22:1 25:3 26:3 27:1 29:1 31:7 32:0.3684 33:19 34:3 39:1 42:9.5 43:2 45:4 46:2 47:2 50:0.8 51:0.4 52:0.4 54:1 60:1 68:1 89:2 90:0.1429 91:0.1053 92:0.1443 
0.5 0 1:1 2:2 6:9 7:0.1233 8:73 9:11 12:1 14:1 15:1 17:14.6 18:5 19:3 20:20 21:12 22:5 24:3 25:20 26:12 27:5 29:4 30:2 31:11 32:0.3548 33:31 34:7 41:1 42:15.5 43:2 45:2 46:18 50:1 51:9 54:2 60:1 83:1 89:1 90:0.0137 91:0.0323 92:0.0257 
0.2215647293091521 0 6:9 7:0.1233 8:73 9:11 12:1 14:1 15:1 17:14.6 18:5 19:3 20:20 21:12 22:5 24:3 25:20 26:12 27:5 29:4 31:6 32:0.6667 33:9 34:3 40:1 42:9 43:1 44:1 45:1 46:3 49:1 50:1 51:3 54:1 60:1 83:1 89:2 90:0.0274 91:0.2222 92:0.0575 
0.5 0.5 6:6 7:1 8:6 9:1 15:1 17:6 18:1 21:3 26:3 31:3 32:0.375 33:8 34:2 42:8 43:1 45:1 46:1 50:1 51:1 54:1 60:1 65:1 
0.5 0 6:14 7:0.7 8:20 9:6 15:1 17:20 18:1 20:2 21:8 25:2 26:8 29:2 31:11 32:0.3438 33:32 34:5 42:16 43:2 45:7 46:5 47:3 50:7 51:5 52:3 54:1 67:1 89:2 90:0.1 91:0.0625 92:0.0838 
0.5 0 6:14 7:0.7 8:20 9:6 15:1 17:20 18:1 20:2 21:8 25:2 26:8 29:2 31:11 32:0.3438 33:32 34:3 40:1 42:10.6667 43:3 45:5 46:6 47:2 50:5 51:6 52:2 67:1 89:6 90:0.3 91:0.1875 92:0.4056 93:4 94:0.2 95:0.125 96:0.2214 97:3 98:0.15 99:0.0938 100:0.1375 
0.5 0 6:14 7:0.7 8:20 9:6 15:1 17:20 18:1 20:2 21:8 25:2 26:8 29:2 31:12 32:0.2182 33:55 34:11 39:1 42:13.75 43:4 45:8 46:17 47:3 50:8 51:17 52:3 54:4 56:1 67:1 89:2 90:0.1 91:0.0364 92:0.0574 
0.5 0 1:2 2:4 6:11 7:0.1571 8:70 9:10 10:1 13:1 14:2 17:17.5 18:4 20:10 21:18 22:5 25:10 26:18 27:5 29:2 30:5 31:7 32:0.14 33:50 34:2 42:10 43:5 45:6 46:20 47:2 50:6 51:20 52:2 54:1 55:1 56:1 60:1 67:1 89:3 90:0.0429 91:0.06 92:0.0508 
0.5 0.5 6:7 7:0.2917 8:24 13:1 15:1 17:12 18:2 19:1 20:3 21:8 22:1 24:0.3333 25:1 26:2.6667 27:0.3333 31:4 32:0.4444 33:9 40:1 42:9 43:1 45:1 46:2 50:1 51:2 59:1 60:1 66:1 88:1 
0.5 0 6:11 7:0.1719 8:64 9:4 14:1 15:1 17:32 18:2 20:12 21:20 22:9 25:1.5 26:2.5 27:1.125 31:4 32:0.6667 33:6 42:6 43:1 45:1 46:1 47:2 50:0.3333 51:0.3333 52:0.6667 55:1 56:1 57:1 60:1 62:1 88:1 89:2 90:0.0312 91:0.3333 92:0.2712 
0.5 0.1996633129581921 6:10 7:0.1923 8:52 13:1 17:52 18:1 19:1 20:9 21:12 22:3 24:0.3333 25:3 26:4 27:1 31:9 32:0.6 33:15 34:1 42:15 43:1 45:3 46:4 47:1 50:1 51:1.3333 52:0.3333 54:1 57:1 60:1 68:1 89:8 90:0.1538 91:0.5333 92:0.5528 93:3 94:0.0577 95:0.2 96:0.1393 97:1 98:0.0192 99:0.0667 100:0.0362 
0.5 0 2:1 6:10 7:0.1923 8:52 13:1 17:52 18:1 19:1 20:9 21:12 22:3 24:0.3333 25:3 26:4 27:1 30:2 31:13 32:0.2453 33:53 34:4 42:26.5 43:2 44:2 45:6 46:17 47:5 49:2 50:6 51:17 52:5 54:1 56:1 60:1 68:1 89:9 90:0.1731 91:0.1698 92:0.2934 
0.5 0.5 6:10 7:0.3571 8:28 9:11 12:1 17:9.3333 18:3 19:2 20:3 21:12 22:1 24:0.2857 25:0.4286 26:1.7143 27:0.1429 29:4 31:6 32:1.5 33:4 34:1 42:4 43:1 45:1 46:1 50:0.3333 51:0.3333 54:1 55:1 60:1 63:1 88:1 89:2 90:0.0714 91:0.5 92:0.2466 
0.5 0.5 6:7 7:0.7 8:10 9:4 15:1 17:10 18:1 20:2 21:4 25:2 26:4 29:2 31:9 32:0.6 33:15 34:1 42:15 43:1 45:4 46:1 47:3 50:1.3333 51:0.3333 52:1 55:1 60:1 65:1 
0.5 0 6:7 7:0.7 8:10 9:4 15:1 17:10 18:1 20:2 21:4 25:2 26:4 29:2 31:10 32:0.303 33:33 34:6 42:16.5 43:2 45:6 46:9 47:2 50:6 51:9 52:2 54:3 59:1 60:1 65:1 
0.5 0.5 6:7 7:0.7 8:10 9:4 15:1 17:10 18:1 20:2 21:4 25:2 26:4 29:2 31:12 32:0.0513 33:234 34:12 39:9 40:1 42:19.5 43:12 44:5 45:46 46:40 47:26 49:5 50:46 51:40 52:26 57:1 60:1 65:1 89:1 90:0.1 91:0.0043 92:0.0334 
0.5 0 6:7 7:0.7 8:10 9:4 15:1 17:10 18:1 20:2 21:4 25:2 26:4 29:2 31:9 32:0.1875 33:48 34:8 35:1 40:1 41:2 42:16 43:3 44:1 45:12 46:8 47:4 49:1 50:12 51:8 52:4 54:2 58:1 60:1 65:1 89:1 90:0.1 91:0.0208 92:0.0875 
0.5 0.4570316631683685 6:7 7:0.7 8:10 9:4 15:1 17:10 18:1 20:2 21:4 25:2 26:4 29:2 31:4 32:0.2353 33:17 41:14 42:1.2143 43:14 46:2 51:2 60:1 65:1 
0.5 0.1161340139762619 6:7 7:0.7 8:10 9:4 15:1 17:10 18:1 20:2 21:4 25:2 26:4 29:2 31:7 32:0.4667 33:15 42:15 43:1 44:1 45:4 46:3 47:3 49:1 50:4 51:3 52:3 60:1 65:1 
0.5 0.5 6:7 7:0.7 8:10 9:4 15:1 17:10 18:1 20:2 21:4 25:2 26:4 29:2 31:7 32:1.4 33:5 34:2 42:5 43:1 45:1 46:2 50:0.2 51:0.4 60:1 65:1 
0.5 0.5 6:7 7:0.7 8:10 9:4 15:1 17:10 18:1 20:2 21:4 25:2 26:4 29:2 31:7 32:0.4118 33:17 34:3 42:17 43:1 45:4 46:6 47:1 50:4 51:6 52:1 54:2 59:1 60:1 65:1 89:1 90:0.1 91:0.0588 92:0.0861 
0.5 0.5 6:7 7:0.7 8:10 9:4 15:1 17:10 18:1 20:2 21:4 25:2 26:4 29:2 31:9 32:0.4737 33:19 34:5 42:6.3333 43:3 45:3 46:5 47:3 50:3 51:5 52:3 58:1 60:1 65:1 89:1 90:0.1 91:0.0526 92:0.0745 
0.5 0.5 6:7 7:0.7 8:10 9:4 15:1 17:10 18:1 20:2 21:4 25:2 26:4 29:2 31:7 32:0.5 33:14 34:1 39:1 41:1 42:14 43:1 45:2 46:2 47:2 50:2 51:2 52:2 60:1 65:1 89:1 90:0.1 91:0.0714 92:0.0962 
0 0.475191125841459 6:5 7:0.5 8:10 9:3 15:3 17:3.3333 18:3 20:3 21:2 25:3 26:2 29:1 31:5 32:0.2174 33:23 34:1 40:2 42:5.75 43:4 44:1 45:5 46:3 47:3 49:1 50:5 51:3 52:3 55:1 57:1 59:1 60:1 68:1 88:1 89:1 90:0.1 91:0.0435 92:0.0867 
0.5 0.5 6:5 7:0.5 8:10 9:3 15:3 17:3.3333 18:3 20:3 21:2 25:3 26:2 29:1 31:8 32:0.6667 33:12 34:1 42:12 43:1 45:3 46:4 47:1 50:0.75 51:1 52:0.25 56:1 57:1 58:1 60:1 68:1 88:1 89:1 90:0.1 91:0.0833 92:0.1091 
0.5 0 6:10 7:0.122 8:82 9:23 13:1 15:6 17:8.2 18:10 20:13 21:23 22:5 25:3.25 26:5.75 27:1.25 29:5 31:13 32:0.125 33:104 34:17 39:2 42:20.8 43:5 44:2 45:18 46:26 47:6 49:0.3333 50:3 51:4.3333 52:1 54:4 56:1 64:1 89:16 90:0.1951 91:0.1538 92:0.3263 93:4 94:0.0488 95:0.0385 96:0.059 97:1 98:0.0122 99:0.0096 100:0.024 
0.5 0.5 6:9 7:0.45 8:20 9:3 12:1 14:1 15:1 16:1 17:10 18:2 19:1 20:2 21:4 22:2 24:1 25:2 26:4 27:2 29:1 31:5 32:1.25 33:4 34:1 42:4 43:1 45:1 46:1 50:1 51:1 55:1 56:1 60:1 73:1 
0.5 0.5 6:11 7:0.3143 8:35 9:6 15:2 17:17.5 18:2 20:7 21:11 25:7 26:11 29:5 31:19 32:0.475 33:40 34:5 39:1 42:40 43:1 44:1 45:7 46:11 47:2 49:1 50:7 51:11 52:2 54:4 57:1 60:1 70:1 88:1 89:9 90:0.2571 91:0.225 92:0.3913 93:3 94:0.0857 95:0.075 96:0.1189 97:1 98:0.0286 99:0.025 100:0.0305 
0.5 0.5 6:11 7:0.3143 8:35 9:6 15:2 17:17.5 18:2 20:7 21:11 25:7 26:11 29:5 31:9 32:0.5294 33:17 34:16 42:17 43:1 44:1 45:1 46:14 49:0.3333 50:0.3333 51:4.6667 54:1 58:1 60:1 70:1 88:1 
0 0.5 6:9 7:0.2812 8:32 12:1 14:2 17:10.6667 18:3 20:5 21:10 22:2 25:5 26:10 27:2 31:8 32:0.381 33:21 39:1 42:10.5 43:2 45:5 46:5 47:2 50:0.8333 51:0.8333 52:0.3333 57:1 60:1 67:1 89:6 90:0.1875 91:0.2857 92:0.2925 93:1 94:0.0312 95:0.0476 96:0.0408 97:1 98:0.0312 99:0.0476 100:0.0408 
